=== Run information ===

Scheme:       weka.classifiers.trees.RandomTree -K 0 -M 1.0 -V 0.001 -S 1
Relation:     no_zero_other_class_at_end-weka.filters.unsupervised.attribute.Remove-V-R1-2,4,13
Instances:    12646
Attributes:   4
              Time
              Day
              Quarter
              Class
Test mode:    10-fold cross-validation

=== Classifier model (full training set) ===


RandomTree
==========

Time < 765
|   Time < 15
|   |   Quarter = Winter
|   |   |   Day < 1.5
|   |   |   |   Day < 0.5 : Not Busy (12/3)
|   |   |   |   Day >= 0.5 : Not Busy (12/2)
|   |   |   Day >= 1.5
|   |   |   |   Day < 5.5
|   |   |   |   |   Day < 4.5
|   |   |   |   |   |   Day < 3.5
|   |   |   |   |   |   |   Day < 2.5 : Not Busy (12/5)
|   |   |   |   |   |   |   Day >= 2.5 : Not Busy (12/4)
|   |   |   |   |   |   Day >= 3.5 : Empty (11/5)
|   |   |   |   |   Day >= 4.5 : Empty (1/0)
|   |   |   |   Day >= 5.5 : Not Busy (2/0)
|   |   Quarter = Spring
|   |   |   Day < 0.5 : Empty (10/5)
|   |   |   Day >= 0.5
|   |   |   |   Day < 4.5
|   |   |   |   |   Day < 2.5
|   |   |   |   |   |   Day < 1.5 : Not Busy (12/3)
|   |   |   |   |   |   Day >= 1.5 : Not Busy (12/2)
|   |   |   |   |   Day >= 2.5
|   |   |   |   |   |   Day < 3.5 : Not Busy (14/4)
|   |   |   |   |   |   Day >= 3.5 : Not Busy (12/4)
|   |   |   |   Day >= 4.5 : Not Busy (2/0)
|   |   Quarter = Fall
|   |   |   Day < 5.5
|   |   |   |   Day < 4.5
|   |   |   |   |   Day < 3.5
|   |   |   |   |   |   Day < 0.5 : Not Busy (12/4)
|   |   |   |   |   |   Day >= 0.5
|   |   |   |   |   |   |   Day < 2.5
|   |   |   |   |   |   |   |   Day < 1.5 : Not Busy (14/6)
|   |   |   |   |   |   |   |   Day >= 1.5 : Not Busy (14/5)
|   |   |   |   |   |   |   Day >= 2.5 : Not Busy (11/5)
|   |   |   |   |   Day >= 3.5 : Empty (14/6)
|   |   |   |   Day >= 4.5 : Not Busy (1/0)
|   |   |   Day >= 5.5 : Moderately Busy (2/0)
|   |   Quarter = Other : Empty (7/0)
|   |   Quarter = Summer : Empty (0/0)
|   Time >= 15
|   |   Time < 715
|   |   |   Quarter = Winter
|   |   |   |   Time < 65
|   |   |   |   |   Day < 5.5
|   |   |   |   |   |   Day < 3.5
|   |   |   |   |   |   |   Day < 1.5
|   |   |   |   |   |   |   |   Day < 0.5 : Empty (10/1)
|   |   |   |   |   |   |   |   Day >= 0.5 : Empty (9/1)
|   |   |   |   |   |   |   Day >= 1.5
|   |   |   |   |   |   |   |   Day < 2.5 : Empty (11/2)
|   |   |   |   |   |   |   |   Day >= 2.5 : Empty (10/2)
|   |   |   |   |   |   Day >= 3.5 : Empty (11/0)
|   |   |   |   |   Day >= 5.5 : Not Busy (2/0)
|   |   |   |   Time >= 65
|   |   |   |   |   Day < 3.5
|   |   |   |   |   |   Time < 115
|   |   |   |   |   |   |   Day < 2.5
|   |   |   |   |   |   |   |   Day < 0.5 : Empty (9/0)
|   |   |   |   |   |   |   |   Day >= 0.5
|   |   |   |   |   |   |   |   |   Day < 1.5 : Empty (9/1)
|   |   |   |   |   |   |   |   |   Day >= 1.5 : Empty (11/1)
|   |   |   |   |   |   |   Day >= 2.5 : Empty (10/0)
|   |   |   |   |   |   Time >= 115
|   |   |   |   |   |   |   Time < 665 : Empty (154/0)
|   |   |   |   |   |   |   Time >= 665
|   |   |   |   |   |   |   |   Day < 2.5 : Empty (27/0)
|   |   |   |   |   |   |   |   Day >= 2.5 : Empty (9/1)
|   |   |   |   |   Day >= 3.5 : Empty (85/0)
|   |   |   Quarter = Spring
|   |   |   |   Day < 0.5
|   |   |   |   |   Time < 165 : Empty (30/3)
|   |   |   |   |   Time >= 165 : Empty (25/0)
|   |   |   |   Day >= 0.5
|   |   |   |   |   Time < 65
|   |   |   |   |   |   Day < 5.5
|   |   |   |   |   |   |   Day < 2.5
|   |   |   |   |   |   |   |   Day < 1.5 : Empty (10/1)
|   |   |   |   |   |   |   |   Day >= 1.5 : Empty (11/1)
|   |   |   |   |   |   |   Day >= 2.5
|   |   |   |   |   |   |   |   Day < 4.5
|   |   |   |   |   |   |   |   |   Day < 3.5 : Empty (10/2)
|   |   |   |   |   |   |   |   |   Day >= 3.5 : Empty (11/2)
|   |   |   |   |   |   |   |   Day >= 4.5 : Empty (1/0)
|   |   |   |   |   |   Day >= 5.5 : Not Busy (1/0)
|   |   |   |   |   Time >= 65
|   |   |   |   |   |   Time < 665
|   |   |   |   |   |   |   Day < 2.5 : Empty (99/0)
|   |   |   |   |   |   |   Day >= 2.5
|   |   |   |   |   |   |   |   Time < 165
|   |   |   |   |   |   |   |   |   Time < 115 : Empty (22/0)
|   |   |   |   |   |   |   |   |   Time >= 115
|   |   |   |   |   |   |   |   |   |   Day < 3.5 : Empty (10/1)
|   |   |   |   |   |   |   |   |   |   Day >= 3.5 : Empty (12/0)
|   |   |   |   |   |   |   |   Time >= 165 : Empty (82/0)
|   |   |   |   |   |   Time >= 665
|   |   |   |   |   |   |   Day < 3.5
|   |   |   |   |   |   |   |   Day < 2.5
|   |   |   |   |   |   |   |   |   Day < 1.5 : Empty (11/1)
|   |   |   |   |   |   |   |   |   Day >= 1.5 : Empty (8/0)
|   |   |   |   |   |   |   |   Day >= 2.5 : Empty (9/1)
|   |   |   |   |   |   |   Day >= 3.5 : Empty (9/0)
|   |   |   Quarter = Fall
|   |   |   |   Time < 115
|   |   |   |   |   Day < 5.5
|   |   |   |   |   |   Time < 65
|   |   |   |   |   |   |   Day < 3.5
|   |   |   |   |   |   |   |   Day < 2.5
|   |   |   |   |   |   |   |   |   Day < 0.5 : Empty (11/2)
|   |   |   |   |   |   |   |   |   Day >= 0.5
|   |   |   |   |   |   |   |   |   |   Day < 1.5 : Empty (11/1)
|   |   |   |   |   |   |   |   |   |   Day >= 1.5 : Empty (12/2)
|   |   |   |   |   |   |   |   Day >= 2.5 : Empty (11/4)
|   |   |   |   |   |   |   Day >= 3.5
|   |   |   |   |   |   |   |   Day < 4.5 : Empty (10/1)
|   |   |   |   |   |   |   |   Day >= 4.5 : Empty (1/0)
|   |   |   |   |   |   Time >= 65
|   |   |   |   |   |   |   Day < 2.5
|   |   |   |   |   |   |   |   Day < 0.5 : Empty (9/1)
|   |   |   |   |   |   |   |   Day >= 0.5
|   |   |   |   |   |   |   |   |   Day < 1.5 : Empty (12/1)
|   |   |   |   |   |   |   |   |   Day >= 1.5 : Empty (11/1)
|   |   |   |   |   |   |   Day >= 2.5
|   |   |   |   |   |   |   |   Day < 3.5 : Empty (10/0)
|   |   |   |   |   |   |   |   Day >= 3.5
|   |   |   |   |   |   |   |   |   Day < 4.5 : Empty (11/1)
|   |   |   |   |   |   |   |   |   Day >= 4.5 : Empty (1/0)
|   |   |   |   |   Day >= 5.5 : Not Busy (2/0)
|   |   |   |   Time >= 115
|   |   |   |   |   Day < 0.5
|   |   |   |   |   |   Time < 215
|   |   |   |   |   |   |   Time < 165 : Empty (11/0)
|   |   |   |   |   |   |   Time >= 165 : Empty (8/1)
|   |   |   |   |   |   Time >= 215 : Empty (32/0)
|   |   |   |   |   Day >= 0.5 : Empty (244/0)
|   |   |   Quarter = Other : Empty (69/0)
|   |   |   Quarter = Summer : Empty (79/0)
|   |   Time >= 715
|   |   |   Day < 4.5
|   |   |   |   Quarter = Winter
|   |   |   |   |   Day < 2.5
|   |   |   |   |   |   Day < 0.5 : Empty (10/1)
|   |   |   |   |   |   Day >= 0.5 : Empty (22/2)
|   |   |   |   |   Day >= 2.5 : Empty (22/4)
|   |   |   |   Quarter = Spring
|   |   |   |   |   Day < 1.5
|   |   |   |   |   |   Day < 0.5 : Empty (9/2)
|   |   |   |   |   |   Day >= 0.5 : Empty (11/3)
|   |   |   |   |   Day >= 1.5
|   |   |   |   |   |   Day < 2.5 : Empty (11/0)
|   |   |   |   |   |   Day >= 2.5 : Empty (22/4)
|   |   |   |   Quarter = Fall
|   |   |   |   |   Day < 0.5 : Empty (13/1)
|   |   |   |   |   Day >= 0.5
|   |   |   |   |   |   Day < 1.5 : Empty (13/3)
|   |   |   |   |   |   Day >= 1.5
|   |   |   |   |   |   |   Day < 2.5 : Empty (13/2)
|   |   |   |   |   |   |   Day >= 2.5
|   |   |   |   |   |   |   |   Day < 3.5 : Empty (12/1)
|   |   |   |   |   |   |   |   Day >= 3.5 : Empty (13/2)
|   |   |   |   Quarter = Other
|   |   |   |   |   Day < 0.5 : Empty (12/1)
|   |   |   |   |   Day >= 0.5 : Empty (45/0)
|   |   |   |   Quarter = Summer
|   |   |   |   |   Day < 3.5
|   |   |   |   |   |   Day < 1.5
|   |   |   |   |   |   |   Day < 0.5 : Empty (10/3)
|   |   |   |   |   |   |   Day >= 0.5 : Empty (12/4)
|   |   |   |   |   |   Day >= 1.5
|   |   |   |   |   |   |   Day < 2.5 : Empty (13/0)
|   |   |   |   |   |   |   Day >= 2.5 : Empty (13/1)
|   |   |   |   |   Day >= 3.5 : Empty (12/5)
|   |   |   Day >= 4.5 : Empty (21/0)
Time >= 765
|   Quarter = Winter
|   |   Day < 3.5
|   |   |   Time < 2115
|   |   |   |   Time < 815
|   |   |   |   |   Day < 0.5 : Not Busy (10/1)
|   |   |   |   |   Day >= 0.5 : Not Busy (33/6)
|   |   |   |   Time >= 815
|   |   |   |   |   Day < 2.5
|   |   |   |   |   |   Time < 1565
|   |   |   |   |   |   |   Time < 1115
|   |   |   |   |   |   |   |   Time < 1015
|   |   |   |   |   |   |   |   |   Day < 0.5
|   |   |   |   |   |   |   |   |   |   Time < 965
|   |   |   |   |   |   |   |   |   |   |   Time < 915
|   |   |   |   |   |   |   |   |   |   |   |   Time < 865 : Busy (10/1)
|   |   |   |   |   |   |   |   |   |   |   |   Time >= 865 : Busy (10/2)
|   |   |   |   |   |   |   |   |   |   |   Time >= 915 : Busy (10/0)
|   |   |   |   |   |   |   |   |   |   Time >= 965 : Busy (10/2)
|   |   |   |   |   |   |   |   |   Day >= 0.5
|   |   |   |   |   |   |   |   |   |   Time < 965
|   |   |   |   |   |   |   |   |   |   |   Day < 1.5
|   |   |   |   |   |   |   |   |   |   |   |   Time < 915
|   |   |   |   |   |   |   |   |   |   |   |   |   Time < 865 : Busy (11/1)
|   |   |   |   |   |   |   |   |   |   |   |   |   Time >= 865 : Busy (11/3)
|   |   |   |   |   |   |   |   |   |   |   |   Time >= 915 : Busy (11/0)
|   |   |   |   |   |   |   |   |   |   |   Day >= 1.5
|   |   |   |   |   |   |   |   |   |   |   |   Time < 915
|   |   |   |   |   |   |   |   |   |   |   |   |   Time < 865 : Busy (11/2)
|   |   |   |   |   |   |   |   |   |   |   |   |   Time >= 865 : Busy (11/5)
|   |   |   |   |   |   |   |   |   |   |   |   Time >= 915 : Busy (11/1)
|   |   |   |   |   |   |   |   |   |   Time >= 965
|   |   |   |   |   |   |   |   |   |   |   Day < 1.5 : Moderately Busy (11/4)
|   |   |   |   |   |   |   |   |   |   |   Day >= 1.5 : Busy (11/2)
|   |   |   |   |   |   |   |   Time >= 1015
|   |   |   |   |   |   |   |   |   Time < 1065 : Busy (30/0)
|   |   |   |   |   |   |   |   |   Time >= 1065
|   |   |   |   |   |   |   |   |   |   Day < 1.5
|   |   |   |   |   |   |   |   |   |   |   Day < 0.5 : Busy (9/1)
|   |   |   |   |   |   |   |   |   |   |   Day >= 0.5 : Busy (11/2)
|   |   |   |   |   |   |   |   |   |   Day >= 1.5 : Busy (10/1)
|   |   |   |   |   |   |   Time >= 1115
|   |   |   |   |   |   |   |   Time < 1515 : Busy (255/0)
|   |   |   |   |   |   |   |   Time >= 1515
|   |   |   |   |   |   |   |   |   Day < 0.5 : Busy (10/1)
|   |   |   |   |   |   |   |   |   Day >= 0.5
|   |   |   |   |   |   |   |   |   |   Day < 1.5 : Busy (11/0)
|   |   |   |   |   |   |   |   |   |   Day >= 1.5 : Busy (11/1)
|   |   |   |   |   |   Time >= 1565
|   |   |   |   |   |   |   Day < 0.5
|   |   |   |   |   |   |   |   Time < 1715
|   |   |   |   |   |   |   |   |   Time < 1615 : Moderately Busy (11/6)
|   |   |   |   |   |   |   |   |   Time >= 1615
|   |   |   |   |   |   |   |   |   |   Time < 1665 : Busy (10/4)
|   |   |   |   |   |   |   |   |   |   Time >= 1665 : Moderately Busy (10/4)
|   |   |   |   |   |   |   |   Time >= 1715
|   |   |   |   |   |   |   |   |   Time < 1865
|   |   |   |   |   |   |   |   |   |   Time < 1765 : Busy (10/3)
|   |   |   |   |   |   |   |   |   |   Time >= 1765 : Busy (20/4)
|   |   |   |   |   |   |   |   |   Time >= 1865
|   |   |   |   |   |   |   |   |   |   Time < 2015 : Busy (30/6)
|   |   |   |   |   |   |   |   |   |   Time >= 2015
|   |   |   |   |   |   |   |   |   |   |   Time < 2065 : Busy (10/4)
|   |   |   |   |   |   |   |   |   |   |   Time >= 2065 : Busy (9/4)
|   |   |   |   |   |   |   Day >= 0.5
|   |   |   |   |   |   |   |   Time < 2015
|   |   |   |   |   |   |   |   |   Time < 1715
|   |   |   |   |   |   |   |   |   |   Time < 1665
|   |   |   |   |   |   |   |   |   |   |   Time < 1615 : Moderately Busy (22/8)
|   |   |   |   |   |   |   |   |   |   |   Time >= 1615
|   |   |   |   |   |   |   |   |   |   |   |   Day < 1.5 : Busy (11/3)
|   |   |   |   |   |   |   |   |   |   |   |   Day >= 1.5 : Busy (11/2)
|   |   |   |   |   |   |   |   |   |   Time >= 1665
|   |   |   |   |   |   |   |   |   |   |   Day < 1.5 : Moderately Busy (11/2)
|   |   |   |   |   |   |   |   |   |   |   Day >= 1.5 : Moderately Busy (11/5)
|   |   |   |   |   |   |   |   |   Time >= 1715
|   |   |   |   |   |   |   |   |   |   Time < 1815 : Busy (44/12)
|   |   |   |   |   |   |   |   |   |   Time >= 1815
|   |   |   |   |   |   |   |   |   |   |   Time < 1965
|   |   |   |   |   |   |   |   |   |   |   |   Time < 1915
|   |   |   |   |   |   |   |   |   |   |   |   |   Day < 1.5 : Busy (22/4)
|   |   |   |   |   |   |   |   |   |   |   |   |   Day >= 1.5
|   |   |   |   |   |   |   |   |   |   |   |   |   |   Time < 1865 : Busy (11/3)
|   |   |   |   |   |   |   |   |   |   |   |   |   |   Time >= 1865 : Busy (11/2)
|   |   |   |   |   |   |   |   |   |   |   |   Time >= 1915
|   |   |   |   |   |   |   |   |   |   |   |   |   Day < 1.5 : Busy (11/3)
|   |   |   |   |   |   |   |   |   |   |   |   |   Day >= 1.5 : Busy (11/2)
|   |   |   |   |   |   |   |   |   |   |   Time >= 1965
|   |   |   |   |   |   |   |   |   |   |   |   Day < 1.5 : Busy (11/2)
|   |   |   |   |   |   |   |   |   |   |   |   Day >= 1.5 : Busy (11/4)
|   |   |   |   |   |   |   |   Time >= 2015
|   |   |   |   |   |   |   |   |   Time < 2065
|   |   |   |   |   |   |   |   |   |   Day < 1.5 : Busy (11/3)
|   |   |   |   |   |   |   |   |   |   Day >= 1.5 : Moderately Busy (11/4)
|   |   |   |   |   |   |   |   |   Time >= 2065
|   |   |   |   |   |   |   |   |   |   Day < 1.5 : Moderately Busy (11/4)
|   |   |   |   |   |   |   |   |   |   Day >= 1.5 : Moderately Busy (11/3)
|   |   |   |   |   Day >= 2.5
|   |   |   |   |   |   Time < 1565
|   |   |   |   |   |   |   Time < 1015
|   |   |   |   |   |   |   |   Time < 965
|   |   |   |   |   |   |   |   |   Time < 915
|   |   |   |   |   |   |   |   |   |   Time < 865 : Busy (11/4)
|   |   |   |   |   |   |   |   |   |   Time >= 865 : Busy (11/5)
|   |   |   |   |   |   |   |   |   Time >= 915 : Busy (11/2)
|   |   |   |   |   |   |   |   Time >= 965 : Moderately Busy (11/1)
|   |   |   |   |   |   |   Time >= 1015
|   |   |   |   |   |   |   |   Time < 1165 : Busy (33/3)
|   |   |   |   |   |   |   |   Time >= 1165
|   |   |   |   |   |   |   |   |   Time < 1415 : Busy (55/0)
|   |   |   |   |   |   |   |   |   Time >= 1415 : Busy (33/3)
|   |   |   |   |   |   Time >= 1565
|   |   |   |   |   |   |   Time < 1915
|   |   |   |   |   |   |   |   Time < 1865
|   |   |   |   |   |   |   |   |   Time < 1715
|   |   |   |   |   |   |   |   |   |   Time < 1665
|   |   |   |   |   |   |   |   |   |   |   Time < 1615 : Moderately Busy (11/4)
|   |   |   |   |   |   |   |   |   |   |   Time >= 1615 : Moderately Busy (11/5)
|   |   |   |   |   |   |   |   |   |   Time >= 1665 : Moderately Busy (11/0)
|   |   |   |   |   |   |   |   |   Time >= 1715 : Moderately Busy (33/15)
|   |   |   |   |   |   |   |   Time >= 1865 : Moderately Busy (11/2)
|   |   |   |   |   |   |   Time >= 1915
|   |   |   |   |   |   |   |   Time < 2015
|   |   |   |   |   |   |   |   |   Time < 1965 : Moderately Busy (11/3)
|   |   |   |   |   |   |   |   |   Time >= 1965 : Moderately Busy (11/2)
|   |   |   |   |   |   |   |   Time >= 2015
|   |   |   |   |   |   |   |   |   Time < 2065 : Moderately Busy (11/2)
|   |   |   |   |   |   |   |   |   Time >= 2065 : Moderately Busy (11/4)
|   |   |   Time >= 2115
|   |   |   |   Day < 2.5
|   |   |   |   |   Time < 2215
|   |   |   |   |   |   Day < 0.5 : Moderately Busy (18/2)
|   |   |   |   |   |   Day >= 0.5
|   |   |   |   |   |   |   Time < 2165
|   |   |   |   |   |   |   |   Day < 1.5 : Moderately Busy (11/1)
|   |   |   |   |   |   |   |   Day >= 1.5 : Moderately Busy (11/2)
|   |   |   |   |   |   |   Time >= 2165
|   |   |   |   |   |   |   |   Day < 1.5 : Moderately Busy (11/3)
|   |   |   |   |   |   |   |   Day >= 1.5 : Moderately Busy (11/2)
|   |   |   |   |   Time >= 2215
|   |   |   |   |   |   Day < 1.5
|   |   |   |   |   |   |   Day < 0.5
|   |   |   |   |   |   |   |   Time < 2315
|   |   |   |   |   |   |   |   |   Time < 2265 : Not Busy (9/3)
|   |   |   |   |   |   |   |   |   Time >= 2265 : Not Busy (9/2)
|   |   |   |   |   |   |   |   Time >= 2315 : Not Busy (9/2)
|   |   |   |   |   |   |   Day >= 0.5
|   |   |   |   |   |   |   |   Time < 2265 : Not Busy (11/6)
|   |   |   |   |   |   |   |   Time >= 2265
|   |   |   |   |   |   |   |   |   Time < 2315 : Not Busy (11/3)
|   |   |   |   |   |   |   |   |   Time >= 2315 : Not Busy (11/3)
|   |   |   |   |   |   Day >= 1.5
|   |   |   |   |   |   |   Time < 2315
|   |   |   |   |   |   |   |   Time < 2265 : Not Busy (11/4)
|   |   |   |   |   |   |   |   Time >= 2265 : Not Busy (11/1)
|   |   |   |   |   |   |   Time >= 2315 : Not Busy (11/2)
|   |   |   |   Day >= 2.5
|   |   |   |   |   Time < 2215
|   |   |   |   |   |   Time < 2165 : Not Busy (11/5)
|   |   |   |   |   |   Time >= 2165 : Not Busy (11/3)
|   |   |   |   |   Time >= 2215
|   |   |   |   |   |   Time < 2265 : Not Busy (11/2)
|   |   |   |   |   |   Time >= 2265
|   |   |   |   |   |   |   Time < 2315 : Not Busy (11/4)
|   |   |   |   |   |   |   Time >= 2315 : Not Busy (11/5)
|   |   Day >= 3.5
|   |   |   Time < 2065
|   |   |   |   Time < 965
|   |   |   |   |   Time < 815
|   |   |   |   |   |   Day < 4.5 : Not Busy (11/1)
|   |   |   |   |   |   Day >= 4.5 : Empty (11/0)
|   |   |   |   |   Time >= 815
|   |   |   |   |   |   Day < 4.5
|   |   |   |   |   |   |   Time < 915
|   |   |   |   |   |   |   |   Time < 865 : Busy (11/4)
|   |   |   |   |   |   |   |   Time >= 865 : Moderately Busy (11/0)
|   |   |   |   |   |   |   Time >= 915 : Busy (11/2)
|   |   |   |   |   |   Day >= 4.5
|   |   |   |   |   |   |   Day < 5.5
|   |   |   |   |   |   |   |   Time < 915
|   |   |   |   |   |   |   |   |   Time < 865 : Not Busy (10/2)
|   |   |   |   |   |   |   |   |   Time >= 865 : Not Busy (9/4)
|   |   |   |   |   |   |   |   Time >= 915 : Not Busy (10/2)
|   |   |   |   |   |   |   Day >= 5.5
|   |   |   |   |   |   |   |   Time < 915
|   |   |   |   |   |   |   |   |   Time < 865 : Empty (1/0)
|   |   |   |   |   |   |   |   |   Time >= 865 : Empty (3/1)
|   |   |   |   |   |   |   |   Time >= 915 : Empty (10/1)
|   |   |   |   Time >= 965
|   |   |   |   |   Day < 5.5
|   |   |   |   |   |   Time < 1615
|   |   |   |   |   |   |   Day < 4.5
|   |   |   |   |   |   |   |   Time < 1515
|   |   |   |   |   |   |   |   |   Time < 1015 : Moderately Busy (11/5)
|   |   |   |   |   |   |   |   |   Time >= 1015
|   |   |   |   |   |   |   |   |   |   Time < 1415
|   |   |   |   |   |   |   |   |   |   |   Time < 1365
|   |   |   |   |   |   |   |   |   |   |   |   Time < 1115
|   |   |   |   |   |   |   |   |   |   |   |   |   Time < 1065 : Busy (11/1)
|   |   |   |   |   |   |   |   |   |   |   |   |   Time >= 1065 : Busy (11/3)
|   |   |   |   |   |   |   |   |   |   |   |   Time >= 1115 : Busy (55/5)
|   |   |   |   |   |   |   |   |   |   |   Time >= 1365 : Busy (11/3)
|   |   |   |   |   |   |   |   |   |   Time >= 1415
|   |   |   |   |   |   |   |   |   |   |   Time < 1465 : Busy (11/1)
|   |   |   |   |   |   |   |   |   |   |   Time >= 1465 : Busy (11/4)
|   |   |   |   |   |   |   |   Time >= 1515
|   |   |   |   |   |   |   |   |   Time < 1565 : Moderately Busy (11/3)
|   |   |   |   |   |   |   |   |   Time >= 1565 : Moderately Busy (11/2)
|   |   |   |   |   |   |   Day >= 4.5
|   |   |   |   |   |   |   |   Time < 1115
|   |   |   |   |   |   |   |   |   Time < 1015 : Not Busy (10/3)
|   |   |   |   |   |   |   |   |   Time >= 1015
|   |   |   |   |   |   |   |   |   |   Time < 1065 : Not Busy (10/4)
|   |   |   |   |   |   |   |   |   |   Time >= 1065 : Not Busy (10/5)
|   |   |   |   |   |   |   |   Time >= 1115
|   |   |   |   |   |   |   |   |   Time < 1465
|   |   |   |   |   |   |   |   |   |   Time < 1165 : Moderately Busy (10/4)
|   |   |   |   |   |   |   |   |   |   Time >= 1165
|   |   |   |   |   |   |   |   |   |   |   Time < 1365
|   |   |   |   |   |   |   |   |   |   |   |   Time < 1215 : Moderately Busy (10/2)
|   |   |   |   |   |   |   |   |   |   |   |   Time >= 1215
|   |   |   |   |   |   |   |   |   |   |   |   |   Time < 1315 : Moderately Busy (22/6)
|   |   |   |   |   |   |   |   |   |   |   |   |   Time >= 1315 : Moderately Busy (11/4)
|   |   |   |   |   |   |   |   |   |   |   Time >= 1365
|   |   |   |   |   |   |   |   |   |   |   |   Time < 1415 : Moderately Busy (10/2)
|   |   |   |   |   |   |   |   |   |   |   |   Time >= 1415 : Moderately Busy (10/3)
|   |   |   |   |   |   |   |   |   Time >= 1465
|   |   |   |   |   |   |   |   |   |   Time < 1515 : Moderately Busy (10/1)
|   |   |   |   |   |   |   |   |   |   Time >= 1515
|   |   |   |   |   |   |   |   |   |   |   Time < 1565 : Moderately Busy (10/2)
|   |   |   |   |   |   |   |   |   |   |   Time >= 1565 : Moderately Busy (10/1)
|   |   |   |   |   |   Time >= 1615
|   |   |   |   |   |   |   Time < 1815
|   |   |   |   |   |   |   |   Day < 4.5
|   |   |   |   |   |   |   |   |   Time < 1665 : Moderately Busy (11/3)
|   |   |   |   |   |   |   |   |   Time >= 1665
|   |   |   |   |   |   |   |   |   |   Time < 1715 : Not Busy (11/5)
|   |   |   |   |   |   |   |   |   |   Time >= 1715
|   |   |   |   |   |   |   |   |   |   |   Time < 1765 : Not Busy (10/3)
|   |   |   |   |   |   |   |   |   |   |   Time >= 1765 : Not Busy (10/4)
|   |   |   |   |   |   |   |   Day >= 4.5
|   |   |   |   |   |   |   |   |   Time < 1715
|   |   |   |   |   |   |   |   |   |   Time < 1665 : Moderately Busy (10/4)
|   |   |   |   |   |   |   |   |   |   Time >= 1665 : Not Busy (10/5)
|   |   |   |   |   |   |   |   |   Time >= 1715 : Moderately Busy (20/8)
|   |   |   |   |   |   |   Time >= 1815
|   |   |   |   |   |   |   |   Day < 4.5
|   |   |   |   |   |   |   |   |   Time < 1915
|   |   |   |   |   |   |   |   |   |   Time < 1865 : Not Busy (9/2)
|   |   |   |   |   |   |   |   |   |   Time >= 1865 : Not Busy (9/1)
|   |   |   |   |   |   |   |   |   Time >= 1915
|   |   |   |   |   |   |   |   |   |   Time < 1965 : Not Busy (9/2)
|   |   |   |   |   |   |   |   |   |   Time >= 1965
|   |   |   |   |   |   |   |   |   |   |   Time < 2015 : Not Busy (9/3)
|   |   |   |   |   |   |   |   |   |   |   Time >= 2015 : Not Busy (9/2)
|   |   |   |   |   |   |   |   Day >= 4.5
|   |   |   |   |   |   |   |   |   Time < 1965
|   |   |   |   |   |   |   |   |   |   Time < 1865 : Moderately Busy (10/5)
|   |   |   |   |   |   |   |   |   |   Time >= 1865
|   |   |   |   |   |   |   |   |   |   |   Time < 1915 : Not Busy (10/5)
|   |   |   |   |   |   |   |   |   |   |   Time >= 1915 : Not Busy (10/5)
|   |   |   |   |   |   |   |   |   Time >= 1965
|   |   |   |   |   |   |   |   |   |   Time < 2015 : Not Busy (10/4)
|   |   |   |   |   |   |   |   |   |   Time >= 2015 : Not Busy (10/4)
|   |   |   |   |   Day >= 5.5
|   |   |   |   |   |   Time < 1165
|   |   |   |   |   |   |   Time < 1115
|   |   |   |   |   |   |   |   Time < 1015 : Moderately Busy (10/3)
|   |   |   |   |   |   |   |   Time >= 1015
|   |   |   |   |   |   |   |   |   Time < 1065 : Not Busy (10/2)
|   |   |   |   |   |   |   |   |   Time >= 1065 : Moderately Busy (10/4)
|   |   |   |   |   |   |   Time >= 1115 : Moderately Busy (10/3)
|   |   |   |   |   |   Time >= 1165
|   |   |   |   |   |   |   Time < 1615
|   |   |   |   |   |   |   |   Time < 1215 : Moderately Busy (10/2)
|   |   |   |   |   |   |   |   Time >= 1215
|   |   |   |   |   |   |   |   |   Time < 1515
|   |   |   |   |   |   |   |   |   |   Time < 1415
|   |   |   |   |   |   |   |   |   |   |   Time < 1265 : Busy (10/4)
|   |   |   |   |   |   |   |   |   |   |   Time >= 1265 : Busy (30/9)
|   |   |   |   |   |   |   |   |   |   Time >= 1415 : Busy (20/8)
|   |   |   |   |   |   |   |   |   Time >= 1515 : Moderately Busy (20/10)
|   |   |   |   |   |   |   Time >= 1615
|   |   |   |   |   |   |   |   Time < 1715
|   |   |   |   |   |   |   |   |   Time < 1665 : Moderately Busy (10/4)
|   |   |   |   |   |   |   |   |   Time >= 1665 : Moderately Busy (10/2)
|   |   |   |   |   |   |   |   Time >= 1715
|   |   |   |   |   |   |   |   |   Time < 1915
|   |   |   |   |   |   |   |   |   |   Time < 1815
|   |   |   |   |   |   |   |   |   |   |   Time < 1765 : Moderately Busy (10/5)
|   |   |   |   |   |   |   |   |   |   |   Time >= 1765 : Moderately Busy (10/4)
|   |   |   |   |   |   |   |   |   |   Time >= 1815
|   |   |   |   |   |   |   |   |   |   |   Time < 1865 : Busy (10/4)
|   |   |   |   |   |   |   |   |   |   |   Time >= 1865 : Busy (10/3)
|   |   |   |   |   |   |   |   |   Time >= 1915
|   |   |   |   |   |   |   |   |   |   Time < 2015 : Busy (20/8)
|   |   |   |   |   |   |   |   |   |   Time >= 2015 : Moderately Busy (10/4)
|   |   |   Time >= 2065
|   |   |   |   Time < 2215
|   |   |   |   |   Day < 5.5
|   |   |   |   |   |   Day < 4.5
|   |   |   |   |   |   |   Time < 2115 : Not Busy (9/4)
|   |   |   |   |   |   |   Time >= 2115 : Empty (18/4)
|   |   |   |   |   |   Day >= 4.5
|   |   |   |   |   |   |   Time < 2115 : Not Busy (10/4)
|   |   |   |   |   |   |   Time >= 2115
|   |   |   |   |   |   |   |   Time < 2165 : Empty (10/4)
|   |   |   |   |   |   |   |   Time >= 2165 : Empty (10/3)
|   |   |   |   |   Day >= 5.5
|   |   |   |   |   |   Time < 2115 : Moderately Busy (10/4)
|   |   |   |   |   |   Time >= 2115
|   |   |   |   |   |   |   Time < 2165 : Moderately Busy (10/2)
|   |   |   |   |   |   |   Time >= 2165 : Moderately Busy (10/4)
|   |   |   |   Time >= 2215
|   |   |   |   |   Day < 5.5
|   |   |   |   |   |   Time < 2315
|   |   |   |   |   |   |   Day < 4.5 : Empty (18/2)
|   |   |   |   |   |   |   Day >= 4.5
|   |   |   |   |   |   |   |   Time < 2265 : Empty (10/3)
|   |   |   |   |   |   |   |   Time >= 2265 : Empty (10/1)
|   |   |   |   |   |   Time >= 2315
|   |   |   |   |   |   |   Day < 4.5 : Empty (9/1)
|   |   |   |   |   |   |   Day >= 4.5 : Empty (8/1)
|   |   |   |   |   Day >= 5.5 : Not Busy (30/9)
|   Quarter = Spring
|   |   Day < 3.5
|   |   |   Time < 2115
|   |   |   |   Time < 815
|   |   |   |   |   Day < 0.5 : Not Busy (9/2)
|   |   |   |   |   Day >= 0.5 : Not Busy (33/6)
|   |   |   |   Time >= 815
|   |   |   |   |   Day < 2.5
|   |   |   |   |   |   Time < 1515
|   |   |   |   |   |   |   Time < 1115
|   |   |   |   |   |   |   |   Time < 1065
|   |   |   |   |   |   |   |   |   Time < 1015
|   |   |   |   |   |   |   |   |   |   Day < 0.5
|   |   |   |   |   |   |   |   |   |   |   Time < 965
|   |   |   |   |   |   |   |   |   |   |   |   Time < 915
|   |   |   |   |   |   |   |   |   |   |   |   |   Time < 865 : Busy (10/4)
|   |   |   |   |   |   |   |   |   |   |   |   |   Time >= 865 : Moderately Busy (10/1)
|   |   |   |   |   |   |   |   |   |   |   |   Time >= 915 : Busy (10/2)
|   |   |   |   |   |   |   |   |   |   |   Time >= 965 : Moderately Busy (10/2)
|   |   |   |   |   |   |   |   |   |   Day >= 0.5
|   |   |   |   |   |   |   |   |   |   |   Day < 1.5
|   |   |   |   |   |   |   |   |   |   |   |   Time < 915
|   |   |   |   |   |   |   |   |   |   |   |   |   Time < 865 : Moderately Busy (11/4)
|   |   |   |   |   |   |   |   |   |   |   |   |   Time >= 865 : Moderately Busy (11/2)
|   |   |   |   |   |   |   |   |   |   |   |   Time >= 915
|   |   |   |   |   |   |   |   |   |   |   |   |   Time < 965 : Moderately Busy (11/1)
|   |   |   |   |   |   |   |   |   |   |   |   |   Time >= 965 : Moderately Busy (11/0)
|   |   |   |   |   |   |   |   |   |   |   Day >= 1.5
|   |   |   |   |   |   |   |   |   |   |   |   Time < 965
|   |   |   |   |   |   |   |   |   |   |   |   |   Time < 915
|   |   |   |   |   |   |   |   |   |   |   |   |   |   Time < 865 : Busy (11/4)
|   |   |   |   |   |   |   |   |   |   |   |   |   |   Time >= 865 : Moderately Busy (11/0)
|   |   |   |   |   |   |   |   |   |   |   |   |   Time >= 915 : Busy (11/2)
|   |   |   |   |   |   |   |   |   |   |   |   Time >= 965 : Moderately Busy (11/0)
|   |   |   |   |   |   |   |   |   Time >= 1015
|   |   |   |   |   |   |   |   |   |   Day < 0.5 : Busy (10/1)
|   |   |   |   |   |   |   |   |   |   Day >= 0.5 : Busy (22/4)
|   |   |   |   |   |   |   |   Time >= 1065
|   |   |   |   |   |   |   |   |   Day < 1.5
|   |   |   |   |   |   |   |   |   |   Day < 0.5 : Moderately Busy (10/1)
|   |   |   |   |   |   |   |   |   |   Day >= 0.5 : Moderately Busy (11/1)
|   |   |   |   |   |   |   |   |   Day >= 1.5 : Moderately Busy (11/0)
|   |   |   |   |   |   |   Time >= 1115
|   |   |   |   |   |   |   |   Day < 1.5
|   |   |   |   |   |   |   |   |   Time < 1365
|   |   |   |   |   |   |   |   |   |   Time < 1165
|   |   |   |   |   |   |   |   |   |   |   Day < 0.5 : Busy (10/1)
|   |   |   |   |   |   |   |   |   |   |   Day >= 0.5 : Busy (11/4)
|   |   |   |   |   |   |   |   |   |   Time >= 1165
|   |   |   |   |   |   |   |   |   |   |   Day < 0.5
|   |   |   |   |   |   |   |   |   |   |   |   Time < 1265 : Busy (20/0)
|   |   |   |   |   |   |   |   |   |   |   |   Time >= 1265
|   |   |   |   |   |   |   |   |   |   |   |   |   Time < 1315 : Busy (10/2)
|   |   |   |   |   |   |   |   |   |   |   |   |   Time >= 1315 : Busy (10/0)
|   |   |   |   |   |   |   |   |   |   |   Day >= 0.5
|   |   |   |   |   |   |   |   |   |   |   |   Time < 1265 : Busy (22/0)
|   |   |   |   |   |   |   |   |   |   |   |   Time >= 1265
|   |   |   |   |   |   |   |   |   |   |   |   |   Time < 1315 : Busy (11/1)
|   |   |   |   |   |   |   |   |   |   |   |   |   Time >= 1315 : Busy (11/0)
|   |   |   |   |   |   |   |   |   Time >= 1365
|   |   |   |   |   |   |   |   |   |   Time < 1465
|   |   |   |   |   |   |   |   |   |   |   Day < 0.5
|   |   |   |   |   |   |   |   |   |   |   |   Time < 1415 : Busy (10/3)
|   |   |   |   |   |   |   |   |   |   |   |   Time >= 1415 : Busy (10/1)
|   |   |   |   |   |   |   |   |   |   |   Day >= 0.5
|   |   |   |   |   |   |   |   |   |   |   |   Time < 1415 : Busy (11/0)
|   |   |   |   |   |   |   |   |   |   |   |   Time >= 1415 : Busy (11/5)
|   |   |   |   |   |   |   |   |   |   Time >= 1465
|   |   |   |   |   |   |   |   |   |   |   Day < 0.5 : Busy (10/1)
|   |   |   |   |   |   |   |   |   |   |   Day >= 0.5 : Busy (11/1)
|   |   |   |   |   |   |   |   Day >= 1.5
|   |   |   |   |   |   |   |   |   Time < 1465 : Busy (73/0)
|   |   |   |   |   |   |   |   |   Time >= 1465 : Busy (11/1)
|   |   |   |   |   |   Time >= 1515
|   |   |   |   |   |   |   Time < 1765
|   |   |   |   |   |   |   |   Time < 1565
|   |   |   |   |   |   |   |   |   Day < 1.5
|   |   |   |   |   |   |   |   |   |   Day < 0.5 : Moderately Busy (10/5)
|   |   |   |   |   |   |   |   |   |   Day >= 0.5 : Busy (11/5)
|   |   |   |   |   |   |   |   |   Day >= 1.5 : Moderately Busy (11/4)
|   |   |   |   |   |   |   |   Time >= 1565
|   |   |   |   |   |   |   |   |   Time < 1715
|   |   |   |   |   |   |   |   |   |   Time < 1615
|   |   |   |   |   |   |   |   |   |   |   Day < 0.5 : Moderately Busy (10/2)
|   |   |   |   |   |   |   |   |   |   |   Day >= 0.5 : Moderately Busy (22/0)
|   |   |   |   |   |   |   |   |   |   Time >= 1615
|   |   |   |   |   |   |   |   |   |   |   Time < 1665
|   |   |   |   |   |   |   |   |   |   |   |   Day < 1.5
|   |   |   |   |   |   |   |   |   |   |   |   |   Day < 0.5 : Moderately Busy (10/1)
|   |   |   |   |   |   |   |   |   |   |   |   |   Day >= 0.5 : Moderately Busy (11/1)
|   |   |   |   |   |   |   |   |   |   |   |   Day >= 1.5 : Moderately Busy (11/3)
|   |   |   |   |   |   |   |   |   |   |   Time >= 1665
|   |   |   |   |   |   |   |   |   |   |   |   Day < 0.5 : Moderately Busy (10/2)
|   |   |   |   |   |   |   |   |   |   |   |   Day >= 0.5
|   |   |   |   |   |   |   |   |   |   |   |   |   Day < 1.5 : Moderately Busy (11/0)
|   |   |   |   |   |   |   |   |   |   |   |   |   Day >= 1.5 : Moderately Busy (11/2)
|   |   |   |   |   |   |   |   |   Time >= 1715
|   |   |   |   |   |   |   |   |   |   Day < 1.5
|   |   |   |   |   |   |   |   |   |   |   Day < 0.5 : Moderately Busy (10/2)
|   |   |   |   |   |   |   |   |   |   |   Day >= 0.5 : Moderately Busy (11/2)
|   |   |   |   |   |   |   |   |   |   Day >= 1.5 : Moderately Busy (11/4)
|   |   |   |   |   |   |   Time >= 1765
|   |   |   |   |   |   |   |   Day < 1.5
|   |   |   |   |   |   |   |   |   Day < 0.5
|   |   |   |   |   |   |   |   |   |   Time < 1965
|   |   |   |   |   |   |   |   |   |   |   Time < 1815 : Moderately Busy (10/5)
|   |   |   |   |   |   |   |   |   |   |   Time >= 1815
|   |   |   |   |   |   |   |   |   |   |   |   Time < 1915
|   |   |   |   |   |   |   |   |   |   |   |   |   Time < 1865 : Busy (10/2)
|   |   |   |   |   |   |   |   |   |   |   |   |   Time >= 1865 : Busy (10/1)
|   |   |   |   |   |   |   |   |   |   |   |   Time >= 1915 : Busy (10/0)
|   |   |   |   |   |   |   |   |   |   Time >= 1965
|   |   |   |   |   |   |   |   |   |   |   Time < 2065
|   |   |   |   |   |   |   |   |   |   |   |   Time < 2015 : Busy (10/4)
|   |   |   |   |   |   |   |   |   |   |   |   Time >= 2015 : Moderately Busy (10/5)
|   |   |   |   |   |   |   |   |   |   |   Time >= 2065 : Moderately Busy (10/4)
|   |   |   |   |   |   |   |   |   Day >= 0.5
|   |   |   |   |   |   |   |   |   |   Time < 1965
|   |   |   |   |   |   |   |   |   |   |   Time < 1815 : Busy (11/4)
|   |   |   |   |   |   |   |   |   |   |   Time >= 1815
|   |   |   |   |   |   |   |   |   |   |   |   Time < 1865 : Busy (11/3)
|   |   |   |   |   |   |   |   |   |   |   |   Time >= 1865
|   |   |   |   |   |   |   |   |   |   |   |   |   Time < 1915 : Busy (11/4)
|   |   |   |   |   |   |   |   |   |   |   |   |   Time >= 1915 : Busy (11/5)
|   |   |   |   |   |   |   |   |   |   Time >= 1965
|   |   |   |   |   |   |   |   |   |   |   Time < 2015 : Moderately Busy (11/6)
|   |   |   |   |   |   |   |   |   |   |   Time >= 2015 : Moderately Busy (22/8)
|   |   |   |   |   |   |   |   Day >= 1.5
|   |   |   |   |   |   |   |   |   Time < 1915
|   |   |   |   |   |   |   |   |   |   Time < 1865 : Moderately Busy (22/8)
|   |   |   |   |   |   |   |   |   |   Time >= 1865 : Moderately Busy (11/6)
|   |   |   |   |   |   |   |   |   Time >= 1915
|   |   |   |   |   |   |   |   |   |   Time < 2015 : Moderately Busy (22/4)
|   |   |   |   |   |   |   |   |   |   Time >= 2015
|   |   |   |   |   |   |   |   |   |   |   Time < 2065 : Moderately Busy (11/2)
|   |   |   |   |   |   |   |   |   |   |   Time >= 2065 : Moderately Busy (11/3)
|   |   |   |   |   Day >= 2.5
|   |   |   |   |   |   Time < 1565
|   |   |   |   |   |   |   Time < 1015 : Moderately Busy (44/0)
|   |   |   |   |   |   |   Time >= 1015
|   |   |   |   |   |   |   |   Time < 1165
|   |   |   |   |   |   |   |   |   Time < 1065 : Busy (10/1)
|   |   |   |   |   |   |   |   |   Time >= 1065
|   |   |   |   |   |   |   |   |   |   Time < 1115 : Moderately Busy (11/1)
|   |   |   |   |   |   |   |   |   |   Time >= 1115 : Busy (11/4)
|   |   |   |   |   |   |   |   Time >= 1165
|   |   |   |   |   |   |   |   |   Time < 1515
|   |   |   |   |   |   |   |   |   |   Time < 1265
|   |   |   |   |   |   |   |   |   |   |   Time < 1215 : Busy (11/1)
|   |   |   |   |   |   |   |   |   |   |   Time >= 1215 : Busy (10/1)
|   |   |   |   |   |   |   |   |   |   Time >= 1265
|   |   |   |   |   |   |   |   |   |   |   Time < 1315 : Busy (10/2)
|   |   |   |   |   |   |   |   |   |   |   Time >= 1315
|   |   |   |   |   |   |   |   |   |   |   |   Time < 1415 : Busy (22/2)
|   |   |   |   |   |   |   |   |   |   |   |   Time >= 1415
|   |   |   |   |   |   |   |   |   |   |   |   |   Time < 1465 : Busy (11/2)
|   |   |   |   |   |   |   |   |   |   |   |   |   Time >= 1465 : Busy (11/1)
|   |   |   |   |   |   |   |   |   Time >= 1515 : Busy (11/3)
|   |   |   |   |   |   Time >= 1565
|   |   |   |   |   |   |   Time < 2015
|   |   |   |   |   |   |   |   Time < 1815
|   |   |   |   |   |   |   |   |   Time < 1615 : Moderately Busy (11/1)
|   |   |   |   |   |   |   |   |   Time >= 1615
|   |   |   |   |   |   |   |   |   |   Time < 1715 : Moderately Busy (22/0)
|   |   |   |   |   |   |   |   |   |   Time >= 1715
|   |   |   |   |   |   |   |   |   |   |   Time < 1765 : Moderately Busy (11/1)
|   |   |   |   |   |   |   |   |   |   |   Time >= 1765 : Moderately Busy (11/0)
|   |   |   |   |   |   |   |   Time >= 1815
|   |   |   |   |   |   |   |   |   Time < 1965
|   |   |   |   |   |   |   |   |   |   Time < 1865 : Moderately Busy (11/2)
|   |   |   |   |   |   |   |   |   |   Time >= 1865 : Moderately Busy (22/2)
|   |   |   |   |   |   |   |   |   Time >= 1965 : Moderately Busy (11/0)
|   |   |   |   |   |   |   Time >= 2015
|   |   |   |   |   |   |   |   Time < 2065 : Moderately Busy (11/1)
|   |   |   |   |   |   |   |   Time >= 2065 : Moderately Busy (11/3)
|   |   |   Time >= 2115
|   |   |   |   Day < 2.5
|   |   |   |   |   Day < 0.5
|   |   |   |   |   |   Time < 2265
|   |   |   |   |   |   |   Time < 2215 : Moderately Busy (20/2)
|   |   |   |   |   |   |   Time >= 2215 : Not Busy (10/5)
|   |   |   |   |   |   Time >= 2265
|   |   |   |   |   |   |   Time < 2315 : Not Busy (10/1)
|   |   |   |   |   |   |   Time >= 2315 : Not Busy (10/1)
|   |   |   |   |   Day >= 0.5
|   |   |   |   |   |   Day < 1.5
|   |   |   |   |   |   |   Time < 2215 : Moderately Busy (22/4)
|   |   |   |   |   |   |   Time >= 2215
|   |   |   |   |   |   |   |   Time < 2265 : Not Busy (11/5)
|   |   |   |   |   |   |   |   Time >= 2265 : Not Busy (22/6)
|   |   |   |   |   |   Day >= 1.5
|   |   |   |   |   |   |   Time < 2215
|   |   |   |   |   |   |   |   Time < 2165 : Moderately Busy (11/2)
|   |   |   |   |   |   |   |   Time >= 2165 : Moderately Busy (11/3)
|   |   |   |   |   |   |   Time >= 2215
|   |   |   |   |   |   |   |   Time < 2265 : Not Busy (11/5)
|   |   |   |   |   |   |   |   Time >= 2265 : Not Busy (22/4)
|   |   |   |   Day >= 2.5
|   |   |   |   |   Time < 2265
|   |   |   |   |   |   Time < 2215
|   |   |   |   |   |   |   Time < 2165 : Moderately Busy (11/5)
|   |   |   |   |   |   |   Time >= 2165 : Not Busy (11/6)
|   |   |   |   |   |   Time >= 2215 : Not Busy (11/2)
|   |   |   |   |   Time >= 2265
|   |   |   |   |   |   Time < 2315 : Not Busy (11/1)
|   |   |   |   |   |   Time >= 2315 : Not Busy (11/5)
|   |   Day >= 3.5
|   |   |   Time < 2115
|   |   |   |   Time < 965
|   |   |   |   |   Time < 915
|   |   |   |   |   |   Day < 4.5
|   |   |   |   |   |   |   Time < 815 : Not Busy (11/2)
|   |   |   |   |   |   |   Time >= 815
|   |   |   |   |   |   |   |   Time < 865 : Moderately Busy (11/2)
|   |   |   |   |   |   |   |   Time >= 865 : Moderately Busy (11/0)
|   |   |   |   |   |   Day >= 4.5
|   |   |   |   |   |   |   Day < 5.5
|   |   |   |   |   |   |   |   Time < 815 : Empty (10/1)
|   |   |   |   |   |   |   |   Time >= 815
|   |   |   |   |   |   |   |   |   Time < 865 : Empty (10/4)
|   |   |   |   |   |   |   |   |   Time >= 865 : Not Busy (10/4)
|   |   |   |   |   |   |   Day >= 5.5
|   |   |   |   |   |   |   |   Time < 815 : Empty (3/0)
|   |   |   |   |   |   |   |   Time >= 815
|   |   |   |   |   |   |   |   |   Time < 865 : Empty (2/1)
|   |   |   |   |   |   |   |   |   Time >= 865 : Empty (3/1)
|   |   |   |   |   Time >= 915
|   |   |   |   |   |   Day < 4.5 : Busy (11/2)
|   |   |   |   |   |   Day >= 4.5
|   |   |   |   |   |   |   Day < 5.5 : Not Busy (11/2)
|   |   |   |   |   |   |   Day >= 5.5 : Empty (10/1)
|   |   |   |   Time >= 965
|   |   |   |   |   Day < 5.5
|   |   |   |   |   |   Day < 4.5
|   |   |   |   |   |   |   Time < 1565
|   |   |   |   |   |   |   |   Time < 1465
|   |   |   |   |   |   |   |   |   Time < 1215
|   |   |   |   |   |   |   |   |   |   Time < 1015 : Moderately Busy (11/1)
|   |   |   |   |   |   |   |   |   |   Time >= 1015
|   |   |   |   |   |   |   |   |   |   |   Time < 1065 : Busy (11/2)
|   |   |   |   |   |   |   |   |   |   |   Time >= 1065
|   |   |   |   |   |   |   |   |   |   |   |   Time < 1115 : Moderately Busy (11/0)
|   |   |   |   |   |   |   |   |   |   |   |   Time >= 1115
|   |   |   |   |   |   |   |   |   |   |   |   |   Time < 1165 : Busy (11/4)
|   |   |   |   |   |   |   |   |   |   |   |   |   Time >= 1165 : Moderately Busy (11/4)
|   |   |   |   |   |   |   |   |   Time >= 1215
|   |   |   |   |   |   |   |   |   |   Time < 1365
|   |   |   |   |   |   |   |   |   |   |   Time < 1265 : Busy (11/1)
|   |   |   |   |   |   |   |   |   |   |   Time >= 1265
|   |   |   |   |   |   |   |   |   |   |   |   Time < 1315 : Busy (11/2)
|   |   |   |   |   |   |   |   |   |   |   |   Time >= 1315 : Busy (11/1)
|   |   |   |   |   |   |   |   |   |   Time >= 1365
|   |   |   |   |   |   |   |   |   |   |   Time < 1415 : Busy (11/5)
|   |   |   |   |   |   |   |   |   |   |   Time >= 1415 : Moderately Busy (11/4)
|   |   |   |   |   |   |   |   Time >= 1465
|   |   |   |   |   |   |   |   |   Time < 1515 : Moderately Busy (11/2)
|   |   |   |   |   |   |   |   |   Time >= 1515 : Moderately Busy (11/1)
|   |   |   |   |   |   |   Time >= 1565
|   |   |   |   |   |   |   |   Time < 1665
|   |   |   |   |   |   |   |   |   Time < 1615 : Moderately Busy (11/3)
|   |   |   |   |   |   |   |   |   Time >= 1615 : Moderately Busy (11/5)
|   |   |   |   |   |   |   |   Time >= 1665
|   |   |   |   |   |   |   |   |   Time < 1965
|   |   |   |   |   |   |   |   |   |   Time < 1715 : Not Busy (11/2)
|   |   |   |   |   |   |   |   |   |   Time >= 1715
|   |   |   |   |   |   |   |   |   |   |   Time < 1815 : Not Busy (22/4)
|   |   |   |   |   |   |   |   |   |   |   Time >= 1815
|   |   |   |   |   |   |   |   |   |   |   |   Time < 1915 : Not Busy (20/2)
|   |   |   |   |   |   |   |   |   |   |   |   Time >= 1915 : Not Busy (10/2)
|   |   |   |   |   |   |   |   |   Time >= 1965
|   |   |   |   |   |   |   |   |   |   Time < 2065 : Not Busy (20/6)
|   |   |   |   |   |   |   |   |   |   Time >= 2065 : Not Busy (10/5)
|   |   |   |   |   |   Day >= 4.5
|   |   |   |   |   |   |   Time < 1615
|   |   |   |   |   |   |   |   Time < 1215
|   |   |   |   |   |   |   |   |   Time < 1165
|   |   |   |   |   |   |   |   |   |   Time < 1115
|   |   |   |   |   |   |   |   |   |   |   Time < 1015 : Not Busy (11/2)
|   |   |   |   |   |   |   |   |   |   |   Time >= 1015
|   |   |   |   |   |   |   |   |   |   |   |   Time < 1065 : Not Busy (11/1)
|   |   |   |   |   |   |   |   |   |   |   |   Time >= 1065 : Not Busy (11/2)
|   |   |   |   |   |   |   |   |   |   Time >= 1115 : Not Busy (11/3)
|   |   |   |   |   |   |   |   |   Time >= 1165 : Not Busy (11/4)
|   |   |   |   |   |   |   |   Time >= 1215
|   |   |   |   |   |   |   |   |   Time < 1415
|   |   |   |   |   |   |   |   |   |   Time < 1265 : Moderately Busy (11/5)
|   |   |   |   |   |   |   |   |   |   Time >= 1265 : Moderately Busy (33/9)
|   |   |   |   |   |   |   |   |   Time >= 1415
|   |   |   |   |   |   |   |   |   |   Time < 1515
|   |   |   |   |   |   |   |   |   |   |   Time < 1465 : Moderately Busy (10/1)
|   |   |   |   |   |   |   |   |   |   |   Time >= 1465 : Moderately Busy (10/2)
|   |   |   |   |   |   |   |   |   |   Time >= 1515 : Moderately Busy (20/8)
|   |   |   |   |   |   |   Time >= 1615
|   |   |   |   |   |   |   |   Time < 2015
|   |   |   |   |   |   |   |   |   Time < 1715
|   |   |   |   |   |   |   |   |   |   Time < 1665 : Not Busy (10/2)
|   |   |   |   |   |   |   |   |   |   Time >= 1665 : Not Busy (11/3)
|   |   |   |   |   |   |   |   |   Time >= 1715
|   |   |   |   |   |   |   |   |   |   Time < 1865
|   |   |   |   |   |   |   |   |   |   |   Time < 1815 : Not Busy (20/4)
|   |   |   |   |   |   |   |   |   |   |   Time >= 1815 : Not Busy (10/4)
|   |   |   |   |   |   |   |   |   |   Time >= 1865
|   |   |   |   |   |   |   |   |   |   |   Time < 1915 : Not Busy (10/6)
|   |   |   |   |   |   |   |   |   |   |   Time >= 1915
|   |   |   |   |   |   |   |   |   |   |   |   Time < 1965 : Not Busy (10/2)
|   |   |   |   |   |   |   |   |   |   |   |   Time >= 1965 : Not Busy (10/3)
|   |   |   |   |   |   |   |   Time >= 2015
|   |   |   |   |   |   |   |   |   Time < 2065 : Not Busy (10/2)
|   |   |   |   |   |   |   |   |   Time >= 2065 : Not Busy (10/4)
|   |   |   |   |   Day >= 5.5
|   |   |   |   |   |   Time < 1115
|   |   |   |   |   |   |   Time < 1015 : Moderately Busy (10/3)
|   |   |   |   |   |   |   Time >= 1015
|   |   |   |   |   |   |   |   Time < 1065 : Not Busy (10/1)
|   |   |   |   |   |   |   |   Time >= 1065 : Not Busy (10/3)
|   |   |   |   |   |   Time >= 1115
|   |   |   |   |   |   |   Time < 1515
|   |   |   |   |   |   |   |   Time < 1265
|   |   |   |   |   |   |   |   |   Time < 1165 : Moderately Busy (10/1)
|   |   |   |   |   |   |   |   |   Time >= 1165 : Moderately Busy (20/4)
|   |   |   |   |   |   |   |   Time >= 1265
|   |   |   |   |   |   |   |   |   Time < 1415
|   |   |   |   |   |   |   |   |   |   Time < 1315 : Moderately Busy (10/4)
|   |   |   |   |   |   |   |   |   |   Time >= 1315
|   |   |   |   |   |   |   |   |   |   |   Time < 1365 : Busy (10/3)
|   |   |   |   |   |   |   |   |   |   |   Time >= 1365 : Moderately Busy (10/5)
|   |   |   |   |   |   |   |   |   Time >= 1415
|   |   |   |   |   |   |   |   |   |   Time < 1465 : Moderately Busy (10/3)
|   |   |   |   |   |   |   |   |   |   Time >= 1465 : Moderately Busy (10/4)
|   |   |   |   |   |   |   Time >= 1515
|   |   |   |   |   |   |   |   Time < 1765
|   |   |   |   |   |   |   |   |   Time < 1615 : Moderately Busy (20/2)
|   |   |   |   |   |   |   |   |   Time >= 1615
|   |   |   |   |   |   |   |   |   |   Time < 1715 : Moderately Busy (20/0)
|   |   |   |   |   |   |   |   |   |   Time >= 1715 : Moderately Busy (10/1)
|   |   |   |   |   |   |   |   Time >= 1765
|   |   |   |   |   |   |   |   |   Time < 2015
|   |   |   |   |   |   |   |   |   |   Time < 1815 : Moderately Busy (10/2)
|   |   |   |   |   |   |   |   |   |   Time >= 1815
|   |   |   |   |   |   |   |   |   |   |   Time < 1865 : Busy (10/4)
|   |   |   |   |   |   |   |   |   |   |   Time >= 1865
|   |   |   |   |   |   |   |   |   |   |   |   Time < 1965 : Moderately Busy (20/8)
|   |   |   |   |   |   |   |   |   |   |   |   Time >= 1965 : Moderately Busy (10/5)
|   |   |   |   |   |   |   |   |   Time >= 2015 : Moderately Busy (20/2)
|   |   |   Time >= 2115
|   |   |   |   Time < 2215
|   |   |   |   |   Day < 5.5
|   |   |   |   |   |   Day < 4.5
|   |   |   |   |   |   |   Time < 2165 : Empty (10/2)
|   |   |   |   |   |   |   Time >= 2165 : Empty (10/2)
|   |   |   |   |   |   Day >= 4.5
|   |   |   |   |   |   |   Time < 2165 : Empty (10/5)
|   |   |   |   |   |   |   Time >= 2165 : Empty (10/3)
|   |   |   |   |   Day >= 5.5
|   |   |   |   |   |   Time < 2165 : Moderately Busy (10/4)
|   |   |   |   |   |   Time >= 2165 : Moderately Busy (10/3)
|   |   |   |   Time >= 2215
|   |   |   |   |   Day < 5.5
|   |   |   |   |   |   Day < 4.5 : Empty (30/3)
|   |   |   |   |   |   Day >= 4.5
|   |   |   |   |   |   |   Time < 2315 : Empty (20/2)
|   |   |   |   |   |   |   Time >= 2315 : Empty (9/1)
|   |   |   |   |   Day >= 5.5
|   |   |   |   |   |   Time < 2315
|   |   |   |   |   |   |   Time < 2265 : Not Busy (10/3)
|   |   |   |   |   |   |   Time >= 2265 : Not Busy (10/3)
|   |   |   |   |   |   Time >= 2315 : Not Busy (10/3)
|   Quarter = Fall
|   |   Time < 2115
|   |   |   Day < 3.5
|   |   |   |   Day < 2.5
|   |   |   |   |   Time < 815 : Not Busy (39/3)
|   |   |   |   |   Time >= 815
|   |   |   |   |   |   Time < 1565
|   |   |   |   |   |   |   Day < 1.5
|   |   |   |   |   |   |   |   Time < 1015
|   |   |   |   |   |   |   |   |   Time < 865 : Busy (26/2)
|   |   |   |   |   |   |   |   |   Time >= 865
|   |   |   |   |   |   |   |   |   |   Time < 965
|   |   |   |   |   |   |   |   |   |   |   Time < 915
|   |   |   |   |   |   |   |   |   |   |   |   Day < 0.5 : Busy (13/3)
|   |   |   |   |   |   |   |   |   |   |   |   Day >= 0.5 : Busy (13/1)
|   |   |   |   |   |   |   |   |   |   |   Time >= 915 : Busy (26/2)
|   |   |   |   |   |   |   |   |   |   Time >= 965
|   |   |   |   |   |   |   |   |   |   |   Day < 0.5 : Busy (13/1)
|   |   |   |   |   |   |   |   |   |   |   Day >= 0.5 : Busy (13/3)
|   |   |   |   |   |   |   |   Time >= 1015
|   |   |   |   |   |   |   |   |   Day < 0.5
|   |   |   |   |   |   |   |   |   |   Time < 1265
|   |   |   |   |   |   |   |   |   |   |   Time < 1215 : Busy (52/4)
|   |   |   |   |   |   |   |   |   |   |   Time >= 1215 : Busy (13/1)
|   |   |   |   |   |   |   |   |   |   Time >= 1265 : Busy (78/6)
|   |   |   |   |   |   |   |   |   Day >= 0.5
|   |   |   |   |   |   |   |   |   |   Time < 1515
|   |   |   |   |   |   |   |   |   |   |   Time < 1265
|   |   |   |   |   |   |   |   |   |   |   |   Time < 1215 : Busy (52/4)
|   |   |   |   |   |   |   |   |   |   |   |   Time >= 1215 : Busy (13/1)
|   |   |   |   |   |   |   |   |   |   |   Time >= 1265 : Busy (65/5)
|   |   |   |   |   |   |   |   |   |   Time >= 1515 : Busy (13/2)
|   |   |   |   |   |   |   Day >= 1.5
|   |   |   |   |   |   |   |   Time < 965
|   |   |   |   |   |   |   |   |   Time < 865 : Busy (13/3)
|   |   |   |   |   |   |   |   |   Time >= 865
|   |   |   |   |   |   |   |   |   |   Time < 915 : Busy (13/5)
|   |   |   |   |   |   |   |   |   |   Time >= 915 : Busy (13/2)
|   |   |   |   |   |   |   |   Time >= 965
|   |   |   |   |   |   |   |   |   Time < 1515
|   |   |   |   |   |   |   |   |   |   Time < 1365
|   |   |   |   |   |   |   |   |   |   |   Time < 1015 : Busy (13/3)
|   |   |   |   |   |   |   |   |   |   |   Time >= 1015
|   |   |   |   |   |   |   |   |   |   |   |   Time < 1065 : Busy (13/1)
|   |   |   |   |   |   |   |   |   |   |   |   Time >= 1065 : Busy (78/12)
|   |   |   |   |   |   |   |   |   |   Time >= 1365
|   |   |   |   |   |   |   |   |   |   |   Time < 1415 : Busy (13/2)
|   |   |   |   |   |   |   |   |   |   |   Time >= 1415 : Busy (26/4)
|   |   |   |   |   |   |   |   |   Time >= 1515 : Busy (13/2)
|   |   |   |   |   |   Time >= 1565
|   |   |   |   |   |   |   Time < 2015
|   |   |   |   |   |   |   |   Time < 1765
|   |   |   |   |   |   |   |   |   Time < 1665
|   |   |   |   |   |   |   |   |   |   Day < 1.5
|   |   |   |   |   |   |   |   |   |   |   Day < 0.5
|   |   |   |   |   |   |   |   |   |   |   |   Time < 1615 : Busy (13/2)
|   |   |   |   |   |   |   |   |   |   |   |   Time >= 1615 : Busy (13/2)
|   |   |   |   |   |   |   |   |   |   |   Day >= 0.5
|   |   |   |   |   |   |   |   |   |   |   |   Time < 1615 : Busy (13/5)
|   |   |   |   |   |   |   |   |   |   |   |   Time >= 1615 : Busy (13/4)
|   |   |   |   |   |   |   |   |   |   Day >= 1.5
|   |   |   |   |   |   |   |   |   |   |   Time < 1615 : Busy (13/2)
|   |   |   |   |   |   |   |   |   |   |   Time >= 1615 : Busy (13/5)
|   |   |   |   |   |   |   |   |   Time >= 1665
|   |   |   |   |   |   |   |   |   |   Day < 0.5
|   |   |   |   |   |   |   |   |   |   |   Time < 1715 : Busy (13/5)
|   |   |   |   |   |   |   |   |   |   |   Time >= 1715 : Busy (12/2)
|   |   |   |   |   |   |   |   |   |   Day >= 0.5
|   |   |   |   |   |   |   |   |   |   |   Time < 1715
|   |   |   |   |   |   |   |   |   |   |   |   Day < 1.5 : Busy (12/5)
|   |   |   |   |   |   |   |   |   |   |   |   Day >= 1.5 : Busy (12/6)
|   |   |   |   |   |   |   |   |   |   |   Time >= 1715
|   |   |   |   |   |   |   |   |   |   |   |   Day < 1.5 : Busy (12/3)
|   |   |   |   |   |   |   |   |   |   |   |   Day >= 1.5 : Busy (11/4)
|   |   |   |   |   |   |   |   Time >= 1765
|   |   |   |   |   |   |   |   |   Day < 1.5
|   |   |   |   |   |   |   |   |   |   Day < 0.5
|   |   |   |   |   |   |   |   |   |   |   Time < 1865
|   |   |   |   |   |   |   |   |   |   |   |   Time < 1815 : Busy (12/2)
|   |   |   |   |   |   |   |   |   |   |   |   Time >= 1815 : Busy (13/2)
|   |   |   |   |   |   |   |   |   |   |   Time >= 1865
|   |   |   |   |   |   |   |   |   |   |   |   Time < 1965 : Busy (24/2)
|   |   |   |   |   |   |   |   |   |   |   |   Time >= 1965 : Busy (12/2)
|   |   |   |   |   |   |   |   |   |   Day >= 0.5
|   |   |   |   |   |   |   |   |   |   |   Time < 1915
|   |   |   |   |   |   |   |   |   |   |   |   Time < 1815 : Busy (13/3)
|   |   |   |   |   |   |   |   |   |   |   |   Time >= 1815 : Busy (24/4)
|   |   |   |   |   |   |   |   |   |   |   Time >= 1915 : Busy (24/4)
|   |   |   |   |   |   |   |   |   Day >= 1.5
|   |   |   |   |   |   |   |   |   |   Time < 1965
|   |   |   |   |   |   |   |   |   |   |   Time < 1815 : Busy (11/1)
|   |   |   |   |   |   |   |   |   |   |   Time >= 1815
|   |   |   |   |   |   |   |   |   |   |   |   Time < 1915 : Busy (24/4)
|   |   |   |   |   |   |   |   |   |   |   |   Time >= 1915 : Busy (11/1)
|   |   |   |   |   |   |   |   |   |   Time >= 1965 : Busy (11/3)
|   |   |   |   |   |   |   Time >= 2015
|   |   |   |   |   |   |   |   Time < 2065
|   |   |   |   |   |   |   |   |   Day < 1.5 : Busy (24/8)
|   |   |   |   |   |   |   |   |   Day >= 1.5 : Moderately Busy (11/5)
|   |   |   |   |   |   |   |   Time >= 2065
|   |   |   |   |   |   |   |   |   Day < 1.5
|   |   |   |   |   |   |   |   |   |   Day < 0.5 : Busy (12/4)
|   |   |   |   |   |   |   |   |   |   Day >= 0.5 : Moderately Busy (12/7)
|   |   |   |   |   |   |   |   |   Day >= 1.5 : Moderately Busy (11/5)
|   |   |   |   Day >= 2.5
|   |   |   |   |   Time < 1565
|   |   |   |   |   |   Time < 815 : Not Busy (13/3)
|   |   |   |   |   |   Time >= 815
|   |   |   |   |   |   |   Time < 1165
|   |   |   |   |   |   |   |   Time < 1115
|   |   |   |   |   |   |   |   |   Time < 965
|   |   |   |   |   |   |   |   |   |   Time < 865 : Busy (12/3)
|   |   |   |   |   |   |   |   |   |   Time >= 865 : Busy (24/4)
|   |   |   |   |   |   |   |   |   Time >= 965
|   |   |   |   |   |   |   |   |   |   Time < 1015 : Busy (12/6)
|   |   |   |   |   |   |   |   |   |   Time >= 1015
|   |   |   |   |   |   |   |   |   |   |   Time < 1065 : Busy (11/2)
|   |   |   |   |   |   |   |   |   |   |   Time >= 1065 : Busy (11/3)
|   |   |   |   |   |   |   |   Time >= 1115 : Busy (11/1)
|   |   |   |   |   |   |   Time >= 1165
|   |   |   |   |   |   |   |   Time < 1415
|   |   |   |   |   |   |   |   |   Time < 1215 : Busy (11/1)
|   |   |   |   |   |   |   |   |   Time >= 1215 : Busy (48/4)
|   |   |   |   |   |   |   |   Time >= 1415 : Busy (36/6)
|   |   |   |   |   Time >= 1565
|   |   |   |   |   |   Time < 1915
|   |   |   |   |   |   |   Time < 1665
|   |   |   |   |   |   |   |   Time < 1615 : Moderately Busy (12/6)
|   |   |   |   |   |   |   |   Time >= 1615 : Busy (12/3)
|   |   |   |   |   |   |   Time >= 1665
|   |   |   |   |   |   |   |   Time < 1815
|   |   |   |   |   |   |   |   |   Time < 1765
|   |   |   |   |   |   |   |   |   |   Time < 1715 : Moderately Busy (12/6)
|   |   |   |   |   |   |   |   |   |   Time >= 1715 : Moderately Busy (12/5)
|   |   |   |   |   |   |   |   |   Time >= 1765 : Moderately Busy (12/4)
|   |   |   |   |   |   |   |   Time >= 1815
|   |   |   |   |   |   |   |   |   Time < 1865 : Moderately Busy (11/5)
|   |   |   |   |   |   |   |   |   Time >= 1865 : Moderately Busy (11/4)
|   |   |   |   |   |   Time >= 1915
|   |   |   |   |   |   |   Time < 2065
|   |   |   |   |   |   |   |   Time < 1965 : Moderately Busy (11/0)
|   |   |   |   |   |   |   |   Time >= 1965
|   |   |   |   |   |   |   |   |   Time < 2015 : Moderately Busy (11/3)
|   |   |   |   |   |   |   |   |   Time >= 2015 : Moderately Busy (11/2)
|   |   |   |   |   |   |   Time >= 2065 : Moderately Busy (11/2)
|   |   |   Day >= 3.5
|   |   |   |   Day < 5.5
|   |   |   |   |   Day < 4.5
|   |   |   |   |   |   Time < 1515
|   |   |   |   |   |   |   Time < 815 : Not Busy (13/2)
|   |   |   |   |   |   |   Time >= 815
|   |   |   |   |   |   |   |   Time < 915
|   |   |   |   |   |   |   |   |   Time < 865 : Busy (13/4)
|   |   |   |   |   |   |   |   |   Time >= 865 : Moderately Busy (13/3)
|   |   |   |   |   |   |   |   Time >= 915
|   |   |   |   |   |   |   |   |   Time < 1415
|   |   |   |   |   |   |   |   |   |   Time < 965 : Busy (13/3)
|   |   |   |   |   |   |   |   |   |   Time >= 965
|   |   |   |   |   |   |   |   |   |   |   Time < 1065 : Busy (26/6)
|   |   |   |   |   |   |   |   |   |   |   Time >= 1065
|   |   |   |   |   |   |   |   |   |   |   |   Time < 1115 : Busy (13/5)
|   |   |   |   |   |   |   |   |   |   |   |   Time >= 1115
|   |   |   |   |   |   |   |   |   |   |   |   |   Time < 1315
|   |   |   |   |   |   |   |   |   |   |   |   |   |   Time < 1265
|   |   |   |   |   |   |   |   |   |   |   |   |   |   |   Time < 1215
|   |   |   |   |   |   |   |   |   |   |   |   |   |   |   |   Time < 1165 : Busy (13/3)
|   |   |   |   |   |   |   |   |   |   |   |   |   |   |   |   Time >= 1165 : Busy (13/4)
|   |   |   |   |   |   |   |   |   |   |   |   |   |   |   Time >= 1215 : Busy (13/3)
|   |   |   |   |   |   |   |   |   |   |   |   |   |   Time >= 1265 : Busy (13/4)
|   |   |   |   |   |   |   |   |   |   |   |   |   Time >= 1315 : Busy (26/6)
|   |   |   |   |   |   |   |   |   Time >= 1415
|   |   |   |   |   |   |   |   |   |   Time < 1465 : Busy (14/5)
|   |   |   |   |   |   |   |   |   |   Time >= 1465 : Busy (13/7)
|   |   |   |   |   |   Time >= 1515
|   |   |   |   |   |   |   Time < 1715
|   |   |   |   |   |   |   |   Time < 1615
|   |   |   |   |   |   |   |   |   Time < 1565 : Moderately Busy (13/5)
|   |   |   |   |   |   |   |   |   Time >= 1565 : Moderately Busy (13/4)
|   |   |   |   |   |   |   |   Time >= 1615
|   |   |   |   |   |   |   |   |   Time < 1665 : Moderately Busy (13/3)
|   |   |   |   |   |   |   |   |   Time >= 1665 : Moderately Busy (11/5)
|   |   |   |   |   |   |   Time >= 1715
|   |   |   |   |   |   |   |   Time < 1965
|   |   |   |   |   |   |   |   |   Time < 1865
|   |   |   |   |   |   |   |   |   |   Time < 1815
|   |   |   |   |   |   |   |   |   |   |   Time < 1765 : Not Busy (10/3)
|   |   |   |   |   |   |   |   |   |   |   Time >= 1765 : Not Busy (10/2)
|   |   |   |   |   |   |   |   |   |   Time >= 1815 : Not Busy (11/3)
|   |   |   |   |   |   |   |   |   Time >= 1865
|   |   |   |   |   |   |   |   |   |   Time < 1915 : Not Busy (10/2)
|   |   |   |   |   |   |   |   |   |   Time >= 1915 : Not Busy (10/1)
|   |   |   |   |   |   |   |   Time >= 1965
|   |   |   |   |   |   |   |   |   Time < 2065 : Not Busy (20/6)
|   |   |   |   |   |   |   |   |   Time >= 2065 : Empty (9/5)
|   |   |   |   |   Day >= 4.5
|   |   |   |   |   |   Time < 1115
|   |   |   |   |   |   |   Time < 915
|   |   |   |   |   |   |   |   Time < 815 : Empty (10/1)
|   |   |   |   |   |   |   |   Time >= 815
|   |   |   |   |   |   |   |   |   Time < 865 : Empty (12/4)
|   |   |   |   |   |   |   |   |   Time >= 865 : Not Busy (11/5)
|   |   |   |   |   |   |   Time >= 915
|   |   |   |   |   |   |   |   Time < 1065
|   |   |   |   |   |   |   |   |   Time < 965 : Not Busy (14/6)
|   |   |   |   |   |   |   |   |   Time >= 965
|   |   |   |   |   |   |   |   |   |   Time < 1015 : Not Busy (14/4)
|   |   |   |   |   |   |   |   |   |   Time >= 1015 : Not Busy (14/4)
|   |   |   |   |   |   |   |   Time >= 1065 : Not Busy (14/7)
|   |   |   |   |   |   Time >= 1115
|   |   |   |   |   |   |   Time < 1615
|   |   |   |   |   |   |   |   Time < 1215
|   |   |   |   |   |   |   |   |   Time < 1165 : Not Busy (14/9)
|   |   |   |   |   |   |   |   |   Time >= 1165 : Moderately Busy (14/7)
|   |   |   |   |   |   |   |   Time >= 1215
|   |   |   |   |   |   |   |   |   Time < 1415
|   |   |   |   |   |   |   |   |   |   Time < 1365 : Moderately Busy (42/18)
|   |   |   |   |   |   |   |   |   |   Time >= 1365 : Moderately Busy (12/3)
|   |   |   |   |   |   |   |   |   Time >= 1415
|   |   |   |   |   |   |   |   |   |   Time < 1515 : Moderately Busy (22/6)
|   |   |   |   |   |   |   |   |   |   Time >= 1515
|   |   |   |   |   |   |   |   |   |   |   Time < 1565 : Moderately Busy (12/6)
|   |   |   |   |   |   |   |   |   |   |   Time >= 1565 : Moderately Busy (11/4)
|   |   |   |   |   |   |   Time >= 1615
|   |   |   |   |   |   |   |   Time < 2015
|   |   |   |   |   |   |   |   |   Time < 1665 : Not Busy (12/6)
|   |   |   |   |   |   |   |   |   Time >= 1665
|   |   |   |   |   |   |   |   |   |   Time < 1765 : Not Busy (20/8)
|   |   |   |   |   |   |   |   |   |   Time >= 1765
|   |   |   |   |   |   |   |   |   |   |   Time < 1815 : Not Busy (10/3)
|   |   |   |   |   |   |   |   |   |   |   Time >= 1815
|   |   |   |   |   |   |   |   |   |   |   |   Time < 1865 : Not Busy (11/5)
|   |   |   |   |   |   |   |   |   |   |   |   Time >= 1865
|   |   |   |   |   |   |   |   |   |   |   |   |   Time < 1915 : Moderately Busy (10/5)
|   |   |   |   |   |   |   |   |   |   |   |   |   Time >= 1915
|   |   |   |   |   |   |   |   |   |   |   |   |   |   Time < 1965 : Not Busy (10/6)
|   |   |   |   |   |   |   |   |   |   |   |   |   |   Time >= 1965 : Not Busy (10/5)
|   |   |   |   |   |   |   |   Time >= 2015
|   |   |   |   |   |   |   |   |   Time < 2065 : Empty (10/6)
|   |   |   |   |   |   |   |   |   Time >= 2065 : Not Busy (10/2)
|   |   |   |   Day >= 5.5
|   |   |   |   |   Time < 1165
|   |   |   |   |   |   Time < 965
|   |   |   |   |   |   |   Time < 915
|   |   |   |   |   |   |   |   Time < 815 : Empty (2/0)
|   |   |   |   |   |   |   |   Time >= 815
|   |   |   |   |   |   |   |   |   Time < 865 : Empty (2/1)
|   |   |   |   |   |   |   |   |   Time >= 865 : Empty (6/1)
|   |   |   |   |   |   |   Time >= 915 : Empty (12/1)
|   |   |   |   |   |   Time >= 965
|   |   |   |   |   |   |   Time < 1065
|   |   |   |   |   |   |   |   Time < 1015 : Moderately Busy (12/2)
|   |   |   |   |   |   |   |   Time >= 1015 : Moderately Busy (12/6)
|   |   |   |   |   |   |   Time >= 1065
|   |   |   |   |   |   |   |   Time < 1115 : Moderately Busy (12/2)
|   |   |   |   |   |   |   |   Time >= 1115 : Moderately Busy (12/3)
|   |   |   |   |   Time >= 1165
|   |   |   |   |   |   Time < 1765
|   |   |   |   |   |   |   Time < 1565
|   |   |   |   |   |   |   |   Time < 1265
|   |   |   |   |   |   |   |   |   Time < 1215 : Moderately Busy (12/5)
|   |   |   |   |   |   |   |   |   Time >= 1215 : Moderately Busy (12/4)
|   |   |   |   |   |   |   |   Time >= 1265
|   |   |   |   |   |   |   |   |   Time < 1415
|   |   |   |   |   |   |   |   |   |   Time < 1315 : Busy (12/3)
|   |   |   |   |   |   |   |   |   |   Time >= 1315
|   |   |   |   |   |   |   |   |   |   |   Time < 1365 : Busy (12/4)
|   |   |   |   |   |   |   |   |   |   |   Time >= 1365 : Busy (12/4)
|   |   |   |   |   |   |   |   |   Time >= 1415
|   |   |   |   |   |   |   |   |   |   Time < 1515
|   |   |   |   |   |   |   |   |   |   |   Time < 1465 : Busy (12/5)
|   |   |   |   |   |   |   |   |   |   |   Time >= 1465 : Busy (12/6)
|   |   |   |   |   |   |   |   |   |   Time >= 1515 : Moderately Busy (12/7)
|   |   |   |   |   |   |   Time >= 1565
|   |   |   |   |   |   |   |   Time < 1715
|   |   |   |   |   |   |   |   |   Time < 1615 : Moderately Busy (12/4)
|   |   |   |   |   |   |   |   |   Time >= 1615 : Moderately Busy (24/6)
|   |   |   |   |   |   |   |   Time >= 1715 : Moderately Busy (12/6)
|   |   |   |   |   |   Time >= 1765
|   |   |   |   |   |   |   Time < 2015
|   |   |   |   |   |   |   |   Time < 1965 : Busy (44/8)
|   |   |   |   |   |   |   |   Time >= 1965 : Busy (11/3)
|   |   |   |   |   |   |   Time >= 2015
|   |   |   |   |   |   |   |   Time < 2065 : Moderately Busy (11/6)
|   |   |   |   |   |   |   |   Time >= 2065 : Moderately Busy (11/5)
|   |   Time >= 2115
|   |   |   Time < 2215
|   |   |   |   Time < 2165
|   |   |   |   |   Day < 3.5
|   |   |   |   |   |   Day < 0.5 : Moderately Busy (12/2)
|   |   |   |   |   |   Day >= 0.5
|   |   |   |   |   |   |   Day < 2.5
|   |   |   |   |   |   |   |   Day < 1.5 : Moderately Busy (12/2)
|   |   |   |   |   |   |   |   Day >= 1.5 : Moderately Busy (11/1)
|   |   |   |   |   |   |   Day >= 2.5 : Moderately Busy (11/4)
|   |   |   |   |   Day >= 3.5
|   |   |   |   |   |   Day < 5.5
|   |   |   |   |   |   |   Day < 4.5 : Empty (9/3)
|   |   |   |   |   |   |   Day >= 4.5 : Empty (10/5)
|   |   |   |   |   |   Day >= 5.5 : Moderately Busy (11/1)
|   |   |   |   Time >= 2165
|   |   |   |   |   Day < 3.5
|   |   |   |   |   |   Day < 0.5 : Moderately Busy (12/1)
|   |   |   |   |   |   Day >= 0.5
|   |   |   |   |   |   |   Day < 2.5
|   |   |   |   |   |   |   |   Day < 1.5 : Moderately Busy (12/3)
|   |   |   |   |   |   |   |   Day >= 1.5 : Moderately Busy (11/3)
|   |   |   |   |   |   |   Day >= 2.5 : Not Busy (11/4)
|   |   |   |   |   Day >= 3.5
|   |   |   |   |   |   Day < 5.5
|   |   |   |   |   |   |   Day < 4.5 : Empty (9/1)
|   |   |   |   |   |   |   Day >= 4.5 : Empty (10/3)
|   |   |   |   |   |   Day >= 5.5 : Moderately Busy (11/2)
|   |   |   Time >= 2215
|   |   |   |   Day < 3.5
|   |   |   |   |   Time < 2265
|   |   |   |   |   |   Day < 1.5 : Moderately Busy (24/10)
|   |   |   |   |   |   Day >= 1.5
|   |   |   |   |   |   |   Day < 2.5 : Not Busy (11/3)
|   |   |   |   |   |   |   Day >= 2.5 : Not Busy (11/1)
|   |   |   |   |   Time >= 2265
|   |   |   |   |   |   Day < 2.5
|   |   |   |   |   |   |   Day < 1.5
|   |   |   |   |   |   |   |   Day < 0.5
|   |   |   |   |   |   |   |   |   Time < 2315 : Not Busy (12/4)
|   |   |   |   |   |   |   |   |   Time >= 2315 : Not Busy (12/2)
|   |   |   |   |   |   |   |   Day >= 0.5
|   |   |   |   |   |   |   |   |   Time < 2315 : Not Busy (12/5)
|   |   |   |   |   |   |   |   |   Time >= 2315 : Not Busy (12/3)
|   |   |   |   |   |   |   Day >= 1.5 : Not Busy (22/4)
|   |   |   |   |   |   Day >= 2.5
|   |   |   |   |   |   |   Time < 2315 : Not Busy (11/3)
|   |   |   |   |   |   |   Time >= 2315 : Not Busy (11/2)
|   |   |   |   Day >= 3.5
|   |   |   |   |   Day < 5.5
|   |   |   |   |   |   Time < 2315
|   |   |   |   |   |   |   Day < 4.5
|   |   |   |   |   |   |   |   Time < 2265 : Empty (9/1)
|   |   |   |   |   |   |   |   Time >= 2265 : Empty (8/1)
|   |   |   |   |   |   |   Day >= 4.5
|   |   |   |   |   |   |   |   Time < 2265 : Empty (10/2)
|   |   |   |   |   |   |   |   Time >= 2265 : Empty (8/1)
|   |   |   |   |   |   Time >= 2315
|   |   |   |   |   |   |   Day < 4.5 : Empty (8/1)
|   |   |   |   |   |   |   Day >= 4.5 : Empty (9/1)
|   |   |   |   |   Day >= 5.5
|   |   |   |   |   |   Time < 2315
|   |   |   |   |   |   |   Time < 2265 : Not Busy (11/3)
|   |   |   |   |   |   |   Time >= 2265 : Not Busy (10/1)
|   |   |   |   |   |   Time >= 2315 : Not Busy (10/4)
|   Quarter = Other
|   |   Time < 1615
|   |   |   Day < 4.5
|   |   |   |   Time < 915
|   |   |   |   |   Time < 815
|   |   |   |   |   |   Day < 2.5
|   |   |   |   |   |   |   Day < 0.5 : Not Busy (12/3)
|   |   |   |   |   |   |   Day >= 0.5
|   |   |   |   |   |   |   |   Day < 1.5 : Not Busy (11/3)
|   |   |   |   |   |   |   |   Day >= 1.5 : Not Busy (13/2)
|   |   |   |   |   |   Day >= 2.5
|   |   |   |   |   |   |   Day < 3.5 : Not Busy (12/4)
|   |   |   |   |   |   |   Day >= 3.5 : Not Busy (11/3)
|   |   |   |   |   Time >= 815
|   |   |   |   |   |   Time < 865
|   |   |   |   |   |   |   Day < 3.5
|   |   |   |   |   |   |   |   Day < 2.5
|   |   |   |   |   |   |   |   |   Day < 1.5
|   |   |   |   |   |   |   |   |   |   Day < 0.5 : Moderately Busy (12/5)
|   |   |   |   |   |   |   |   |   |   Day >= 0.5 : Moderately Busy (12/5)
|   |   |   |   |   |   |   |   |   Day >= 1.5 : Moderately Busy (13/4)
|   |   |   |   |   |   |   |   Day >= 2.5 : Moderately Busy (12/4)
|   |   |   |   |   |   |   Day >= 3.5 : Moderately Busy (11/5)
|   |   |   |   |   |   Time >= 865
|   |   |   |   |   |   |   Day < 1.5
|   |   |   |   |   |   |   |   Day < 0.5 : Not Busy (12/4)
|   |   |   |   |   |   |   |   Day >= 0.5 : Not Busy (13/6)
|   |   |   |   |   |   |   Day >= 1.5
|   |   |   |   |   |   |   |   Day < 2.5 : Moderately Busy (13/5)
|   |   |   |   |   |   |   |   Day >= 2.5
|   |   |   |   |   |   |   |   |   Day < 3.5 : Moderately Busy (12/6)
|   |   |   |   |   |   |   |   |   Day >= 3.5 : Moderately Busy (11/4)
|   |   |   |   Time >= 915
|   |   |   |   |   Day < 1.5
|   |   |   |   |   |   Time < 1165
|   |   |   |   |   |   |   Day < 0.5
|   |   |   |   |   |   |   |   Time < 965 : Not Busy (12/1)
|   |   |   |   |   |   |   |   Time >= 965
|   |   |   |   |   |   |   |   |   Time < 1115
|   |   |   |   |   |   |   |   |   |   Time < 1015 : Not Busy (12/2)
|   |   |   |   |   |   |   |   |   |   Time >= 1015 : Not Busy (24/6)
|   |   |   |   |   |   |   |   |   Time >= 1115 : Not Busy (12/4)
|   |   |   |   |   |   |   Day >= 0.5
|   |   |   |   |   |   |   |   Time < 965 : Not Busy (13/2)
|   |   |   |   |   |   |   |   Time >= 965
|   |   |   |   |   |   |   |   |   Time < 1115
|   |   |   |   |   |   |   |   |   |   Time < 1065
|   |   |   |   |   |   |   |   |   |   |   Time < 1015 : Not Busy (13/4)
|   |   |   |   |   |   |   |   |   |   |   Time >= 1015 : Not Busy (13/4)
|   |   |   |   |   |   |   |   |   |   Time >= 1065 : Not Busy (13/3)
|   |   |   |   |   |   |   |   |   Time >= 1115 : Not Busy (13/5)
|   |   |   |   |   |   Time >= 1165
|   |   |   |   |   |   |   Time < 1365
|   |   |   |   |   |   |   |   Day < 0.5
|   |   |   |   |   |   |   |   |   Time < 1215 : Not Busy (12/3)
|   |   |   |   |   |   |   |   |   Time >= 1215
|   |   |   |   |   |   |   |   |   |   Time < 1315 : Not Busy (24/10)
|   |   |   |   |   |   |   |   |   |   Time >= 1315 : Not Busy (12/3)
|   |   |   |   |   |   |   |   Day >= 0.5
|   |   |   |   |   |   |   |   |   Time < 1215 : Not Busy (13/6)
|   |   |   |   |   |   |   |   |   Time >= 1215 : Not Busy (39/21)
|   |   |   |   |   |   |   Time >= 1365
|   |   |   |   |   |   |   |   Time < 1565
|   |   |   |   |   |   |   |   |   Day < 0.5
|   |   |   |   |   |   |   |   |   |   Time < 1415 : Not Busy (13/5)
|   |   |   |   |   |   |   |   |   |   Time >= 1415 : Not Busy (36/6)
|   |   |   |   |   |   |   |   |   Day >= 0.5
|   |   |   |   |   |   |   |   |   |   Time < 1465
|   |   |   |   |   |   |   |   |   |   |   Time < 1415 : Not Busy (13/2)
|   |   |   |   |   |   |   |   |   |   |   Time >= 1415 : Not Busy (13/3)
|   |   |   |   |   |   |   |   |   |   Time >= 1465
|   |   |   |   |   |   |   |   |   |   |   Time < 1515 : Not Busy (13/4)
|   |   |   |   |   |   |   |   |   |   |   Time >= 1515 : Not Busy (13/5)
|   |   |   |   |   |   |   |   Time >= 1565
|   |   |   |   |   |   |   |   |   Day < 0.5 : Not Busy (12/4)
|   |   |   |   |   |   |   |   |   Day >= 0.5 : Not Busy (13/7)
|   |   |   |   |   Day >= 1.5
|   |   |   |   |   |   Time < 1415
|   |   |   |   |   |   |   Day < 2.5
|   |   |   |   |   |   |   |   Time < 1215
|   |   |   |   |   |   |   |   |   Time < 1015
|   |   |   |   |   |   |   |   |   |   Time < 965 : Not Busy (12/4)
|   |   |   |   |   |   |   |   |   |   Time >= 965 : Not Busy (12/5)
|   |   |   |   |   |   |   |   |   Time >= 1015
|   |   |   |   |   |   |   |   |   |   Time < 1165
|   |   |   |   |   |   |   |   |   |   |   Time < 1065 : Not Busy (12/4)
|   |   |   |   |   |   |   |   |   |   |   Time >= 1065 : Not Busy (24/10)
|   |   |   |   |   |   |   |   |   |   Time >= 1165 : Not Busy (12/4)
|   |   |   |   |   |   |   |   Time >= 1215
|   |   |   |   |   |   |   |   |   Time < 1365 : Not Busy (36/18)
|   |   |   |   |   |   |   |   |   Time >= 1365 : Not Busy (12/5)
|   |   |   |   |   |   |   Day >= 2.5
|   |   |   |   |   |   |   |   Day < 3.5
|   |   |   |   |   |   |   |   |   Time < 1215
|   |   |   |   |   |   |   |   |   |   Time < 1015 : Not Busy (24/12)
|   |   |   |   |   |   |   |   |   |   Time >= 1015
|   |   |   |   |   |   |   |   |   |   |   Time < 1165
|   |   |   |   |   |   |   |   |   |   |   |   Time < 1065 : Not Busy (12/5)
|   |   |   |   |   |   |   |   |   |   |   |   Time >= 1065
|   |   |   |   |   |   |   |   |   |   |   |   |   Time < 1115 : Not Busy (11/5)
|   |   |   |   |   |   |   |   |   |   |   |   |   Time >= 1115 : Not Busy (12/3)
|   |   |   |   |   |   |   |   |   |   |   Time >= 1165 : Not Busy (12/5)
|   |   |   |   |   |   |   |   |   Time >= 1215
|   |   |   |   |   |   |   |   |   |   Time < 1365
|   |   |   |   |   |   |   |   |   |   |   Time < 1315 : Moderately Busy (24/12)
|   |   |   |   |   |   |   |   |   |   |   Time >= 1315 : Moderately Busy (12/7)
|   |   |   |   |   |   |   |   |   |   Time >= 1365 : Not Busy (12/4)
|   |   |   |   |   |   |   |   Day >= 3.5
|   |   |   |   |   |   |   |   |   Time < 1215
|   |   |   |   |   |   |   |   |   |   Time < 1165
|   |   |   |   |   |   |   |   |   |   |   Time < 1115
|   |   |   |   |   |   |   |   |   |   |   |   Time < 1065
|   |   |   |   |   |   |   |   |   |   |   |   |   Time < 1015
|   |   |   |   |   |   |   |   |   |   |   |   |   |   Time < 965 : Not Busy (11/5)
|   |   |   |   |   |   |   |   |   |   |   |   |   |   Time >= 965 : Not Busy (11/4)
|   |   |   |   |   |   |   |   |   |   |   |   |   Time >= 1015 : Not Busy (11/5)
|   |   |   |   |   |   |   |   |   |   |   |   Time >= 1065 : Not Busy (11/4)
|   |   |   |   |   |   |   |   |   |   |   Time >= 1115 : Not Busy (11/5)
|   |   |   |   |   |   |   |   |   |   Time >= 1165 : Not Busy (11/5)
|   |   |   |   |   |   |   |   |   Time >= 1215
|   |   |   |   |   |   |   |   |   |   Time < 1315
|   |   |   |   |   |   |   |   |   |   |   Time < 1265 : Not Busy (11/6)
|   |   |   |   |   |   |   |   |   |   |   Time >= 1265 : Moderately Busy (11/6)
|   |   |   |   |   |   |   |   |   |   Time >= 1315
|   |   |   |   |   |   |   |   |   |   |   Time < 1365 : Not Busy (11/3)
|   |   |   |   |   |   |   |   |   |   |   Time >= 1365 : Not Busy (11/6)
|   |   |   |   |   |   Time >= 1415
|   |   |   |   |   |   |   Time < 1515
|   |   |   |   |   |   |   |   Time < 1465
|   |   |   |   |   |   |   |   |   Day < 2.5 : Not Busy (12/4)
|   |   |   |   |   |   |   |   |   Day >= 2.5
|   |   |   |   |   |   |   |   |   |   Day < 3.5 : Not Busy (12/5)
|   |   |   |   |   |   |   |   |   |   Day >= 3.5 : Not Busy (11/4)
|   |   |   |   |   |   |   |   Time >= 1465
|   |   |   |   |   |   |   |   |   Day < 3.5
|   |   |   |   |   |   |   |   |   |   Day < 2.5 : Not Busy (12/4)
|   |   |   |   |   |   |   |   |   |   Day >= 2.5 : Not Busy (12/5)
|   |   |   |   |   |   |   |   |   Day >= 3.5 : Not Busy (11/4)
|   |   |   |   |   |   |   Time >= 1515
|   |   |   |   |   |   |   |   Day < 3.5
|   |   |   |   |   |   |   |   |   Day < 2.5
|   |   |   |   |   |   |   |   |   |   Time < 1565 : Not Busy (12/6)
|   |   |   |   |   |   |   |   |   |   Time >= 1565 : Not Busy (12/5)
|   |   |   |   |   |   |   |   |   Day >= 2.5
|   |   |   |   |   |   |   |   |   |   Time < 1565 : Not Busy (11/4)
|   |   |   |   |   |   |   |   |   |   Time >= 1565 : Not Busy (11/5)
|   |   |   |   |   |   |   |   Day >= 3.5
|   |   |   |   |   |   |   |   |   Time < 1565 : Not Busy (10/5)
|   |   |   |   |   |   |   |   |   Time >= 1565 : Empty (10/6)
|   |   |   Day >= 4.5
|   |   |   |   Day < 5.5
|   |   |   |   |   Time < 965 : Empty (14/0)
|   |   |   |   |   Time >= 965
|   |   |   |   |   |   Time < 1165
|   |   |   |   |   |   |   Time < 1015 : Empty (8/4)
|   |   |   |   |   |   |   Time >= 1015
|   |   |   |   |   |   |   |   Time < 1065 : Empty (8/2)
|   |   |   |   |   |   |   |   Time >= 1065 : Empty (14/4)
|   |   |   |   |   |   Time >= 1165
|   |   |   |   |   |   |   Time < 1515
|   |   |   |   |   |   |   |   Time < 1465
|   |   |   |   |   |   |   |   |   Time < 1415
|   |   |   |   |   |   |   |   |   |   Time < 1365 : Empty (28/8)
|   |   |   |   |   |   |   |   |   |   Time >= 1365 : Empty (4/2)
|   |   |   |   |   |   |   |   |   Time >= 1415 : Empty (2/1)
|   |   |   |   |   |   |   |   Time >= 1465 : Not Busy (2/1)
|   |   |   |   |   |   |   Time >= 1515
|   |   |   |   |   |   |   |   Time < 1565 : Empty (3/1)
|   |   |   |   |   |   |   |   Time >= 1565 : Empty (2/1)
|   |   |   |   Day >= 5.5
|   |   |   |   |   Time < 965 : Empty (13/0)
|   |   |   |   |   Time >= 965
|   |   |   |   |   |   Time < 1265
|   |   |   |   |   |   |   Time < 1065
|   |   |   |   |   |   |   |   Time < 1015 : Empty (4/2)
|   |   |   |   |   |   |   |   Time >= 1015 : Empty (3/2)
|   |   |   |   |   |   |   Time >= 1065
|   |   |   |   |   |   |   |   Time < 1115 : Empty (2/1)
|   |   |   |   |   |   |   |   Time >= 1115
|   |   |   |   |   |   |   |   |   Time < 1215 : Empty (6/2)
|   |   |   |   |   |   |   |   |   Time >= 1215 : Empty (4/1)
|   |   |   |   |   |   Time >= 1265
|   |   |   |   |   |   |   Time < 1365 : Not Busy (6/2)
|   |   |   |   |   |   |   Time >= 1365
|   |   |   |   |   |   |   |   Time < 1415 : Empty (6/2)
|   |   |   |   |   |   |   |   Time >= 1415
|   |   |   |   |   |   |   |   |   Time < 1515
|   |   |   |   |   |   |   |   |   |   Time < 1465 : Empty (3/1)
|   |   |   |   |   |   |   |   |   |   Time >= 1465 : Empty (5/2)
|   |   |   |   |   |   |   |   |   Time >= 1515
|   |   |   |   |   |   |   |   |   |   Time < 1565 : Empty (3/1)
|   |   |   |   |   |   |   |   |   |   Time >= 1565 : Empty (5/1)
|   |   Time >= 1615
|   |   |   Time < 2165
|   |   |   |   Time < 1765
|   |   |   |   |   Time < 1665
|   |   |   |   |   |   Day < 1.5
|   |   |   |   |   |   |   Day < 0.5 : Empty (11/5)
|   |   |   |   |   |   |   Day >= 0.5 : Empty (13/5)
|   |   |   |   |   |   Day >= 1.5
|   |   |   |   |   |   |   Day < 5.5
|   |   |   |   |   |   |   |   Day < 4.5
|   |   |   |   |   |   |   |   |   Day < 3.5
|   |   |   |   |   |   |   |   |   |   Day < 2.5 : Empty (13/4)
|   |   |   |   |   |   |   |   |   |   Day >= 2.5 : Empty (11/5)
|   |   |   |   |   |   |   |   |   Day >= 3.5 : Empty (11/3)
|   |   |   |   |   |   |   |   Day >= 4.5 : Empty (2/1)
|   |   |   |   |   |   |   Day >= 5.5 : Empty (3/1)
|   |   |   |   |   Time >= 1665
|   |   |   |   |   |   Day < 3.5
|   |   |   |   |   |   |   Day < 0.5
|   |   |   |   |   |   |   |   Time < 1715 : Empty (6/3)
|   |   |   |   |   |   |   |   Time >= 1715 : Empty (5/2)
|   |   |   |   |   |   |   Day >= 0.5
|   |   |   |   |   |   |   |   Time < 1715
|   |   |   |   |   |   |   |   |   Day < 1.5 : Empty (8/2)
|   |   |   |   |   |   |   |   |   Day >= 1.5 : Empty (14/4)
|   |   |   |   |   |   |   |   Time >= 1715
|   |   |   |   |   |   |   |   |   Day < 1.5 : Empty (3/2)
|   |   |   |   |   |   |   |   |   Day >= 1.5
|   |   |   |   |   |   |   |   |   |   Day < 2.5 : Empty (4/2)
|   |   |   |   |   |   |   |   |   |   Day >= 2.5 : Moderately Busy (3/1)
|   |   |   |   |   |   Day >= 3.5
|   |   |   |   |   |   |   Day < 5.5
|   |   |   |   |   |   |   |   Day < 4.5
|   |   |   |   |   |   |   |   |   Time < 1715 : Empty (4/2)
|   |   |   |   |   |   |   |   |   Time >= 1715 : Empty (4/2)
|   |   |   |   |   |   |   |   Day >= 4.5
|   |   |   |   |   |   |   |   |   Time < 1715 : Not Busy (1/0)
|   |   |   |   |   |   |   |   |   Time >= 1715 : Empty (2/1)
|   |   |   |   |   |   |   Day >= 5.5 : Empty (8/2)
|   |   |   |   Time >= 1765
|   |   |   |   |   Time < 2015
|   |   |   |   |   |   Day < 3.5
|   |   |   |   |   |   |   Time < 1965
|   |   |   |   |   |   |   |   Day < 0.5
|   |   |   |   |   |   |   |   |   Time < 1815 : Not Busy (4/2)
|   |   |   |   |   |   |   |   |   Time >= 1815
|   |   |   |   |   |   |   |   |   |   Time < 1865 : Empty (4/2)
|   |   |   |   |   |   |   |   |   |   Time >= 1865
|   |   |   |   |   |   |   |   |   |   |   Time < 1915 : Empty (5/2)
|   |   |   |   |   |   |   |   |   |   |   Time >= 1915 : Empty (4/2)
|   |   |   |   |   |   |   |   Day >= 0.5
|   |   |   |   |   |   |   |   |   Day < 1.5
|   |   |   |   |   |   |   |   |   |   Time < 1815 : Empty (4/2)
|   |   |   |   |   |   |   |   |   |   Time >= 1815 : Empty (9/6)
|   |   |   |   |   |   |   |   |   Day >= 1.5
|   |   |   |   |   |   |   |   |   |   Day < 2.5 : Moderately Busy (12/4)
|   |   |   |   |   |   |   |   |   |   Day >= 2.5
|   |   |   |   |   |   |   |   |   |   |   Time < 1915
|   |   |   |   |   |   |   |   |   |   |   |   Time < 1865
|   |   |   |   |   |   |   |   |   |   |   |   |   Time < 1815 : Empty (4/2)
|   |   |   |   |   |   |   |   |   |   |   |   |   Time >= 1815 : Moderately Busy (3/1)
|   |   |   |   |   |   |   |   |   |   |   |   Time >= 1865 : Empty (4/2)
|   |   |   |   |   |   |   |   |   |   |   Time >= 1915 : Moderately Busy (3/1)
|   |   |   |   |   |   |   Time >= 1965
|   |   |   |   |   |   |   |   Day < 0.5 : Empty (4/1)
|   |   |   |   |   |   |   |   Day >= 0.5 : Moderately Busy (9/3)
|   |   |   |   |   |   Day >= 3.5
|   |   |   |   |   |   |   Time < 1865
|   |   |   |   |   |   |   |   Time < 1815
|   |   |   |   |   |   |   |   |   Day < 5.5
|   |   |   |   |   |   |   |   |   |   Day < 4.5 : Not Busy (3/1)
|   |   |   |   |   |   |   |   |   |   Day >= 4.5 : Not Busy (1/0)
|   |   |   |   |   |   |   |   |   Day >= 5.5 : Moderately Busy (1/0)
|   |   |   |   |   |   |   |   Time >= 1815
|   |   |   |   |   |   |   |   |   Day < 5.5
|   |   |   |   |   |   |   |   |   |   Day < 4.5 : Not Busy (3/1)
|   |   |   |   |   |   |   |   |   |   Day >= 4.5 : Empty (1/0)
|   |   |   |   |   |   |   |   |   Day >= 5.5 : Moderately Busy (1/0)
|   |   |   |   |   |   |   Time >= 1865
|   |   |   |   |   |   |   |   Time < 1915
|   |   |   |   |   |   |   |   |   Day < 5.5 : Not Busy (3/0)
|   |   |   |   |   |   |   |   |   Day >= 5.5 : Moderately Busy (1/0)
|   |   |   |   |   |   |   |   Time >= 1915
|   |   |   |   |   |   |   |   |   Time < 1965
|   |   |   |   |   |   |   |   |   |   Day < 5.5 : Not Busy (3/0)
|   |   |   |   |   |   |   |   |   |   Day >= 5.5 : Busy (1/0)
|   |   |   |   |   |   |   |   |   Time >= 1965
|   |   |   |   |   |   |   |   |   |   Day < 5.5 : Not Busy (3/0)
|   |   |   |   |   |   |   |   |   |   Day >= 5.5 : Moderately Busy (1/0)
|   |   |   |   |   Time >= 2015
|   |   |   |   |   |   Time < 2065
|   |   |   |   |   |   |   Day < 5.5
|   |   |   |   |   |   |   |   Day < 3.5
|   |   |   |   |   |   |   |   |   Day < 1.5
|   |   |   |   |   |   |   |   |   |   Day < 0.5 : Empty (4/2)
|   |   |   |   |   |   |   |   |   |   Day >= 0.5 : Empty (3/2)
|   |   |   |   |   |   |   |   |   Day >= 1.5 : Empty (6/4)
|   |   |   |   |   |   |   |   Day >= 3.5
|   |   |   |   |   |   |   |   |   Day < 4.5 : Empty (2/1)
|   |   |   |   |   |   |   |   |   Day >= 4.5 : Not Busy (1/0)
|   |   |   |   |   |   |   Day >= 5.5 : Moderately Busy (1/0)
|   |   |   |   |   |   Time >= 2065
|   |   |   |   |   |   |   Time < 2115
|   |   |   |   |   |   |   |   Day < 5.5
|   |   |   |   |   |   |   |   |   Day < 3.5
|   |   |   |   |   |   |   |   |   |   Day < 2.5
|   |   |   |   |   |   |   |   |   |   |   Day < 0.5 : Empty (4/2)
|   |   |   |   |   |   |   |   |   |   |   Day >= 0.5 : Empty (6/4)
|   |   |   |   |   |   |   |   |   |   Day >= 2.5 : Not Busy (2/1)
|   |   |   |   |   |   |   |   |   Day >= 3.5
|   |   |   |   |   |   |   |   |   |   Day < 4.5 : Empty (2/1)
|   |   |   |   |   |   |   |   |   |   Day >= 4.5 : Empty (1/0)
|   |   |   |   |   |   |   |   Day >= 5.5 : Moderately Busy (1/0)
|   |   |   |   |   |   |   Time >= 2115
|   |   |   |   |   |   |   |   Day < 3.5
|   |   |   |   |   |   |   |   |   Day < 1.5
|   |   |   |   |   |   |   |   |   |   Day < 0.5 : Empty (2/1)
|   |   |   |   |   |   |   |   |   |   Day >= 0.5 : Empty (3/2)
|   |   |   |   |   |   |   |   |   Day >= 1.5
|   |   |   |   |   |   |   |   |   |   Day < 2.5 : Not Busy (2/0)
|   |   |   |   |   |   |   |   |   |   Day >= 2.5 : Not Busy (2/1)
|   |   |   |   |   |   |   |   Day >= 3.5
|   |   |   |   |   |   |   |   |   Day < 5.5 : Empty (3/0)
|   |   |   |   |   |   |   |   |   Day >= 5.5 : Empty (2/1)
|   |   |   Time >= 2165
|   |   |   |   Day < 2.5
|   |   |   |   |   Day < 0.5
|   |   |   |   |   |   Time < 2315 : Empty (6/3)
|   |   |   |   |   |   Time >= 2315 : Empty (2/0)
|   |   |   |   |   Day >= 0.5
|   |   |   |   |   |   Time < 2215
|   |   |   |   |   |   |   Day < 1.5 : Not Busy (2/1)
|   |   |   |   |   |   |   Day >= 1.5 : Not Busy (2/0)
|   |   |   |   |   |   Time >= 2215
|   |   |   |   |   |   |   Time < 2315
|   |   |   |   |   |   |   |   Time < 2265
|   |   |   |   |   |   |   |   |   Day < 1.5 : Not Busy (2/0)
|   |   |   |   |   |   |   |   |   Day >= 1.5 : Empty (2/1)
|   |   |   |   |   |   |   |   Time >= 2265 : Empty (4/2)
|   |   |   |   |   |   |   Time >= 2315
|   |   |   |   |   |   |   |   Day < 1.5 : Empty (2/0)
|   |   |   |   |   |   |   |   Day >= 1.5 : Empty (2/1)
|   |   |   |   Day >= 2.5
|   |   |   |   |   Time < 2315
|   |   |   |   |   |   Time < 2265
|   |   |   |   |   |   |   Time < 2215
|   |   |   |   |   |   |   |   Day < 3.5 : Not Busy (2/0)
|   |   |   |   |   |   |   |   Day >= 3.5
|   |   |   |   |   |   |   |   |   Day < 5.5 : Empty (3/0)
|   |   |   |   |   |   |   |   |   Day >= 5.5 : Not Busy (1/0)
|   |   |   |   |   |   |   Time >= 2215
|   |   |   |   |   |   |   |   Day < 5.5
|   |   |   |   |   |   |   |   |   Day < 3.5 : Empty (2/1)
|   |   |   |   |   |   |   |   |   Day >= 3.5 : Empty (3/0)
|   |   |   |   |   |   |   |   Day >= 5.5 : Not Busy (1/0)
|   |   |   |   |   |   Time >= 2265
|   |   |   |   |   |   |   Day < 5.5 : Empty (5/0)
|   |   |   |   |   |   |   Day >= 5.5 : Not Busy (1/0)
|   |   |   |   |   Time >= 2315 : Empty (6/0)
|   Quarter = Summer
|   |   Day < 4.5
|   |   |   Time < 1665
|   |   |   |   Time < 1465
|   |   |   |   |   Time < 1165
|   |   |   |   |   |   Day < 3.5
|   |   |   |   |   |   |   Day < 1.5
|   |   |   |   |   |   |   |   Time < 965
|   |   |   |   |   |   |   |   |   Time < 815
|   |   |   |   |   |   |   |   |   |   Day < 0.5 : Not Busy (11/3)
|   |   |   |   |   |   |   |   |   |   Day >= 0.5 : Not Busy (12/4)
|   |   |   |   |   |   |   |   |   Time >= 815
|   |   |   |   |   |   |   |   |   |   Time < 915
|   |   |   |   |   |   |   |   |   |   |   Time < 865
|   |   |   |   |   |   |   |   |   |   |   |   Day < 0.5 : Moderately Busy (11/3)
|   |   |   |   |   |   |   |   |   |   |   |   Day >= 0.5 : Moderately Busy (12/5)
|   |   |   |   |   |   |   |   |   |   |   Time >= 865
|   |   |   |   |   |   |   |   |   |   |   |   Day < 0.5 : Moderately Busy (11/2)
|   |   |   |   |   |   |   |   |   |   |   |   Day >= 0.5 : Moderately Busy (12/2)
|   |   |   |   |   |   |   |   |   |   Time >= 915
|   |   |   |   |   |   |   |   |   |   |   Day < 0.5 : Moderately Busy (11/5)
|   |   |   |   |   |   |   |   |   |   |   Day >= 0.5 : Moderately Busy (12/4)
|   |   |   |   |   |   |   |   Time >= 965
|   |   |   |   |   |   |   |   |   Day < 0.5
|   |   |   |   |   |   |   |   |   |   Time < 1115
|   |   |   |   |   |   |   |   |   |   |   Time < 1015 : Not Busy (11/4)
|   |   |   |   |   |   |   |   |   |   |   Time >= 1015 : Not Busy (22/4)
|   |   |   |   |   |   |   |   |   |   Time >= 1115 : Not Busy (11/4)
|   |   |   |   |   |   |   |   |   Day >= 0.5
|   |   |   |   |   |   |   |   |   |   Time < 1115
|   |   |   |   |   |   |   |   |   |   |   Time < 1065 : Not Busy (24/6)
|   |   |   |   |   |   |   |   |   |   |   Time >= 1065 : Not Busy (12/1)
|   |   |   |   |   |   |   |   |   |   Time >= 1115 : Not Busy (12/4)
|   |   |   |   |   |   |   Day >= 1.5
|   |   |   |   |   |   |   |   Time < 965
|   |   |   |   |   |   |   |   |   Time < 815
|   |   |   |   |   |   |   |   |   |   Day < 2.5 : Not Busy (13/1)
|   |   |   |   |   |   |   |   |   |   Day >= 2.5 : Not Busy (13/0)
|   |   |   |   |   |   |   |   |   Time >= 815
|   |   |   |   |   |   |   |   |   |   Time < 915
|   |   |   |   |   |   |   |   |   |   |   Day < 2.5
|   |   |   |   |   |   |   |   |   |   |   |   Time < 865 : Moderately Busy (13/2)
|   |   |   |   |   |   |   |   |   |   |   |   Time >= 865 : Moderately Busy (13/0)
|   |   |   |   |   |   |   |   |   |   |   Day >= 2.5 : Moderately Busy (26/0)
|   |   |   |   |   |   |   |   |   |   Time >= 915
|   |   |   |   |   |   |   |   |   |   |   Day < 2.5 : Not Busy (13/4)
|   |   |   |   |   |   |   |   |   |   |   Day >= 2.5 : Not Busy (13/6)
|   |   |   |   |   |   |   |   Time >= 965
|   |   |   |   |   |   |   |   |   Time < 1115
|   |   |   |   |   |   |   |   |   |   Day < 2.5
|   |   |   |   |   |   |   |   |   |   |   Time < 1065 : Not Busy (26/2)
|   |   |   |   |   |   |   |   |   |   |   Time >= 1065 : Not Busy (13/0)
|   |   |   |   |   |   |   |   |   |   Day >= 2.5 : Not Busy (39/0)
|   |   |   |   |   |   |   |   |   Time >= 1115
|   |   |   |   |   |   |   |   |   |   Day < 2.5 : Not Busy (13/2)
|   |   |   |   |   |   |   |   |   |   Day >= 2.5 : Not Busy (13/1)
|   |   |   |   |   |   Day >= 3.5
|   |   |   |   |   |   |   Time < 915
|   |   |   |   |   |   |   |   Time < 815 : Not Busy (12/5)
|   |   |   |   |   |   |   |   Time >= 815
|   |   |   |   |   |   |   |   |   Time < 865 : Moderately Busy (12/5)
|   |   |   |   |   |   |   |   |   Time >= 865 : Moderately Busy (12/3)
|   |   |   |   |   |   |   Time >= 915
|   |   |   |   |   |   |   |   Time < 1115
|   |   |   |   |   |   |   |   |   Time < 1065
|   |   |   |   |   |   |   |   |   |   Time < 965 : Not Busy (12/6)
|   |   |   |   |   |   |   |   |   |   Time >= 965
|   |   |   |   |   |   |   |   |   |   |   Time < 1015 : Not Busy (12/5)
|   |   |   |   |   |   |   |   |   |   |   Time >= 1015 : Not Busy (12/6)
|   |   |   |   |   |   |   |   |   Time >= 1065 : Not Busy (12/5)
|   |   |   |   |   |   |   |   Time >= 1115 : Not Busy (12/4)
|   |   |   |   |   Time >= 1165
|   |   |   |   |   |   Day < 1.5
|   |   |   |   |   |   |   Day < 0.5
|   |   |   |   |   |   |   |   Time < 1415
|   |   |   |   |   |   |   |   |   Time < 1215 : Moderately Busy (11/3)
|   |   |   |   |   |   |   |   |   Time >= 1215
|   |   |   |   |   |   |   |   |   |   Time < 1365
|   |   |   |   |   |   |   |   |   |   |   Time < 1315
|   |   |   |   |   |   |   |   |   |   |   |   Time < 1265 : Moderately Busy (11/1)
|   |   |   |   |   |   |   |   |   |   |   |   Time >= 1265 : Moderately Busy (11/3)
|   |   |   |   |   |   |   |   |   |   |   Time >= 1315 : Moderately Busy (12/3)
|   |   |   |   |   |   |   |   |   |   Time >= 1365 : Moderately Busy (12/2)
|   |   |   |   |   |   |   |   Time >= 1415 : Not Busy (12/5)
|   |   |   |   |   |   |   Day >= 0.5
|   |   |   |   |   |   |   |   Time < 1365
|   |   |   |   |   |   |   |   |   Time < 1215 : Moderately Busy (12/3)
|   |   |   |   |   |   |   |   |   Time >= 1215
|   |   |   |   |   |   |   |   |   |   Time < 1315
|   |   |   |   |   |   |   |   |   |   |   Time < 1265 : Moderately Busy (12/2)
|   |   |   |   |   |   |   |   |   |   |   Time >= 1265 : Moderately Busy (12/3)
|   |   |   |   |   |   |   |   |   |   Time >= 1315 : Moderately Busy (12/2)
|   |   |   |   |   |   |   |   Time >= 1365
|   |   |   |   |   |   |   |   |   Time < 1415 : Moderately Busy (12/3)
|   |   |   |   |   |   |   |   |   Time >= 1415 : Not Busy (12/5)
|   |   |   |   |   |   Day >= 1.5
|   |   |   |   |   |   |   Day < 3.5
|   |   |   |   |   |   |   |   Time < 1365
|   |   |   |   |   |   |   |   |   Time < 1215
|   |   |   |   |   |   |   |   |   |   Day < 2.5 : Moderately Busy (13/4)
|   |   |   |   |   |   |   |   |   |   Day >= 2.5 : Not Busy (13/4)
|   |   |   |   |   |   |   |   |   Time >= 1215
|   |   |   |   |   |   |   |   |   |   Time < 1315
|   |   |   |   |   |   |   |   |   |   |   Day < 2.5
|   |   |   |   |   |   |   |   |   |   |   |   Time < 1265 : Moderately Busy (13/0)
|   |   |   |   |   |   |   |   |   |   |   |   Time >= 1265 : Moderately Busy (13/1)
|   |   |   |   |   |   |   |   |   |   |   Day >= 2.5
|   |   |   |   |   |   |   |   |   |   |   |   Time < 1265 : Moderately Busy (13/3)
|   |   |   |   |   |   |   |   |   |   |   |   Time >= 1265 : Moderately Busy (13/0)
|   |   |   |   |   |   |   |   |   |   Time >= 1315
|   |   |   |   |   |   |   |   |   |   |   Day < 2.5 : Moderately Busy (13/5)
|   |   |   |   |   |   |   |   |   |   |   Day >= 2.5 : Moderately Busy (13/2)
|   |   |   |   |   |   |   |   Time >= 1365
|   |   |   |   |   |   |   |   |   Time < 1415
|   |   |   |   |   |   |   |   |   |   Day < 2.5 : Moderately Busy (13/6)
|   |   |   |   |   |   |   |   |   |   Day >= 2.5 : Not Busy (13/5)
|   |   |   |   |   |   |   |   |   Time >= 1415
|   |   |   |   |   |   |   |   |   |   Day < 2.5 : Not Busy (13/3)
|   |   |   |   |   |   |   |   |   |   Day >= 2.5 : Not Busy (13/2)
|   |   |   |   |   |   |   Day >= 3.5
|   |   |   |   |   |   |   |   Time < 1315
|   |   |   |   |   |   |   |   |   Time < 1215 : Not Busy (12/6)
|   |   |   |   |   |   |   |   |   Time >= 1215
|   |   |   |   |   |   |   |   |   |   Time < 1265 : Moderately Busy (12/3)
|   |   |   |   |   |   |   |   |   |   Time >= 1265 : Moderately Busy (12/6)
|   |   |   |   |   |   |   |   Time >= 1315
|   |   |   |   |   |   |   |   |   Time < 1415 : Moderately Busy (24/8)
|   |   |   |   |   |   |   |   |   Time >= 1415 : Not Busy (12/5)
|   |   |   |   Time >= 1465
|   |   |   |   |   Day < 2.5
|   |   |   |   |   |   Time < 1515
|   |   |   |   |   |   |   Day < 1.5 : Not Busy (24/8)
|   |   |   |   |   |   |   Day >= 1.5 : Not Busy (13/2)
|   |   |   |   |   |   Time >= 1515
|   |   |   |   |   |   |   Time < 1615
|   |   |   |   |   |   |   |   Time < 1565
|   |   |   |   |   |   |   |   |   Day < 0.5 : Not Busy (12/2)
|   |   |   |   |   |   |   |   |   Day >= 0.5
|   |   |   |   |   |   |   |   |   |   Day < 1.5 : Not Busy (12/1)
|   |   |   |   |   |   |   |   |   |   Day >= 1.5 : Not Busy (13/1)
|   |   |   |   |   |   |   |   Time >= 1565
|   |   |   |   |   |   |   |   |   Day < 1.5
|   |   |   |   |   |   |   |   |   |   Day < 0.5 : Not Busy (12/2)
|   |   |   |   |   |   |   |   |   |   Day >= 0.5 : Not Busy (12/1)
|   |   |   |   |   |   |   |   |   Day >= 1.5 : Not Busy (13/0)
|   |   |   |   |   |   |   Time >= 1615
|   |   |   |   |   |   |   |   Day < 0.5 : Not Busy (12/2)
|   |   |   |   |   |   |   |   Day >= 0.5 : Not Busy (25/0)
|   |   |   |   |   Day >= 2.5
|   |   |   |   |   |   Day < 3.5
|   |   |   |   |   |   |   Time < 1565
|   |   |   |   |   |   |   |   Time < 1515 : Not Busy (13/1)
|   |   |   |   |   |   |   |   Time >= 1515 : Not Busy (13/0)
|   |   |   |   |   |   |   Time >= 1565 : Not Busy (26/2)
|   |   |   |   |   |   Day >= 3.5
|   |   |   |   |   |   |   Time < 1565
|   |   |   |   |   |   |   |   Time < 1515 : Not Busy (12/4)
|   |   |   |   |   |   |   |   Time >= 1515 : Not Busy (12/1)
|   |   |   |   |   |   |   Time >= 1565
|   |   |   |   |   |   |   |   Time < 1615 : Not Busy (12/3)
|   |   |   |   |   |   |   |   Time >= 1615 : Not Busy (12/3)
|   |   |   Time >= 1665
|   |   |   |   Time < 1865
|   |   |   |   |   Day < 3.5
|   |   |   |   |   |   Time < 1765
|   |   |   |   |   |   |   Day < 2.5
|   |   |   |   |   |   |   |   Time < 1715
|   |   |   |   |   |   |   |   |   Day < 0.5 : Not Busy (12/1)
|   |   |   |   |   |   |   |   |   Day >= 0.5
|   |   |   |   |   |   |   |   |   |   Day < 1.5 : Not Busy (12/2)
|   |   |   |   |   |   |   |   |   |   Day >= 1.5 : Not Busy (13/3)
|   |   |   |   |   |   |   |   Time >= 1715
|   |   |   |   |   |   |   |   |   Day < 1.5
|   |   |   |   |   |   |   |   |   |   Day < 0.5 : Not Busy (11/3)
|   |   |   |   |   |   |   |   |   |   Day >= 0.5 : Not Busy (11/2)
|   |   |   |   |   |   |   |   |   Day >= 1.5 : Not Busy (13/4)
|   |   |   |   |   |   |   Day >= 2.5
|   |   |   |   |   |   |   |   Time < 1715 : Not Busy (13/4)
|   |   |   |   |   |   |   |   Time >= 1715 : Empty (13/6)
|   |   |   |   |   |   Time >= 1765
|   |   |   |   |   |   |   Time < 1815
|   |   |   |   |   |   |   |   Day < 2.5
|   |   |   |   |   |   |   |   |   Day < 0.5 : Empty (11/5)
|   |   |   |   |   |   |   |   |   Day >= 0.5
|   |   |   |   |   |   |   |   |   |   Day < 1.5 : Empty (12/4)
|   |   |   |   |   |   |   |   |   |   Day >= 1.5 : Empty (13/5)
|   |   |   |   |   |   |   |   Day >= 2.5 : Not Busy (13/6)
|   |   |   |   |   |   |   Time >= 1815
|   |   |   |   |   |   |   |   Day < 2.5
|   |   |   |   |   |   |   |   |   Day < 1.5 : Empty (22/6)
|   |   |   |   |   |   |   |   |   Day >= 1.5 : Not Busy (13/6)
|   |   |   |   |   |   |   |   Day >= 2.5 : Empty (13/1)
|   |   |   |   |   Day >= 3.5
|   |   |   |   |   |   Time < 1715 : Empty (7/3)
|   |   |   |   |   |   Time >= 1715
|   |   |   |   |   |   |   Time < 1765 : Empty (7/1)
|   |   |   |   |   |   |   Time >= 1765 : Empty (5/0)
|   |   |   |   Time >= 1865
|   |   |   |   |   Day < 0.5
|   |   |   |   |   |   Time < 1965
|   |   |   |   |   |   |   Time < 1915 : Empty (11/2)
|   |   |   |   |   |   |   Time >= 1915 : Empty (12/4)
|   |   |   |   |   |   Time >= 1965 : Empty (42/0)
|   |   |   |   |   Day >= 0.5
|   |   |   |   |   |   Time < 2015
|   |   |   |   |   |   |   Day < 3.5
|   |   |   |   |   |   |   |   Day < 1.5
|   |   |   |   |   |   |   |   |   Time < 1915 : Empty (11/0)
|   |   |   |   |   |   |   |   |   Time >= 1915
|   |   |   |   |   |   |   |   |   |   Time < 1965 : Empty (11/2)
|   |   |   |   |   |   |   |   |   |   Time >= 1965 : Empty (11/1)
|   |   |   |   |   |   |   |   Day >= 1.5
|   |   |   |   |   |   |   |   |   Time < 1965
|   |   |   |   |   |   |   |   |   |   Time < 1915
|   |   |   |   |   |   |   |   |   |   |   Day < 2.5 : Empty (13/0)
|   |   |   |   |   |   |   |   |   |   |   Day >= 2.5 : Empty (13/3)
|   |   |   |   |   |   |   |   |   |   Time >= 1915
|   |   |   |   |   |   |   |   |   |   |   Day < 2.5 : Empty (13/2)
|   |   |   |   |   |   |   |   |   |   |   Day >= 2.5 : Empty (13/0)
|   |   |   |   |   |   |   |   |   Time >= 1965 : Empty (26/0)
|   |   |   |   |   |   |   Day >= 3.5 : Empty (7/0)
|   |   |   |   |   |   Time >= 2015 : Empty (105/0)
|   |   Day >= 4.5
|   |   |   Day < 5.5
|   |   |   |   Time < 1465
|   |   |   |   |   Time < 1015
|   |   |   |   |   |   Time < 815 : Empty (12/5)
|   |   |   |   |   |   Time >= 815
|   |   |   |   |   |   |   Time < 865 : Empty (11/5)
|   |   |   |   |   |   |   Time >= 865
|   |   |   |   |   |   |   |   Time < 915 : Empty (12/5)
|   |   |   |   |   |   |   |   Time >= 915
|   |   |   |   |   |   |   |   |   Time < 965 : Empty (12/5)
|   |   |   |   |   |   |   |   |   Time >= 965 : Empty (12/5)
|   |   |   |   |   Time >= 1015
|   |   |   |   |   |   Time < 1215
|   |   |   |   |   |   |   Time < 1065 : Empty (12/5)
|   |   |   |   |   |   |   Time >= 1065
|   |   |   |   |   |   |   |   Time < 1115 : Empty (12/6)
|   |   |   |   |   |   |   |   Time >= 1115
|   |   |   |   |   |   |   |   |   Time < 1165 : Empty (12/5)
|   |   |   |   |   |   |   |   |   Time >= 1165 : Empty (12/6)
|   |   |   |   |   |   Time >= 1215
|   |   |   |   |   |   |   Time < 1365
|   |   |   |   |   |   |   |   Time < 1265 : Empty (12/7)
|   |   |   |   |   |   |   |   Time >= 1265
|   |   |   |   |   |   |   |   |   Time < 1315 : Empty (12/6)
|   |   |   |   |   |   |   |   |   Time >= 1315 : Empty (12/7)
|   |   |   |   |   |   |   Time >= 1365
|   |   |   |   |   |   |   |   Time < 1415 : Empty (12/5)
|   |   |   |   |   |   |   |   Time >= 1415 : Empty (12/5)
|   |   |   |   Time >= 1465
|   |   |   |   |   Time < 1715
|   |   |   |   |   |   Time < 1615 : Empty (36/15)
|   |   |   |   |   |   Time >= 1615
|   |   |   |   |   |   |   Time < 1665 : Empty (12/3)
|   |   |   |   |   |   |   Time >= 1665 : Empty (5/1)
|   |   |   |   |   Time >= 1715
|   |   |   |   |   |   Time < 1865
|   |   |   |   |   |   |   Time < 1815 : Empty (8/0)
|   |   |   |   |   |   |   Time >= 1815 : Empty (3/1)
|   |   |   |   |   |   Time >= 1865 : Empty (12/0)
|   |   |   Day >= 5.5
|   |   |   |   Time < 1665
|   |   |   |   |   Time < 1465
|   |   |   |   |   |   Time < 915
