=== Run information ===

Scheme:       weka.classifiers.trees.RandomTree -K 0 -M 1.0 -V 0.001 -S 1
Relation:     no_other
Instances:    11027
Attributes:   13
              Time
              Day
              Year
              Quarter
              Quarter Progress
              Temp
              Dew Point
              Humidity
              Pressure
              Visibility
              Wind Speed
              Conditions
              Class
Test mode:    10-fold cross-validation

=== Classifier model (full training set) ===


RandomTree
==========

Day < 2.5
|   Quarter Progress < 0.17
|   |   Temp < 54.5
|   |   |   Wind Speed < 1.75
|   |   |   |   Humidity < 0.65
|   |   |   |   |   Time < 1665 : Busy (2/0)
|   |   |   |   |   Time >= 1665 : Not Busy (1/0)
|   |   |   |   Humidity >= 0.65
|   |   |   |   |   Time < 765 : Empty (14/0)
|   |   |   |   |   Time >= 765
|   |   |   |   |   |   Day < 0.5 : Empty (1/0)
|   |   |   |   |   |   Day >= 0.5 : Not Busy (1/0)
|   |   |   Wind Speed >= 1.75
|   |   |   |   Visibility < 2.25
|   |   |   |   |   Pressure < 29.75
|   |   |   |   |   |   Day < 0.5 : Not Busy (5/0)
|   |   |   |   |   |   Day >= 0.5
|   |   |   |   |   |   |   Time < 15 : Not Busy (1/0)
|   |   |   |   |   |   |   Time >= 15 : Empty (4/0)
|   |   |   |   |   Pressure >= 29.75 : Moderately Busy (11/0)
|   |   |   |   Visibility >= 2.25
|   |   |   |   |   Time < 765
|   |   |   |   |   |   Humidity < 0.64
|   |   |   |   |   |   |   Time < 15 : Not Busy (1/0)
|   |   |   |   |   |   |   Time >= 15
|   |   |   |   |   |   |   |   Pressure < 30.3 : Empty (6/0)
|   |   |   |   |   |   |   |   Pressure >= 30.3 : Not Busy (1/0)
|   |   |   |   |   |   Humidity >= 0.64 : Empty (34/0)
|   |   |   |   |   Time >= 765
|   |   |   |   |   |   Conditions = Partly Cloudy
|   |   |   |   |   |   |   Day < 1 : Not Busy (1/0)
|   |   |   |   |   |   |   Day >= 1
|   |   |   |   |   |   |   |   Dew Point < 19.05
|   |   |   |   |   |   |   |   |   Time < 1765 : Busy (1/0)
|   |   |   |   |   |   |   |   |   Time >= 1765 : Moderately Busy (1/0)
|   |   |   |   |   |   |   |   Dew Point >= 19.05 : Moderately Busy (2/0)
|   |   |   |   |   |   Conditions = Light Snow
|   |   |   |   |   |   |   Dew Point < 8.5 : Busy (6/0)
|   |   |   |   |   |   |   Dew Point >= 8.5
|   |   |   |   |   |   |   |   Time < 1330 : Busy (2/0)
|   |   |   |   |   |   |   |   Time >= 1330 : Moderately Busy (5/0)
|   |   |   |   |   |   Conditions = Overcast
|   |   |   |   |   |   |   Dew Point < 13.45
|   |   |   |   |   |   |   |   Time < 1115
|   |   |   |   |   |   |   |   |   Time < 1065 : Busy (5/0)
|   |   |   |   |   |   |   |   |   Time >= 1065 : Moderately Busy (1/0)
|   |   |   |   |   |   |   |   Time >= 1115 : Busy (9/0)
|   |   |   |   |   |   |   Dew Point >= 13.45
|   |   |   |   |   |   |   |   Time < 1515
|   |   |   |   |   |   |   |   |   Pressure < 30.18
|   |   |   |   |   |   |   |   |   |   Time < 815 : Not Busy (1/0)
|   |   |   |   |   |   |   |   |   |   Time >= 815
|   |   |   |   |   |   |   |   |   |   |   Pressure < 29.55 : Busy (2/0)
|   |   |   |   |   |   |   |   |   |   |   Pressure >= 29.55
|   |   |   |   |   |   |   |   |   |   |   |   Time < 965
|   |   |   |   |   |   |   |   |   |   |   |   |   Time < 915
|   |   |   |   |   |   |   |   |   |   |   |   |   |   Time < 865 : Busy (1/0)
|   |   |   |   |   |   |   |   |   |   |   |   |   |   Time >= 865 : Moderately Busy (1/0)
|   |   |   |   |   |   |   |   |   |   |   |   |   Time >= 915 : Busy (3/0)
|   |   |   |   |   |   |   |   |   |   |   |   Time >= 965
|   |   |   |   |   |   |   |   |   |   |   |   |   Temp < 34.1 : Moderately Busy (1/0)
|   |   |   |   |   |   |   |   |   |   |   |   |   Temp >= 34.1
|   |   |   |   |   |   |   |   |   |   |   |   |   |   Quarter Progress < 0.09
|   |   |   |   |   |   |   |   |   |   |   |   |   |   |   Dew Point < 28.5
|   |   |   |   |   |   |   |   |   |   |   |   |   |   |   |   Time < 1065 : Busy (1/0)
|   |   |   |   |   |   |   |   |   |   |   |   |   |   |   |   Time >= 1065 : Moderately Busy (1/0)
|   |   |   |   |   |   |   |   |   |   |   |   |   |   |   Dew Point >= 28.5
|   |   |   |   |   |   |   |   |   |   |   |   |   |   |   |   Time < 1015 : Moderately Busy (1/0)
|   |   |   |   |   |   |   |   |   |   |   |   |   |   |   |   Time >= 1015
|   |   |   |   |   |   |   |   |   |   |   |   |   |   |   |   |   Time < 1065 : Busy (1/0)
|   |   |   |   |   |   |   |   |   |   |   |   |   |   |   |   |   Time >= 1065 : Moderately Busy (1/0)
|   |   |   |   |   |   |   |   |   |   |   |   |   |   Quarter Progress >= 0.09 : Moderately Busy (1/0)
|   |   |   |   |   |   |   |   |   Pressure >= 30.18
|   |   |   |   |   |   |   |   |   |   Humidity < 0.7
|   |   |   |   |   |   |   |   |   |   |   Humidity < 0.63
|   |   |   |   |   |   |   |   |   |   |   |   Quarter Progress < 0.04 : Busy (3/0)
|   |   |   |   |   |   |   |   |   |   |   |   Quarter Progress >= 0.04
|   |   |   |   |   |   |   |   |   |   |   |   |   Time < 1365 : Busy (1/0)
|   |   |   |   |   |   |   |   |   |   |   |   |   Time >= 1365 : Moderately Busy (1/0)
|   |   |   |   |   |   |   |   |   |   |   Humidity >= 0.63 : Busy (9/0)
|   |   |   |   |   |   |   |   |   |   Humidity >= 0.7
|   |   |   |   |   |   |   |   |   |   |   Temp < 27.05
|   |   |   |   |   |   |   |   |   |   |   |   Time < 865 : Busy (1/0)
|   |   |   |   |   |   |   |   |   |   |   |   Time >= 865
|   |   |   |   |   |   |   |   |   |   |   |   |   Visibility < 8.5
|   |   |   |   |   |   |   |   |   |   |   |   |   |   Time < 965 : Busy (1/0)
|   |   |   |   |   |   |   |   |   |   |   |   |   |   Time >= 965 : Moderately Busy (1/0)
|   |   |   |   |   |   |   |   |   |   |   |   |   Visibility >= 8.5 : Moderately Busy (1/0)
|   |   |   |   |   |   |   |   |   |   |   Temp >= 27.05 : Busy (1/0)
|   |   |   |   |   |   |   |   Time >= 1515
|   |   |   |   |   |   |   |   |   Time < 2115
|   |   |   |   |   |   |   |   |   |   Quarter = Winter
|   |   |   |   |   |   |   |   |   |   |   Time < 1865 : Moderately Busy (8/0)
|   |   |   |   |   |   |   |   |   |   |   Time >= 1865
|   |   |   |   |   |   |   |   |   |   |   |   Temp < 25.5 : Moderately Busy (2/0)
|   |   |   |   |   |   |   |   |   |   |   |   Temp >= 25.5 : Not Busy (5/0)
|   |   |   |   |   |   |   |   |   |   Quarter = Spring
|   |   |   |   |   |   |   |   |   |   |   Quarter Progress < 0.09
|   |   |   |   |   |   |   |   |   |   |   |   Dew Point < 20.9
|   |   |   |   |   |   |   |   |   |   |   |   |   Pressure < 30.38
|   |   |   |   |   |   |   |   |   |   |   |   |   |   Time < 1965 : Busy (1/0)
|   |   |   |   |   |   |   |   |   |   |   |   |   |   Time >= 1965 : Moderately Busy (1/0)
|   |   |   |   |   |   |   |   |   |   |   |   |   Pressure >= 30.38 : Moderately Busy (2/0)
|   |   |   |   |   |   |   |   |   |   |   |   Dew Point >= 20.9 : Moderately Busy (4/0)
|   |   |   |   |   |   |   |   |   |   |   Quarter Progress >= 0.09 : Moderately Busy (10/0)
|   |   |   |   |   |   |   |   |   |   Quarter = Fall : Empty (0/0)
|   |   |   |   |   |   |   |   |   |   Quarter = Summer : Empty (0/0)
|   |   |   |   |   |   |   |   |   Time >= 2115
|   |   |   |   |   |   |   |   |   |   Temp < 45.5
|   |   |   |   |   |   |   |   |   |   |   Humidity < 0.66
|   |   |   |   |   |   |   |   |   |   |   |   Day < 1 : Not Busy (4/0)
|   |   |   |   |   |   |   |   |   |   |   |   Day >= 1 : Empty (1/0)
|   |   |   |   |   |   |   |   |   |   |   Humidity >= 0.66 : Not Busy (6/0)
|   |   |   |   |   |   |   |   |   |   Temp >= 45.5
|   |   |   |   |   |   |   |   |   |   |   Time < 2165 : Moderately Busy (1/0)
|   |   |   |   |   |   |   |   |   |   |   Time >= 2165 : Not Busy (1/0)
|   |   |   |   |   |   Conditions = Scattered Clouds
|   |   |   |   |   |   |   Quarter = Winter : Moderately Busy (2/0)
|   |   |   |   |   |   |   Quarter = Spring : Not Busy (1/0)
|   |   |   |   |   |   |   Quarter = Fall : Empty (0/0)
|   |   |   |   |   |   |   Quarter = Summer : Empty (0/0)
|   |   |   |   |   |   Conditions = Clear
|   |   |   |   |   |   |   Pressure < 29.86
|   |   |   |   |   |   |   |   Dew Point < 18.5 : Not Busy (4/0)
|   |   |   |   |   |   |   |   Dew Point >= 18.5 : Empty (1/0)
|   |   |   |   |   |   |   Pressure >= 29.86
|   |   |   |   |   |   |   |   Wind Speed < 9.8
|   |   |   |   |   |   |   |   |   Quarter Progress < 0.02
|   |   |   |   |   |   |   |   |   |   Time < 1965
|   |   |   |   |   |   |   |   |   |   |   Temp < 24.95 : Not Busy (1/0)
|   |   |   |   |   |   |   |   |   |   |   Temp >= 24.95
|   |   |   |   |   |   |   |   |   |   |   |   Temp < 52.55
|   |   |   |   |   |   |   |   |   |   |   |   |   Time < 1065
|   |   |   |   |   |   |   |   |   |   |   |   |   |   Time < 865 : Busy (1/0)
|   |   |   |   |   |   |   |   |   |   |   |   |   |   Time >= 865
|   |   |   |   |   |   |   |   |   |   |   |   |   |   |   Wind Speed < 6.35 : Busy (1/0)
|   |   |   |   |   |   |   |   |   |   |   |   |   |   |   Wind Speed >= 6.35
|   |   |   |   |   |   |   |   |   |   |   |   |   |   |   |   Dew Point < 34
|   |   |   |   |   |   |   |   |   |   |   |   |   |   |   |   |   Time < 965 : Busy (1/0)
|   |   |   |   |   |   |   |   |   |   |   |   |   |   |   |   |   Time >= 965 : Moderately Busy (1/0)
|   |   |   |   |   |   |   |   |   |   |   |   |   |   |   |   Dew Point >= 34 : Moderately Busy (1/0)
|   |   |   |   |   |   |   |   |   |   |   |   |   Time >= 1065 : Moderately Busy (6/0)
|   |   |   |   |   |   |   |   |   |   |   |   Temp >= 52.55 : Busy (2/0)
|   |   |   |   |   |   |   |   |   |   Time >= 1965
|   |   |   |   |   |   |   |   |   |   |   Dew Point < 21.45
|   |   |   |   |   |   |   |   |   |   |   |   Time < 2215 : Not Busy (2/0)
|   |   |   |   |   |   |   |   |   |   |   |   Time >= 2215 : Empty (3/0)
|   |   |   |   |   |   |   |   |   |   |   Dew Point >= 21.45
|   |   |   |   |   |   |   |   |   |   |   |   Pressure < 30.18
|   |   |   |   |   |   |   |   |   |   |   |   |   Time < 2265 : Empty (1/0)
|   |   |   |   |   |   |   |   |   |   |   |   |   Time >= 2265
|   |   |   |   |   |   |   |   |   |   |   |   |   |   Dew Point < 28.45 : Not Busy (1/0)
|   |   |   |   |   |   |   |   |   |   |   |   |   |   Dew Point >= 28.45 : Empty (1/0)
|   |   |   |   |   |   |   |   |   |   |   |   Pressure >= 30.18
|   |   |   |   |   |   |   |   |   |   |   |   |   Humidity < 0.64 : Not Busy (5/0)
|   |   |   |   |   |   |   |   |   |   |   |   |   Humidity >= 0.64
|   |   |   |   |   |   |   |   |   |   |   |   |   |   Time < 2065 : Moderately Busy (1/0)
|   |   |   |   |   |   |   |   |   |   |   |   |   |   Time >= 2065 : Not Busy (1/0)
|   |   |   |   |   |   |   |   |   Quarter Progress >= 0.02
|   |   |   |   |   |   |   |   |   |   Day < 1.5
|   |   |   |   |   |   |   |   |   |   |   Time < 2165
|   |   |   |   |   |   |   |   |   |   |   |   Pressure < 30.49
|   |   |   |   |   |   |   |   |   |   |   |   |   Temp < 0.5 : Not Busy (1/0)
|   |   |   |   |   |   |   |   |   |   |   |   |   Temp >= 0.5
|   |   |   |   |   |   |   |   |   |   |   |   |   |   Quarter Progress < 0.1
|   |   |   |   |   |   |   |   |   |   |   |   |   |   |   Temp < 36.95
|   |   |   |   |   |   |   |   |   |   |   |   |   |   |   |   Temp < 2.45
|   |   |   |   |   |   |   |   |   |   |   |   |   |   |   |   |   Time < 865 : Busy (1/0)
|   |   |   |   |   |   |   |   |   |   |   |   |   |   |   |   |   Time >= 865 : Moderately Busy (1/0)
|   |   |   |   |   |   |   |   |   |   |   |   |   |   |   |   Temp >= 2.45
|   |   |   |   |   |   |   |   |   |   |   |   |   |   |   |   |   Time < 1065 : Busy (3/0)
|   |   |   |   |   |   |   |   |   |   |   |   |   |   |   |   |   Time >= 1065 : Moderately Busy (1/0)
|   |   |   |   |   |   |   |   |   |   |   |   |   |   |   Temp >= 36.95 : Busy (4/0)
|   |   |   |   |   |   |   |   |   |   |   |   |   |   Quarter Progress >= 0.1 : Moderately Busy (1/0)
|   |   |   |   |   |   |   |   |   |   |   |   Pressure >= 30.49
|   |   |   |   |   |   |   |   |   |   |   |   |   Time < 815 : Not Busy (1/0)
|   |   |   |   |   |   |   |   |   |   |   |   |   Time >= 815 : Moderately Busy (4/0)
|   |   |   |   |   |   |   |   |   |   |   Time >= 2165
|   |   |   |   |   |   |   |   |   |   |   |   Humidity < 0.65 : Not Busy (1/0)
|   |   |   |   |   |   |   |   |   |   |   |   Humidity >= 0.65
|   |   |   |   |   |   |   |   |   |   |   |   |   Time < 2315 : Not Busy (2/0)
|   |   |   |   |   |   |   |   |   |   |   |   |   Time >= 2315 : Empty (1/0)
|   |   |   |   |   |   |   |   |   |   Day >= 1.5
|   |   |   |   |   |   |   |   |   |   |   Humidity < 0.69 : Busy (8/0)
|   |   |   |   |   |   |   |   |   |   |   Humidity >= 0.69
|   |   |   |   |   |   |   |   |   |   |   |   Time < 865
|   |   |   |   |   |   |   |   |   |   |   |   |   Dew Point < 19.45 : Not Busy (1/0)
|   |   |   |   |   |   |   |   |   |   |   |   |   Dew Point >= 19.45 : Busy (1/0)
|   |   |   |   |   |   |   |   |   |   |   |   Time >= 865 : Moderately Busy (5/0)
|   |   |   |   |   |   |   |   Wind Speed >= 9.8
|   |   |   |   |   |   |   |   |   Pressure < 30.11
|   |   |   |   |   |   |   |   |   |   Visibility < 8.5
|   |   |   |   |   |   |   |   |   |   |   Time < 815 : Not Busy (1/0)
|   |   |   |   |   |   |   |   |   |   |   Time >= 815 : Busy (2/0)
|   |   |   |   |   |   |   |   |   |   Visibility >= 8.5 : Busy (12/0)
|   |   |   |   |   |   |   |   |   Pressure >= 30.11
|   |   |   |   |   |   |   |   |   |   Temp < 9.05 : Moderately Busy (10/0)
|   |   |   |   |   |   |   |   |   |   Temp >= 9.05
|   |   |   |   |   |   |   |   |   |   |   Humidity < 0.34
|   |   |   |   |   |   |   |   |   |   |   |   Time < 1765 : Moderately Busy (1/0)
|   |   |   |   |   |   |   |   |   |   |   |   Time >= 1765 : Not Busy (1/0)
|   |   |   |   |   |   |   |   |   |   |   Humidity >= 0.34
|   |   |   |   |   |   |   |   |   |   |   |   Time < 1565
|   |   |   |   |   |   |   |   |   |   |   |   |   Quarter = Winter
|   |   |   |   |   |   |   |   |   |   |   |   |   |   Time < 1115
|   |   |   |   |   |   |   |   |   |   |   |   |   |   |   Wind Speed < 10.95 : Busy (2/0)
|   |   |   |   |   |   |   |   |   |   |   |   |   |   |   Wind Speed >= 10.95
|   |   |   |   |   |   |   |   |   |   |   |   |   |   |   |   Time < 865 : Busy (1/0)
|   |   |   |   |   |   |   |   |   |   |   |   |   |   |   |   Time >= 865
|   |   |   |   |   |   |   |   |   |   |   |   |   |   |   |   |   Time < 915 : Moderately Busy (1/0)
|   |   |   |   |   |   |   |   |   |   |   |   |   |   |   |   |   Time >= 915
|   |   |   |   |   |   |   |   |   |   |   |   |   |   |   |   |   |   Time < 965 : Busy (1/0)
|   |   |   |   |   |   |   |   |   |   |   |   |   |   |   |   |   |   Time >= 965
|   |   |   |   |   |   |   |   |   |   |   |   |   |   |   |   |   |   |   Wind Speed < 12.65 : Moderately Busy (1/0)
|   |   |   |   |   |   |   |   |   |   |   |   |   |   |   |   |   |   |   Wind Speed >= 12.65
|   |   |   |   |   |   |   |   |   |   |   |   |   |   |   |   |   |   |   |   Time < 1065 : Busy (1/0)
|   |   |   |   |   |   |   |   |   |   |   |   |   |   |   |   |   |   |   |   Time >= 1065 : Moderately Busy (1/0)
|   |   |   |   |   |   |   |   |   |   |   |   |   |   Time >= 1115 : Busy (12/0)
|   |   |   |   |   |   |   |   |   |   |   |   |   Quarter = Spring
|   |   |   |   |   |   |   |   |   |   |   |   |   |   Time < 1165 : Moderately Busy (1/0)
|   |   |   |   |   |   |   |   |   |   |   |   |   |   Time >= 1165
|   |   |   |   |   |   |   |   |   |   |   |   |   |   |   Temp < 39.55 : Busy (1/0)
|   |   |   |   |   |   |   |   |   |   |   |   |   |   |   Temp >= 39.55
|   |   |   |   |   |   |   |   |   |   |   |   |   |   |   |   Time < 1465 : Moderately Busy (1/0)
|   |   |   |   |   |   |   |   |   |   |   |   |   |   |   |   Time >= 1465
|   |   |   |   |   |   |   |   |   |   |   |   |   |   |   |   |   Dew Point < 16.55 : Busy (1/0)
|   |   |   |   |   |   |   |   |   |   |   |   |   |   |   |   |   Dew Point >= 16.55 : Moderately Busy (1/0)
|   |   |   |   |   |   |   |   |   |   |   |   |   Quarter = Fall : Empty (0/0)
|   |   |   |   |   |   |   |   |   |   |   |   |   Quarter = Summer : Empty (0/0)
|   |   |   |   |   |   |   |   |   |   |   |   Time >= 1565 : Moderately Busy (9/0)
|   |   |   |   |   |   Conditions = Fog : Empty (0/0)
|   |   |   |   |   |   Conditions = Mostly Cloudy
|   |   |   |   |   |   |   Pressure < 30.2
|   |   |   |   |   |   |   |   Time < 2115
|   |   |   |   |   |   |   |   |   Humidity < 0.72
|   |   |   |   |   |   |   |   |   |   Time < 1565
|   |   |   |   |   |   |   |   |   |   |   Time < 965
|   |   |   |   |   |   |   |   |   |   |   |   Time < 865 : Busy (1/0)
|   |   |   |   |   |   |   |   |   |   |   |   Time >= 865 : Moderately Busy (1/0)
|   |   |   |   |   |   |   |   |   |   |   Time >= 965 : Busy (2/0)
|   |   |   |   |   |   |   |   |   |   Time >= 1565 : Moderately Busy (2/0)
|   |   |   |   |   |   |   |   |   Humidity >= 0.72
|   |   |   |   |   |   |   |   |   |   Temp < 11.9 : Not Busy (1/0)
|   |   |   |   |   |   |   |   |   |   Temp >= 11.9 : Moderately Busy (2/0)
|   |   |   |   |   |   |   |   Time >= 2115 : Not Busy (4/0)
|   |   |   |   |   |   |   Pressure >= 30.2 : Moderately Busy (8/0)
|   |   |   |   |   |   Conditions = Light Rain
|   |   |   |   |   |   |   Time < 1565
|   |   |   |   |   |   |   |   Temp < 46.45
|   |   |   |   |   |   |   |   |   Humidity < 0.79 : Not Busy (1/0)
|   |   |   |   |   |   |   |   |   Humidity >= 0.79
|   |   |   |   |   |   |   |   |   |   Time < 865 : Busy (1/0)
|   |   |   |   |   |   |   |   |   |   Time >= 865
|   |   |   |   |   |   |   |   |   |   |   Time < 965 : Moderately Busy (1/0)
|   |   |   |   |   |   |   |   |   |   |   Time >= 965
|   |   |   |   |   |   |   |   |   |   |   |   Time < 1065 : Busy (1/0)
|   |   |   |   |   |   |   |   |   |   |   |   Time >= 1065 : Moderately Busy (1/0)
|   |   |   |   |   |   |   |   Temp >= 46.45 : Busy (8/0)
|   |   |   |   |   |   |   Time >= 1565
|   |   |   |   |   |   |   |   Temp < 42.9
|   |   |   |   |   |   |   |   |   Pressure < 30.07 : Not Busy (2/0)
|   |   |   |   |   |   |   |   |   Pressure >= 30.07 : Moderately Busy (2/0)
|   |   |   |   |   |   |   |   Temp >= 42.9 : Moderately Busy (4/0)
|   |   |   |   |   |   Conditions = Light Thunderstorms and Rain : Empty (0/0)
|   |   |   |   |   |   Conditions = Haze : Busy (5/0)
|   |   |   |   |   |   Conditions = Rain : Empty (0/0)
|   |   |   |   |   |   Conditions = Mist : Empty (0/0)
|   |   |   |   |   |   Conditions = Heavy Rain : Empty (0/0)
|   |   |   |   |   |   Conditions = Light Freezing Fog : Empty (0/0)
|   |   |   |   |   |   Conditions = Snow : Empty (0/0)
|   |   |   |   |   |   Conditions = Light Freezing Rain : Empty (0/0)
|   |   |   |   |   |   Conditions = Heavy Snow : Empty (0/0)
|   |   |   |   |   |   Conditions = Thunderstorm : Empty (0/0)
|   |   |   |   |   |   Conditions = Thunderstorms and Rain : Empty (0/0)
|   |   |   |   |   |   Conditions = Heavy Thunderstorms and Rain : Empty (0/0)
|   |   Temp >= 54.5
|   |   |   Wind Speed < 9.8
|   |   |   |   Quarter = Winter : Empty (0/0)
|   |   |   |   Quarter = Spring : Busy (2/0)
|   |   |   |   Quarter = Fall
|   |   |   |   |   Humidity < 0.56
|   |   |   |   |   |   Time < 1565
|   |   |   |   |   |   |   Humidity < 0.54 : Busy (34/0)
|   |   |   |   |   |   |   Humidity >= 0.54
|   |   |   |   |   |   |   |   Time < 965 : Busy (1/0)
|   |   |   |   |   |   |   |   Time >= 965 : Moderately Busy (1/0)
|   |   |   |   |   |   Time >= 1565
|   |   |   |   |   |   |   Dew Point < 53.55 : Moderately Busy (14/0)
|   |   |   |   |   |   |   Dew Point >= 53.55 : Empty (1/0)
|   |   |   |   |   Humidity >= 0.56
|   |   |   |   |   |   Temp < 61.55
|   |   |   |   |   |   |   Dew Point < 52.55
|   |   |   |   |   |   |   |   Time < 815
|   |   |   |   |   |   |   |   |   Time < 765 : Empty (3/0)
|   |   |   |   |   |   |   |   |   Time >= 765 : Not Busy (2/0)
|   |   |   |   |   |   |   |   Time >= 815
|   |   |   |   |   |   |   |   |   Humidity < 0.73 : Moderately Busy (2/0)
|   |   |   |   |   |   |   |   |   Humidity >= 0.73
|   |   |   |   |   |   |   |   |   |   Time < 865 : Busy (1/0)
|   |   |   |   |   |   |   |   |   |   Time >= 865 : Moderately Busy (1/0)
|   |   |   |   |   |   |   Dew Point >= 52.55
|   |   |   |   |   |   |   |   Humidity < 0.89
|   |   |   |   |   |   |   |   |   Pressure < 30.16 : Not Busy (2/0)
|   |   |   |   |   |   |   |   |   Pressure >= 30.16
|   |   |   |   |   |   |   |   |   |   Day < 1.5
|   |   |   |   |   |   |   |   |   |   |   Time < 2265
|   |   |   |   |   |   |   |   |   |   |   |   Dew Point < 54.05
|   |   |   |   |   |   |   |   |   |   |   |   |   Time < 765 : Empty (1/0)
|   |   |   |   |   |   |   |   |   |   |   |   |   Time >= 765 : Not Busy (1/0)
|   |   |   |   |   |   |   |   |   |   |   |   Dew Point >= 54.05 : Not Busy (1/0)
|   |   |   |   |   |   |   |   |   |   |   Time >= 2265 : Empty (2/0)
|   |   |   |   |   |   |   |   |   |   Day >= 1.5
|   |   |   |   |   |   |   |   |   |   |   Temp < 60.55 : Empty (2/0)
|   |   |   |   |   |   |   |   |   |   |   Temp >= 60.55
|   |   |   |   |   |   |   |   |   |   |   |   Time < 765 : Empty (1/0)
|   |   |   |   |   |   |   |   |   |   |   |   Time >= 765 : Not Busy (1/0)
|   |   |   |   |   |   |   |   Humidity >= 0.89 : Empty (10/0)
|   |   |   |   |   |   Temp >= 61.55
|   |   |   |   |   |   |   Time < 1365
|   |   |   |   |   |   |   |   Pressure < 30.27
|   |   |   |   |   |   |   |   |   Temp < 65
|   |   |   |   |   |   |   |   |   |   Pressure < 30.23 : Busy (4/0)
|   |   |   |   |   |   |   |   |   |   Pressure >= 30.23
|   |   |   |   |   |   |   |   |   |   |   Time < 765 : Empty (1/0)
|   |   |   |   |   |   |   |   |   |   |   Time >= 765 : Not Busy (1/0)
|   |   |   |   |   |   |   |   |   Temp >= 65
|   |   |   |   |   |   |   |   |   |   Time < 765 : Empty (3/0)
|   |   |   |   |   |   |   |   |   |   Time >= 765
|   |   |   |   |   |   |   |   |   |   |   Dew Point < 54.5
|   |   |   |   |   |   |   |   |   |   |   |   Time < 865 : Not Busy (1/0)
|   |   |   |   |   |   |   |   |   |   |   |   Time >= 865 : Empty (1/0)
|   |   |   |   |   |   |   |   |   |   |   Dew Point >= 54.5 : Not Busy (3/0)
|   |   |   |   |   |   |   |   Pressure >= 30.27
|   |   |   |   |   |   |   |   |   Time < 865 : Busy (1/0)
|   |   |   |   |   |   |   |   |   Time >= 865 : Moderately Busy (1/0)
|   |   |   |   |   |   |   Time >= 1365
|   |   |   |   |   |   |   |   Time < 2065 : Moderately Busy (12/0)
|   |   |   |   |   |   |   |   Time >= 2065
|   |   |   |   |   |   |   |   |   Day < 1.5 : Not Busy (3/0)
|   |   |   |   |   |   |   |   |   Day >= 1.5
|   |   |   |   |   |   |   |   |   |   Humidity < 0.85 : Moderately Busy (1/0)
|   |   |   |   |   |   |   |   |   |   Humidity >= 0.85 : Not Busy (2/0)
|   |   |   |   Quarter = Summer
|   |   |   |   |   Pressure < 30.18
|   |   |   |   |   |   Time < 1765
|   |   |   |   |   |   |   Day < 1.5
|   |   |   |   |   |   |   |   Pressure < 30.02 : Not Busy (3/0)
|   |   |   |   |   |   |   |   Pressure >= 30.02
|   |   |   |   |   |   |   |   |   Time < 765 : Empty (9/0)
|   |   |   |   |   |   |   |   |   Time >= 765
|   |   |   |   |   |   |   |   |   |   Wind Speed < 6.35
|   |   |   |   |   |   |   |   |   |   |   Time < 865 : Busy (1/0)
|   |   |   |   |   |   |   |   |   |   |   Time >= 865 : Moderately Busy (1/0)
|   |   |   |   |   |   |   |   |   |   Wind Speed >= 6.35
|   |   |   |   |   |   |   |   |   |   |   Quarter Progress < 0.14 : Not Busy (4/0)
|   |   |   |   |   |   |   |   |   |   |   Quarter Progress >= 0.14
|   |   |   |   |   |   |   |   |   |   |   |   Dew Point < 53.05 : Empty (1/0)
|   |   |   |   |   |   |   |   |   |   |   |   Dew Point >= 53.05 : Not Busy (1/0)
|   |   |   |   |   |   |   Day >= 1.5
|   |   |   |   |   |   |   |   Dew Point < 61.1
|   |   |   |   |   |   |   |   |   Time < 765 : Empty (7/0)
|   |   |   |   |   |   |   |   |   Time >= 765
|   |   |   |   |   |   |   |   |   |   Humidity < 0.41
|   |   |   |   |   |   |   |   |   |   |   Dew Point < 47.45 : Empty (1/0)
|   |   |   |   |   |   |   |   |   |   |   Dew Point >= 47.45 : Not Busy (8/0)
|   |   |   |   |   |   |   |   |   |   Humidity >= 0.41
|   |   |   |   |   |   |   |   |   |   |   Dew Point < 51.55
|   |   |   |   |   |   |   |   |   |   |   |   Humidity < 0.64
|   |   |   |   |   |   |   |   |   |   |   |   |   Conditions = Partly Cloudy : Empty (0/0)
|   |   |   |   |   |   |   |   |   |   |   |   |   Conditions = Light Snow : Empty (0/0)
|   |   |   |   |   |   |   |   |   |   |   |   |   Conditions = Overcast : Empty (0/0)
|   |   |   |   |   |   |   |   |   |   |   |   |   Conditions = Scattered Clouds : Empty (0/0)
|   |   |   |   |   |   |   |   |   |   |   |   |   Conditions = Clear
|   |   |   |   |   |   |   |   |   |   |   |   |   |   Humidity < 0.56 : Not Busy (4/0)
|   |   |   |   |   |   |   |   |   |   |   |   |   |   Humidity >= 0.56
|   |   |   |   |   |   |   |   |   |   |   |   |   |   |   Time < 1365 : Not Busy (1/0)
|   |   |   |   |   |   |   |   |   |   |   |   |   |   |   Time >= 1365 : Moderately Busy (1/0)
|   |   |   |   |   |   |   |   |   |   |   |   |   Conditions = Fog : Empty (0/0)
|   |   |   |   |   |   |   |   |   |   |   |   |   Conditions = Mostly Cloudy
|   |   |   |   |   |   |   |   |   |   |   |   |   |   Pressure < 30.12 : Not Busy (2/0)
|   |   |   |   |   |   |   |   |   |   |   |   |   |   Pressure >= 30.12 : Moderately Busy (2/0)
|   |   |   |   |   |   |   |   |   |   |   |   |   Conditions = Light Rain : Empty (0/0)
|   |   |   |   |   |   |   |   |   |   |   |   |   Conditions = Light Thunderstorms and Rain : Empty (0/0)
|   |   |   |   |   |   |   |   |   |   |   |   |   Conditions = Haze : Empty (0/0)
|   |   |   |   |   |   |   |   |   |   |   |   |   Conditions = Rain : Empty (0/0)
|   |   |   |   |   |   |   |   |   |   |   |   |   Conditions = Mist : Empty (0/0)
|   |   |   |   |   |   |   |   |   |   |   |   |   Conditions = Heavy Rain : Empty (0/0)
|   |   |   |   |   |   |   |   |   |   |   |   |   Conditions = Light Freezing Fog : Empty (0/0)
|   |   |   |   |   |   |   |   |   |   |   |   |   Conditions = Snow : Empty (0/0)
|   |   |   |   |   |   |   |   |   |   |   |   |   Conditions = Light Freezing Rain : Empty (0/0)
|   |   |   |   |   |   |   |   |   |   |   |   |   Conditions = Heavy Snow : Empty (0/0)
|   |   |   |   |   |   |   |   |   |   |   |   |   Conditions = Thunderstorm : Empty (0/0)
|   |   |   |   |   |   |   |   |   |   |   |   |   Conditions = Thunderstorms and Rain : Empty (0/0)
|   |   |   |   |   |   |   |   |   |   |   |   |   Conditions = Heavy Thunderstorms and Rain : Empty (0/0)
|   |   |   |   |   |   |   |   |   |   |   |   Humidity >= 0.64 : Not Busy (6/0)
|   |   |   |   |   |   |   |   |   |   |   Dew Point >= 51.55
|   |   |   |   |   |   |   |   |   |   |   |   Wind Speed < 6.35
|   |   |   |   |   |   |   |   |   |   |   |   |   Pressure < 29.98 : Moderately Busy (4/0)
|   |   |   |   |   |   |   |   |   |   |   |   |   Pressure >= 29.98
|   |   |   |   |   |   |   |   |   |   |   |   |   |   Year < 2015.5 : Not Busy (2/0)
|   |   |   |   |   |   |   |   |   |   |   |   |   |   Year >= 2015.5 : Moderately Busy (2/0)
|   |   |   |   |   |   |   |   |   |   |   |   Wind Speed >= 6.35
|   |   |   |   |   |   |   |   |   |   |   |   |   Temp < 64.5
|   |   |   |   |   |   |   |   |   |   |   |   |   |   Time < 965 : Moderately Busy (1/0)
|   |   |   |   |   |   |   |   |   |   |   |   |   |   Time >= 965 : Not Busy (1/0)
|   |   |   |   |   |   |   |   |   |   |   |   |   Temp >= 64.5 : Not Busy (2/0)
|   |   |   |   |   |   |   |   Dew Point >= 61.1
|   |   |   |   |   |   |   |   |   Wind Speed < 6.35
|   |   |   |   |   |   |   |   |   |   Humidity < 0.72 : Not Busy (4/0)
|   |   |   |   |   |   |   |   |   |   Humidity >= 0.72
|   |   |   |   |   |   |   |   |   |   |   Time < 1665 : Not Busy (1/0)
|   |   |   |   |   |   |   |   |   |   |   Time >= 1665 : Empty (1/0)
|   |   |   |   |   |   |   |   |   Wind Speed >= 6.35 : Not Busy (7/0)
|   |   |   |   |   |   Time >= 1765
|   |   |   |   |   |   |   Temp < 72.5
|   |   |   |   |   |   |   |   Wind Speed < 6.35 : Empty (17/0)
|   |   |   |   |   |   |   |   Wind Speed >= 6.35
|   |   |   |   |   |   |   |   |   Time < 1865
|   |   |   |   |   |   |   |   |   |   Dew Point < 51.55
|   |   |   |   |   |   |   |   |   |   |   Year < 2015.5
|   |   |   |   |   |   |   |   |   |   |   |   Pressure < 30.01 : Empty (1/0)
|   |   |   |   |   |   |   |   |   |   |   |   Pressure >= 30.01 : Not Busy (1/0)
|   |   |   |   |   |   |   |   |   |   |   Year >= 2015.5 : Not Busy (2/0)
|   |   |   |   |   |   |   |   |   |   Dew Point >= 51.55 : Empty (1/0)
|   |   |   |   |   |   |   |   |   Time >= 1865
|   |   |   |   |   |   |   |   |   |   Time < 1915 : Empty (3/0)
|   |   |   |   |   |   |   |   |   |   Time >= 1915
|   |   |   |   |   |   |   |   |   |   |   Quarter Progress < 0.1 : Empty (1/0)
|   |   |   |   |   |   |   |   |   |   |   Quarter Progress >= 0.1
|   |   |   |   |   |   |   |   |   |   |   |   Time < 1965 : Not Busy (1/0)
|   |   |   |   |   |   |   |   |   |   |   |   Time >= 1965 : Empty (1/0)
|   |   |   |   |   |   |   Temp >= 72.5 : Empty (14/0)
|   |   |   |   |   Pressure >= 30.18
|   |   |   |   |   |   Time < 1165 : Not Busy (3/0)
|   |   |   |   |   |   Time >= 1165
|   |   |   |   |   |   |   Humidity < 0.61
|   |   |   |   |   |   |   |   Time < 1365 : Moderately Busy (1/0)
|   |   |   |   |   |   |   |   Time >= 1365 : Not Busy (1/0)
|   |   |   |   |   |   |   Humidity >= 0.61 : Moderately Busy (2/0)
|   |   |   Wind Speed >= 9.8
|   |   |   |   Dew Point < 45.5
|   |   |   |   |   Conditions = Partly Cloudy : Empty (0/0)
|   |   |   |   |   Conditions = Light Snow : Empty (0/0)
|   |   |   |   |   Conditions = Overcast : Busy (4/0)
|   |   |   |   |   Conditions = Scattered Clouds : Empty (0/0)
|   |   |   |   |   Conditions = Clear
|   |   |   |   |   |   Dew Point < 29.45 : Moderately Busy (4/0)
|   |   |   |   |   |   Dew Point >= 29.45 : Busy (2/0)
|   |   |   |   |   Conditions = Fog : Empty (0/0)
|   |   |   |   |   Conditions = Mostly Cloudy : Moderately Busy (2/0)
|   |   |   |   |   Conditions = Light Rain : Busy (2/0)
|   |   |   |   |   Conditions = Light Thunderstorms and Rain : Empty (0/0)
|   |   |   |   |   Conditions = Haze : Empty (0/0)
|   |   |   |   |   Conditions = Rain : Empty (0/0)
|   |   |   |   |   Conditions = Mist : Empty (0/0)
|   |   |   |   |   Conditions = Heavy Rain : Empty (0/0)
|   |   |   |   |   Conditions = Light Freezing Fog : Empty (0/0)
|   |   |   |   |   Conditions = Snow : Empty (0/0)
|   |   |   |   |   Conditions = Light Freezing Rain : Empty (0/0)
|   |   |   |   |   Conditions = Heavy Snow : Empty (0/0)
|   |   |   |   |   Conditions = Thunderstorm : Empty (0/0)
|   |   |   |   |   Conditions = Thunderstorms and Rain : Empty (0/0)
|   |   |   |   |   Conditions = Heavy Thunderstorms and Rain : Empty (0/0)
|   |   |   |   Dew Point >= 45.5
|   |   |   |   |   Pressure < 30.02
|   |   |   |   |   |   Time < 1415
|   |   |   |   |   |   |   Humidity < 0.79
|   |   |   |   |   |   |   |   Temp < 86.55
|   |   |   |   |   |   |   |   |   Dew Point < 47 : Not Busy (2/0)
|   |   |   |   |   |   |   |   |   Dew Point >= 47
|   |   |   |   |   |   |   |   |   |   Humidity < 0.69
|   |   |   |   |   |   |   |   |   |   |   Time < 1365
|   |   |   |   |   |   |   |   |   |   |   |   Humidity < 0.45 : Moderately Busy (3/0)
|   |   |   |   |   |   |   |   |   |   |   |   Humidity >= 0.45
|   |   |   |   |   |   |   |   |   |   |   |   |   Dew Point < 70.1 : Not Busy (4/2)
|   |   |   |   |   |   |   |   |   |   |   |   |   Dew Point >= 70.1 : Moderately Busy (2/0)
|   |   |   |   |   |   |   |   |   |   |   Time >= 1365 : Not Busy (1/0)
|   |   |   |   |   |   |   |   |   |   Humidity >= 0.69 : Moderately Busy (4/0)
|   |   |   |   |   |   |   |   Temp >= 86.55 : Moderately Busy (6/0)
|   |   |   |   |   |   |   Humidity >= 0.79 : Not Busy (2/0)
|   |   |   |   |   |   Time >= 1415
|   |   |   |   |   |   |   Dew Point < 54.5
|   |   |   |   |   |   |   |   Conditions = Partly Cloudy : Empty (0/0)
|   |   |   |   |   |   |   |   Conditions = Light Snow : Empty (0/0)
|   |   |   |   |   |   |   |   Conditions = Overcast
|   |   |   |   |   |   |   |   |   Temp < 57.1
|   |   |   |   |   |   |   |   |   |   Time < 1915 : Not Busy (1/0)
|   |   |   |   |   |   |   |   |   |   Time >= 1915 : Moderately Busy (1/0)
|   |   |   |   |   |   |   |   |   Temp >= 57.1 : Moderately Busy (5/0)
|   |   |   |   |   |   |   |   Conditions = Scattered Clouds : Empty (0/0)
|   |   |   |   |   |   |   |   Conditions = Clear
|   |   |   |   |   |   |   |   |   Pressure < 29.93
|   |   |   |   |   |   |   |   |   |   Time < 1665 : Not Busy (1/0)
|   |   |   |   |   |   |   |   |   |   Time >= 1665 : Empty (1/0)
|   |   |   |   |   |   |   |   |   Pressure >= 29.93 : Not Busy (6/0)
|   |   |   |   |   |   |   |   Conditions = Fog : Empty (0/0)
|   |   |   |   |   |   |   |   Conditions = Mostly Cloudy : Empty (0/0)
|   |   |   |   |   |   |   |   Conditions = Light Rain : Empty (0/0)
|   |   |   |   |   |   |   |   Conditions = Light Thunderstorms and Rain : Moderately Busy (1/0)
|   |   |   |   |   |   |   |   Conditions = Haze : Empty (0/0)
|   |   |   |   |   |   |   |   Conditions = Rain : Empty (0/0)
|   |   |   |   |   |   |   |   Conditions = Mist : Empty (0/0)
|   |   |   |   |   |   |   |   Conditions = Heavy Rain : Empty (0/0)
|   |   |   |   |   |   |   |   Conditions = Light Freezing Fog : Empty (0/0)
|   |   |   |   |   |   |   |   Conditions = Snow : Empty (0/0)
|   |   |   |   |   |   |   |   Conditions = Light Freezing Rain : Empty (0/0)
|   |   |   |   |   |   |   |   Conditions = Heavy Snow : Empty (0/0)
|   |   |   |   |   |   |   |   Conditions = Thunderstorm : Empty (0/0)
|   |   |   |   |   |   |   |   Conditions = Thunderstorms and Rain : Empty (0/0)
|   |   |   |   |   |   |   |   Conditions = Heavy Thunderstorms and Rain : Empty (0/0)
|   |   |   |   |   |   |   Dew Point >= 54.5
|   |   |   |   |   |   |   |   Time < 2215
|   |   |   |   |   |   |   |   |   Temp < 91.45
|   |   |   |   |   |   |   |   |   |   Visibility < 3.75 : Empty (1/0)
|   |   |   |   |   |   |   |   |   |   Visibility >= 3.75 : Not Busy (12/0)
|   |   |   |   |   |   |   |   |   Temp >= 91.45
|   |   |   |   |   |   |   |   |   |   Time < 1665 : Not Busy (1/0)
|   |   |   |   |   |   |   |   |   |   Time >= 1665 : Empty (1/0)
|   |   |   |   |   |   |   |   Time >= 2215 : Empty (3/0)
|   |   |   |   |   Pressure >= 30.02
|   |   |   |   |   |   Pressure < 30.23
|   |   |   |   |   |   |   Time < 915
|   |   |   |   |   |   |   |   Year < 2015.5 : Not Busy (2/0)
|   |   |   |   |   |   |   |   Year >= 2015.5
|   |   |   |   |   |   |   |   |   Time < 815
|   |   |   |   |   |   |   |   |   |   Time < 765 : Empty (1/0)
|   |   |   |   |   |   |   |   |   |   Time >= 765 : Not Busy (1/0)
|   |   |   |   |   |   |   |   |   Time >= 815 : Moderately Busy (6/0)
|   |   |   |   |   |   |   Time >= 915
|   |   |   |   |   |   |   |   Time < 1565
|   |   |   |   |   |   |   |   |   Quarter Progress < 0.05
|   |   |   |   |   |   |   |   |   |   Humidity < 0.45
|   |   |   |   |   |   |   |   |   |   |   Humidity < 0.41 : Not Busy (12/0)
|   |   |   |   |   |   |   |   |   |   |   Humidity >= 0.41
|   |   |   |   |   |   |   |   |   |   |   |   Time < 1265 : Moderately Busy (2/0)
|   |   |   |   |   |   |   |   |   |   |   |   Time >= 1265 : Not Busy (2/0)
|   |   |   |   |   |   |   |   |   |   Humidity >= 0.45 : Not Busy (16/0)
|   |   |   |   |   |   |   |   |   Quarter Progress >= 0.05
|   |   |   |   |   |   |   |   |   |   Pressure < 30.23
|   |   |   |   |   |   |   |   |   |   |   Time < 1365 : Not Busy (16/0)
|   |   |   |   |   |   |   |   |   |   |   Time >= 1365
|   |   |   |   |   |   |   |   |   |   |   |   Dew Point < 56.45 : Not Busy (6/0)
|   |   |   |   |   |   |   |   |   |   |   |   Dew Point >= 56.45 : Empty (1/0)
|   |   |   |   |   |   |   |   |   |   Pressure >= 30.23
|   |   |   |   |   |   |   |   |   |   |   Time < 965 : Empty (1/0)
|   |   |   |   |   |   |   |   |   |   |   Time >= 965 : Not Busy (1/0)
|   |   |   |   |   |   |   |   Time >= 1565
|   |   |   |   |   |   |   |   |   Quarter = Winter : Empty (0/0)
|   |   |   |   |   |   |   |   |   Quarter = Spring : Empty (0/0)
|   |   |   |   |   |   |   |   |   Quarter = Fall
|   |   |   |   |   |   |   |   |   |   Dew Point < 54.5
|   |   |   |   |   |   |   |   |   |   |   Quarter Progress < 0.04
|   |   |   |   |   |   |   |   |   |   |   |   Temp < 80.5 : Empty (1/0)
|   |   |   |   |   |   |   |   |   |   |   |   Temp >= 80.5
|   |   |   |   |   |   |   |   |   |   |   |   |   Time < 1615 : Not Busy (1/0)
|   |   |   |   |   |   |   |   |   |   |   |   |   Time >= 1615 : Empty (2/0)
|   |   |   |   |   |   |   |   |   |   |   Quarter Progress >= 0.04 : Empty (3/0)
|   |   |   |   |   |   |   |   |   |   Dew Point >= 54.5 : Not Busy (2/0)
|   |   |   |   |   |   |   |   |   Quarter = Summer : Not Busy (3/0)
|   |   |   |   |   |   Pressure >= 30.23 : Busy (2/0)
|   Quarter Progress >= 0.17
|   |   Dew Point < 57.55
|   |   |   Quarter = Winter
|   |   |   |   Wind Speed < 7.5
|   |   |   |   |   Quarter Progress < 0.94
|   |   |   |   |   |   Humidity < 0.91
|   |   |   |   |   |   |   Time < 815
|   |   |   |   |   |   |   |   Time < 765
|   |   |   |   |   |   |   |   |   Temp < 17.55 : Empty (14/0)
|   |   |   |   |   |   |   |   |   Temp >= 17.55
|   |   |   |   |   |   |   |   |   |   Visibility < 5.5 : Not Busy (2/0)
|   |   |   |   |   |   |   |   |   |   Visibility >= 5.5
|   |   |   |   |   |   |   |   |   |   |   Dew Point < 40.45
|   |   |   |   |   |   |   |   |   |   |   |   Pressure < 30.24
|   |   |   |   |   |   |   |   |   |   |   |   |   Time < 15 : Not Busy (5/0)
|   |   |   |   |   |   |   |   |   |   |   |   |   Time >= 15
|   |   |   |   |   |   |   |   |   |   |   |   |   |   Conditions = Partly Cloudy : Empty (0/0)
|   |   |   |   |   |   |   |   |   |   |   |   |   |   Conditions = Light Snow : Empty (0/0)
|   |   |   |   |   |   |   |   |   |   |   |   |   |   Conditions = Overcast : Empty (13/0)
|   |   |   |   |   |   |   |   |   |   |   |   |   |   Conditions = Scattered Clouds : Empty (0/0)
|   |   |   |   |   |   |   |   |   |   |   |   |   |   Conditions = Clear
|   |   |   |   |   |   |   |   |   |   |   |   |   |   |   Day < 1 : Empty (10/0)
|   |   |   |   |   |   |   |   |   |   |   |   |   |   |   Day >= 1
|   |   |   |   |   |   |   |   |   |   |   |   |   |   |   |   Time < 65 : Not Busy (1/0)
|   |   |   |   |   |   |   |   |   |   |   |   |   |   |   |   Time >= 65 : Empty (1/0)
|   |   |   |   |   |   |   |   |   |   |   |   |   |   Conditions = Fog : Empty (0/0)
|   |   |   |   |   |   |   |   |   |   |   |   |   |   Conditions = Mostly Cloudy : Not Busy (1/0)
|   |   |   |   |   |   |   |   |   |   |   |   |   |   Conditions = Light Rain : Empty (0/0)
|   |   |   |   |   |   |   |   |   |   |   |   |   |   Conditions = Light Thunderstorms and Rain : Empty (0/0)
|   |   |   |   |   |   |   |   |   |   |   |   |   |   Conditions = Haze : Empty (0/0)
|   |   |   |   |   |   |   |   |   |   |   |   |   |   Conditions = Rain : Empty (0/0)
|   |   |   |   |   |   |   |   |   |   |   |   |   |   Conditions = Mist : Empty (0/0)
|   |   |   |   |   |   |   |   |   |   |   |   |   |   Conditions = Heavy Rain : Empty (0/0)
|   |   |   |   |   |   |   |   |   |   |   |   |   |   Conditions = Light Freezing Fog : Empty (0/0)
|   |   |   |   |   |   |   |   |   |   |   |   |   |   Conditions = Snow : Empty (0/0)
|   |   |   |   |   |   |   |   |   |   |   |   |   |   Conditions = Light Freezing Rain : Empty (0/0)
|   |   |   |   |   |   |   |   |   |   |   |   |   |   Conditions = Heavy Snow : Empty (0/0)
|   |   |   |   |   |   |   |   |   |   |   |   |   |   Conditions = Thunderstorm : Empty (0/0)
|   |   |   |   |   |   |   |   |   |   |   |   |   |   Conditions = Thunderstorms and Rain : Empty (0/0)
|   |   |   |   |   |   |   |   |   |   |   |   |   |   Conditions = Heavy Thunderstorms and Rain : Empty (0/0)
|   |   |   |   |   |   |   |   |   |   |   |   Pressure >= 30.24 : Empty (5/0)
|   |   |   |   |   |   |   |   |   |   |   Dew Point >= 40.45 : Empty (2/0)
|   |   |   |   |   |   |   |   Time >= 765 : Not Busy (8/0)
|   |   |   |   |   |   |   Time >= 815
|   |   |   |   |   |   |   |   Pressure < 30.32
|   |   |   |   |   |   |   |   |   Temp < 11.45
|   |   |   |   |   |   |   |   |   |   Time < 2215 : Moderately Busy (4/0)
|   |   |   |   |   |   |   |   |   |   Time >= 2215 : Not Busy (3/0)
|   |   |   |   |   |   |   |   |   Temp >= 11.45
|   |   |   |   |   |   |   |   |   |   Pressure < 30.16
|   |   |   |   |   |   |   |   |   |   |   Humidity < 0.89
|   |   |   |   |   |   |   |   |   |   |   |   Time < 2115
|   |   |   |   |   |   |   |   |   |   |   |   |   Dew Point < 30.45
|   |   |   |   |   |   |   |   |   |   |   |   |   |   Visibility < 6.5 : Busy (9/0)
|   |   |   |   |   |   |   |   |   |   |   |   |   |   Visibility >= 6.5
|   |   |   |   |   |   |   |   |   |   |   |   |   |   |   Temp < 26.55
|   |   |   |   |   |   |   |   |   |   |   |   |   |   |   |   Humidity < 0.81
|   |   |   |   |   |   |   |   |   |   |   |   |   |   |   |   |   Humidity < 0.67
|   |   |   |   |   |   |   |   |   |   |   |   |   |   |   |   |   |   Time < 1765 : Busy (1/0)
|   |   |   |   |   |   |   |   |   |   |   |   |   |   |   |   |   |   Time >= 1765 : Moderately Busy (1/0)
|   |   |   |   |   |   |   |   |   |   |   |   |   |   |   |   |   Humidity >= 0.67 : Busy (2/0)
|   |   |   |   |   |   |   |   |   |   |   |   |   |   |   |   Humidity >= 0.81 : Moderately Busy (2/0)
|   |   |   |   |   |   |   |   |   |   |   |   |   |   |   Temp >= 26.55
|   |   |   |   |   |   |   |   |   |   |   |   |   |   |   |   Conditions = Partly Cloudy : Busy (2/0)
|   |   |   |   |   |   |   |   |   |   |   |   |   |   |   |   Conditions = Light Snow : Empty (0/0)
|   |   |   |   |   |   |   |   |   |   |   |   |   |   |   |   Conditions = Overcast
|   |   |   |   |   |   |   |   |   |   |   |   |   |   |   |   |   Dew Point < 25.5
|   |   |   |   |   |   |   |   |   |   |   |   |   |   |   |   |   |   Visibility < 7.5
|   |   |   |   |   |   |   |   |   |   |   |   |   |   |   |   |   |   |   Time < 1565 : Busy (1/0)
|   |   |   |   |   |   |   |   |   |   |   |   |   |   |   |   |   |   |   Time >= 1565 : Moderately Busy (1/0)
|   |   |   |   |   |   |   |   |   |   |   |   |   |   |   |   |   |   Visibility >= 7.5
|   |   |   |   |   |   |   |   |   |   |   |   |   |   |   |   |   |   |   Time < 1015
|   |   |   |   |   |   |   |   |   |   |   |   |   |   |   |   |   |   |   |   Time < 965 : Busy (1/0)
|   |   |   |   |   |   |   |   |   |   |   |   |   |   |   |   |   |   |   |   Time >= 965 : Moderately Busy (1/0)
|   |   |   |   |   |   |   |   |   |   |   |   |   |   |   |   |   |   |   Time >= 1015 : Busy (10/0)
|   |   |   |   |   |   |   |   |   |   |   |   |   |   |   |   |   Dew Point >= 25.5 : Moderately Busy (2/0)
|   |   |   |   |   |   |   |   |   |   |   |   |   |   |   |   Conditions = Scattered Clouds : Empty (0/0)
|   |   |   |   |   |   |   |   |   |   |   |   |   |   |   |   Conditions = Clear
|   |   |   |   |   |   |   |   |   |   |   |   |   |   |   |   |   Time < 2065
|   |   |   |   |   |   |   |   |   |   |   |   |   |   |   |   |   |   Humidity < 0.39
|   |   |   |   |   |   |   |   |   |   |   |   |   |   |   |   |   |   |   Wind Speed < 4.65 : Busy (2/0)
|   |   |   |   |   |   |   |   |   |   |   |   |   |   |   |   |   |   |   Wind Speed >= 4.65
|   |   |   |   |   |   |   |   |   |   |   |   |   |   |   |   |   |   |   |   Time < 1565 : Busy (1/0)
|   |   |   |   |   |   |   |   |   |   |   |   |   |   |   |   |   |   |   |   Time >= 1565 : Moderately Busy (1/0)
|   |   |   |   |   |   |   |   |   |   |   |   |   |   |   |   |   |   Humidity >= 0.39
|   |   |   |   |   |   |   |   |   |   |   |   |   |   |   |   |   |   |   Visibility < 9.5
|   |   |   |   |   |   |   |   |   |   |   |   |   |   |   |   |   |   |   |   Humidity < 0.79
|   |   |   |   |   |   |   |   |   |   |   |   |   |   |   |   |   |   |   |   |   Time < 1765 : Moderately Busy (1/0)
|   |   |   |   |   |   |   |   |   |   |   |   |   |   |   |   |   |   |   |   |   Time >= 1765 : Busy (1/0)
|   |   |   |   |   |   |   |   |   |   |   |   |   |   |   |   |   |   |   |   Humidity >= 0.79 : Busy (4/0)
|   |   |   |   |   |   |   |   |   |   |   |   |   |   |   |   |   |   |   Visibility >= 9.5 : Busy (13/0)
|   |   |   |   |   |   |   |   |   |   |   |   |   |   |   |   |   Time >= 2065 : Moderately Busy (1/0)
|   |   |   |   |   |   |   |   |   |   |   |   |   |   |   |   Conditions = Fog : Empty (0/0)
|   |   |   |   |   |   |   |   |   |   |   |   |   |   |   |   Conditions = Mostly Cloudy : Busy (4/0)
|   |   |   |   |   |   |   |   |   |   |   |   |   |   |   |   Conditions = Light Rain : Empty (0/0)
|   |   |   |   |   |   |   |   |   |   |   |   |   |   |   |   Conditions = Light Thunderstorms and Rain : Empty (0/0)
|   |   |   |   |   |   |   |   |   |   |   |   |   |   |   |   Conditions = Haze : Empty (0/0)
|   |   |   |   |   |   |   |   |   |   |   |   |   |   |   |   Conditions = Rain : Empty (0/0)
|   |   |   |   |   |   |   |   |   |   |   |   |   |   |   |   Conditions = Mist : Empty (0/0)
|   |   |   |   |   |   |   |   |   |   |   |   |   |   |   |   Conditions = Heavy Rain : Empty (0/0)
|   |   |   |   |   |   |   |   |   |   |   |   |   |   |   |   Conditions = Light Freezing Fog : Empty (0/0)
|   |   |   |   |   |   |   |   |   |   |   |   |   |   |   |   Conditions = Snow : Empty (0/0)
|   |   |   |   |   |   |   |   |   |   |   |   |   |   |   |   Conditions = Light Freezing Rain : Empty (0/0)
|   |   |   |   |   |   |   |   |   |   |   |   |   |   |   |   Conditions = Heavy Snow : Empty (0/0)
|   |   |   |   |   |   |   |   |   |   |   |   |   |   |   |   Conditions = Thunderstorm : Empty (0/0)
|   |   |   |   |   |   |   |   |   |   |   |   |   |   |   |   Conditions = Thunderstorms and Rain : Empty (0/0)
|   |   |   |   |   |   |   |   |   |   |   |   |   |   |   |   Conditions = Heavy Thunderstorms and Rain : Empty (0/0)
|   |   |   |   |   |   |   |   |   |   |   |   |   Dew Point >= 30.45
|   |   |   |   |   |   |   |   |   |   |   |   |   |   Humidity < 0.69
|   |   |   |   |   |   |   |   |   |   |   |   |   |   |   Day < 1 : Busy (4/0)
|   |   |   |   |   |   |   |   |   |   |   |   |   |   |   Day >= 1
|   |   |   |   |   |   |   |   |   |   |   |   |   |   |   |   Dew Point < 50
|   |   |   |   |   |   |   |   |   |   |   |   |   |   |   |   |   Time < 1765 : Moderately Busy (1/0)
|   |   |   |   |   |   |   |   |   |   |   |   |   |   |   |   |   Time >= 1765 : Busy (1/0)
|   |   |   |   |   |   |   |   |   |   |   |   |   |   |   |   Dew Point >= 50 : Busy (2/0)
|   |   |   |   |   |   |   |   |   |   |   |   |   |   Humidity >= 0.69 : Busy (36/0)
|   |   |   |   |   |   |   |   |   |   |   |   Time >= 2115
|   |   |   |   |   |   |   |   |   |   |   |   |   Time < 2265
|   |   |   |   |   |   |   |   |   |   |   |   |   |   Wind Speed < 6.35 : Moderately Busy (9/0)
|   |   |   |   |   |   |   |   |   |   |   |   |   |   Wind Speed >= 6.35
|   |   |   |   |   |   |   |   |   |   |   |   |   |   |   Quarter Progress < 0.57 : Not Busy (1/0)
|   |   |   |   |   |   |   |   |   |   |   |   |   |   |   Quarter Progress >= 0.57 : Moderately Busy (1/0)
|   |   |   |   |   |   |   |   |   |   |   |   |   Time >= 2265
|   |   |   |   |   |   |   |   |   |   |   |   |   |   Pressure < 29.86 : Empty (1/0)
|   |   |   |   |   |   |   |   |   |   |   |   |   |   Pressure >= 29.86 : Not Busy (6/0)
|   |   |   |   |   |   |   |   |   |   |   Humidity >= 0.89
|   |   |   |   |   |   |   |   |   |   |   |   Quarter Progress < 0.75
|   |   |   |   |   |   |   |   |   |   |   |   |   Conditions = Partly Cloudy : Empty (0/0)
|   |   |   |   |   |   |   |   |   |   |   |   |   Conditions = Light Snow
|   |   |   |   |   |   |   |   |   |   |   |   |   |   Visibility < 2.75 : Busy (2/0)
|   |   |   |   |   |   |   |   |   |   |   |   |   |   Visibility >= 2.75 : Moderately Busy (1/0)
|   |   |   |   |   |   |   |   |   |   |   |   |   Conditions = Overcast : Moderately Busy (2/0)
|   |   |   |   |   |   |   |   |   |   |   |   |   Conditions = Scattered Clouds : Empty (0/0)
|   |   |   |   |   |   |   |   |   |   |   |   |   Conditions = Clear : Busy (2/0)
|   |   |   |   |   |   |   |   |   |   |   |   |   Conditions = Fog : Empty (0/0)
|   |   |   |   |   |   |   |   |   |   |   |   |   Conditions = Mostly Cloudy : Empty (0/0)
|   |   |   |   |   |   |   |   |   |   |   |   |   Conditions = Light Rain : Empty (0/0)
|   |   |   |   |   |   |   |   |   |   |   |   |   Conditions = Light Thunderstorms and Rain : Empty (0/0)
|   |   |   |   |   |   |   |   |   |   |   |   |   Conditions = Haze : Empty (0/0)
|   |   |   |   |   |   |   |   |   |   |   |   |   Conditions = Rain : Empty (0/0)
|   |   |   |   |   |   |   |   |   |   |   |   |   Conditions = Mist : Empty (0/0)
|   |   |   |   |   |   |   |   |   |   |   |   |   Conditions = Heavy Rain : Empty (0/0)
|   |   |   |   |   |   |   |   |   |   |   |   |   Conditions = Light Freezing Fog : Empty (0/0)
|   |   |   |   |   |   |   |   |   |   |   |   |   Conditions = Snow : Empty (0/0)
|   |   |   |   |   |   |   |   |   |   |   |   |   Conditions = Light Freezing Rain : Empty (0/0)
|   |   |   |   |   |   |   |   |   |   |   |   |   Conditions = Heavy Snow : Empty (0/0)
|   |   |   |   |   |   |   |   |   |   |   |   |   Conditions = Thunderstorm : Empty (0/0)
|   |   |   |   |   |   |   |   |   |   |   |   |   Conditions = Thunderstorms and Rain : Empty (0/0)
|   |   |   |   |   |   |   |   |   |   |   |   |   Conditions = Heavy Thunderstorms and Rain : Empty (0/0)
|   |   |   |   |   |   |   |   |   |   |   |   Quarter Progress >= 0.75 : Moderately Busy (6/0)
|   |   |   |   |   |   |   |   |   |   Pressure >= 30.16
|   |   |   |   |   |   |   |   |   |   |   Conditions = Partly Cloudy : Busy (8/0)
|   |   |   |   |   |   |   |   |   |   |   Conditions = Light Snow : Empty (0/0)
|   |   |   |   |   |   |   |   |   |   |   Conditions = Overcast
|   |   |   |   |   |   |   |   |   |   |   |   Wind Speed < 1.75
|   |   |   |   |   |   |   |   |   |   |   |   |   Day < 1 : Busy (2/0)
|   |   |   |   |   |   |   |   |   |   |   |   |   Day >= 1
|   |   |   |   |   |   |   |   |   |   |   |   |   |   Humidity < 0.67
|   |   |   |   |   |   |   |   |   |   |   |   |   |   |   Time < 1565 : Busy (1/0)
|   |   |   |   |   |   |   |   |   |   |   |   |   |   |   Time >= 1565 : Moderately Busy (1/0)
|   |   |   |   |   |   |   |   |   |   |   |   |   |   Humidity >= 0.67 : Busy (4/0)
|   |   |   |   |   |   |   |   |   |   |   |   Wind Speed >= 1.75 : Busy (18/0)
|   |   |   |   |   |   |   |   |   |   |   Conditions = Scattered Clouds : Busy (4/0)
|   |   |   |   |   |   |   |   |   |   |   Conditions = Clear
|   |   |   |   |   |   |   |   |   |   |   |   Pressure < 30.27
|   |   |   |   |   |   |   |   |   |   |   |   |   Wind Speed < 6.35
|   |   |   |   |   |   |   |   |   |   |   |   |   |   Day < 1.5
|   |   |   |   |   |   |   |   |   |   |   |   |   |   |   Time < 965 : Busy (1/0)
|   |   |   |   |   |   |   |   |   |   |   |   |   |   |   Time >= 965 : Moderately Busy (1/0)
|   |   |   |   |   |   |   |   |   |   |   |   |   |   Day >= 1.5
|   |   |   |   |   |   |   |   |   |   |   |   |   |   |   Time < 1665 : Busy (3/0)
|   |   |   |   |   |   |   |   |   |   |   |   |   |   |   Time >= 1665 : Moderately Busy (1/0)
|   |   |   |   |   |   |   |   |   |   |   |   |   Wind Speed >= 6.35 : Busy (4/0)
|   |   |   |   |   |   |   |   |   |   |   |   Pressure >= 30.27 : Busy (12/0)
|   |   |   |   |   |   |   |   |   |   |   Conditions = Fog : Empty (0/0)
|   |   |   |   |   |   |   |   |   |   |   Conditions = Mostly Cloudy : Moderately Busy (2/0)
|   |   |   |   |   |   |   |   |   |   |   Conditions = Light Rain : Empty (0/0)
|   |   |   |   |   |   |   |   |   |   |   Conditions = Light Thunderstorms and Rain : Empty (0/0)
|   |   |   |   |   |   |   |   |   |   |   Conditions = Haze : Busy (2/0)
|   |   |   |   |   |   |   |   |   |   |   Conditions = Rain : Empty (0/0)
|   |   |   |   |   |   |   |   |   |   |   Conditions = Mist : Empty (0/0)
|   |   |   |   |   |   |   |   |   |   |   Conditions = Heavy Rain : Empty (0/0)
|   |   |   |   |   |   |   |   |   |   |   Conditions = Light Freezing Fog : Empty (0/0)
|   |   |   |   |   |   |   |   |   |   |   Conditions = Snow : Empty (0/0)
|   |   |   |   |   |   |   |   |   |   |   Conditions = Light Freezing Rain : Empty (0/0)
|   |   |   |   |   |   |   |   |   |   |   Conditions = Heavy Snow : Empty (0/0)
|   |   |   |   |   |   |   |   |   |   |   Conditions = Thunderstorm : Empty (0/0)
|   |   |   |   |   |   |   |   |   |   |   Conditions = Thunderstorms and Rain : Empty (0/0)
|   |   |   |   |   |   |   |   |   |   |   Conditions = Heavy Thunderstorms and Rain : Empty (0/0)
|   |   |   |   |   |   |   |   Pressure >= 30.32
|   |   |   |   |   |   |   |   |   Time < 2215
|   |   |   |   |   |   |   |   |   |   Pressure < 30.46
|   |   |   |   |   |   |   |   |   |   |   Humidity < 0.74
|   |   |   |   |   |   |   |   |   |   |   |   Pressure < 30.35 : Moderately Busy (4/0)
|   |   |   |   |   |   |   |   |   |   |   |   Pressure >= 30.35
|   |   |   |   |   |   |   |   |   |   |   |   |   Conditions = Partly Cloudy : Empty (0/0)
|   |   |   |   |   |   |   |   |   |   |   |   |   Conditions = Light Snow : Empty (0/0)
|   |   |   |   |   |   |   |   |   |   |   |   |   Conditions = Overcast : Moderately Busy (2/0)
|   |   |   |   |   |   |   |   |   |   |   |   |   Conditions = Scattered Clouds : Empty (0/0)
|   |   |   |   |   |   |   |   |   |   |   |   |   Conditions = Clear
|   |   |   |   |   |   |   |   |   |   |   |   |   |   Time < 1765 : Busy (1/0)
|   |   |   |   |   |   |   |   |   |   |   |   |   |   Time >= 1765
|   |   |   |   |   |   |   |   |   |   |   |   |   |   |   Time < 1865 : Moderately Busy (2/0)
|   |   |   |   |   |   |   |   |   |   |   |   |   |   |   Time >= 1865
|   |   |   |   |   |   |   |   |   |   |   |   |   |   |   |   Time < 1965 : Busy (2/0)
|   |   |   |   |   |   |   |   |   |   |   |   |   |   |   |   Time >= 1965 : Moderately Busy (1/0)
|   |   |   |   |   |   |   |   |   |   |   |   |   Conditions = Fog : Empty (0/0)
|   |   |   |   |   |   |   |   |   |   |   |   |   Conditions = Mostly Cloudy
|   |   |   |   |   |   |   |   |   |   |   |   |   |   Time < 2065 : Busy (1/0)
|   |   |   |   |   |   |   |   |   |   |   |   |   |   Time >= 2065 : Moderately Busy (1/0)
|   |   |   |   |   |   |   |   |   |   |   |   |   Conditions = Light Rain : Empty (0/0)
|   |   |   |   |   |   |   |   |   |   |   |   |   Conditions = Light Thunderstorms and Rain : Empty (0/0)
|   |   |   |   |   |   |   |   |   |   |   |   |   Conditions = Haze : Empty (0/0)
|   |   |   |   |   |   |   |   |   |   |   |   |   Conditions = Rain : Empty (0/0)
|   |   |   |   |   |   |   |   |   |   |   |   |   Conditions = Mist : Empty (0/0)
|   |   |   |   |   |   |   |   |   |   |   |   |   Conditions = Heavy Rain : Empty (0/0)
|   |   |   |   |   |   |   |   |   |   |   |   |   Conditions = Light Freezing Fog : Empty (0/0)
|   |   |   |   |   |   |   |   |   |   |   |   |   Conditions = Snow : Empty (0/0)
|   |   |   |   |   |   |   |   |   |   |   |   |   Conditions = Light Freezing Rain : Empty (0/0)
|   |   |   |   |   |   |   |   |   |   |   |   |   Conditions = Heavy Snow : Empty (0/0)
|   |   |   |   |   |   |   |   |   |   |   |   |   Conditions = Thunderstorm : Empty (0/0)
|   |   |   |   |   |   |   |   |   |   |   |   |   Conditions = Thunderstorms and Rain : Empty (0/0)
|   |   |   |   |   |   |   |   |   |   |   |   |   Conditions = Heavy Thunderstorms and Rain : Empty (0/0)
|   |   |   |   |   |   |   |   |   |   |   Humidity >= 0.74 : Moderately Busy (4/0)
|   |   |   |   |   |   |   |   |   |   Pressure >= 30.46
|   |   |   |   |   |   |   |   |   |   |   Wind Speed < 5.2
|   |   |   |   |   |   |   |   |   |   |   |   Wind Speed < 4.05
|   |   |   |   |   |   |   |   |   |   |   |   |   Time < 965 : Busy (3/0)
|   |   |   |   |   |   |   |   |   |   |   |   |   Time >= 965
|   |   |   |   |   |   |   |   |   |   |   |   |   |   Dew Point < -2.55 : Moderately Busy (1/0)
|   |   |   |   |   |   |   |   |   |   |   |   |   |   Dew Point >= -2.55
|   |   |   |   |   |   |   |   |   |   |   |   |   |   |   Time < 1565 : Busy (1/0)
|   |   |   |   |   |   |   |   |   |   |   |   |   |   |   Time >= 1565 : Moderately Busy (1/0)
|   |   |   |   |   |   |   |   |   |   |   |   Wind Speed >= 4.05
|   |   |   |   |   |   |   |   |   |   |   |   |   Pressure < 30.5
|   |   |   |   |   |   |   |   |   |   |   |   |   |   Time < 1665 : Busy (1/0)
|   |   |   |   |   |   |   |   |   |   |   |   |   |   Time >= 1665
|   |   |   |   |   |   |   |   |   |   |   |   |   |   |   Humidity < 0.49
|   |   |   |   |   |   |   |   |   |   |   |   |   |   |   |   Time < 1765 : Moderately Busy (1/0)
|   |   |   |   |   |   |   |   |   |   |   |   |   |   |   |   Time >= 1765 : Busy (1/0)
|   |   |   |   |   |   |   |   |   |   |   |   |   |   |   Humidity >= 0.49 : Moderately Busy (1/0)
|   |   |   |   |   |   |   |   |   |   |   |   |   Pressure >= 30.5 : Busy (4/0)
|   |   |   |   |   |   |   |   |   |   |   Wind Speed >= 5.2 : Busy (8/0)
|   |   |   |   |   |   |   |   |   Time >= 2215 : Not Busy (9/0)
|   |   |   |   |   |   Humidity >= 0.91
|   |   |   |   |   |   |   Time < 765
|   |   |   |   |   |   |   |   Time < 15
|   |   |   |   |   |   |   |   |   Dew Point < 40.05
|   |   |   |   |   |   |   |   |   |   Conditions = Partly Cloudy : Empty (2/0)
|   |   |   |   |   |   |   |   |   |   Conditions = Light Snow : Empty (0/0)
|   |   |   |   |   |   |   |   |   |   Conditions = Overcast : Not Busy (1/0)
|   |   |   |   |   |   |   |   |   |   Conditions = Scattered Clouds : Empty (0/0)
|   |   |   |   |   |   |   |   |   |   Conditions = Clear
|   |   |   |   |   |   |   |   |   |   |   Day < 0.5 : Not Busy (1/0)
|   |   |   |   |   |   |   |   |   |   |   Day >= 0.5 : Empty (1/0)
|   |   |   |   |   |   |   |   |   |   Conditions = Fog : Empty (1/0)
|   |   |   |   |   |   |   |   |   |   Conditions = Mostly Cloudy : Empty (0/0)
|   |   |   |   |   |   |   |   |   |   Conditions = Light Rain : Empty (0/0)
|   |   |   |   |   |   |   |   |   |   Conditions = Light Thunderstorms and Rain : Empty (0/0)
|   |   |   |   |   |   |   |   |   |   Conditions = Haze : Empty (0/0)
|   |   |   |   |   |   |   |   |   |   Conditions = Rain : Empty (0/0)
|   |   |   |   |   |   |   |   |   |   Conditions = Mist : Empty (0/0)
|   |   |   |   |   |   |   |   |   |   Conditions = Heavy Rain : Empty (0/0)
|   |   |   |   |   |   |   |   |   |   Conditions = Light Freezing Fog : Empty (0/0)
|   |   |   |   |   |   |   |   |   |   Conditions = Snow : Empty (0/0)
|   |   |   |   |   |   |   |   |   |   Conditions = Light Freezing Rain : Empty (0/0)
|   |   |   |   |   |   |   |   |   |   Conditions = Heavy Snow : Empty (0/0)
|   |   |   |   |   |   |   |   |   |   Conditions = Thunderstorm : Empty (0/0)
|   |   |   |   |   |   |   |   |   |   Conditions = Thunderstorms and Rain : Empty (0/0)
|   |   |   |   |   |   |   |   |   |   Conditions = Heavy Thunderstorms and Rain : Empty (0/0)
|   |   |   |   |   |   |   |   |   Dew Point >= 40.05 : Not Busy (2/0)
|   |   |   |   |   |   |   |   Time >= 15
|   |   |   |   |   |   |   |   |   Temp < 40.05 : Empty (33/0)
|   |   |   |   |   |   |   |   |   Temp >= 40.05
|   |   |   |   |   |   |   |   |   |   Humidity < 0.95 : Not Busy (1/0)
|   |   |   |   |   |   |   |   |   |   Humidity >= 0.95
|   |   |   |   |   |   |   |   |   |   |   Time < 65 : Not Busy (1/0)
|   |   |   |   |   |   |   |   |   |   |   Time >= 65 : Empty (11/0)
|   |   |   |   |   |   |   Time >= 765
|   |   |   |   |   |   |   |   Time < 2115
|   |   |   |   |   |   |   |   |   Pressure < 29.9
|   |   |   |   |   |   |   |   |   |   Quarter Progress < 0.48 : Busy (6/0)
|   |   |   |   |   |   |   |   |   |   Quarter Progress >= 0.48
|   |   |   |   |   |   |   |   |   |   |   Visibility < 0.85 : Moderately Busy (1/0)
|   |   |   |   |   |   |   |   |   |   |   Visibility >= 0.85
|   |   |   |   |   |   |   |   |   |   |   |   Quarter Progress < 0.75 : Busy (3/0)
|   |   |   |   |   |   |   |   |   |   |   |   Quarter Progress >= 0.75
|   |   |   |   |   |   |   |   |   |   |   |   |   Pressure < 29.71 : Moderately Busy (1/0)
|   |   |   |   |   |   |   |   |   |   |   |   |   Pressure >= 29.71
|   |   |   |   |   |   |   |   |   |   |   |   |   |   Time < 865 : Moderately Busy (1/0)
|   |   |   |   |   |   |   |   |   |   |   |   |   |   Time >= 865 : Busy (1/0)
|   |   |   |   |   |   |   |   |   Pressure >= 29.9 : Not Busy (2/0)
|   |   |   |   |   |   |   |   Time >= 2115
|   |   |   |   |   |   |   |   |   Quarter Progress < 0.48
|   |   |   |   |   |   |   |   |   |   Pressure < 30.14
|   |   |   |   |   |   |   |   |   |   |   Visibility < 0.9 : Not Busy (2/0)
|   |   |   |   |   |   |   |   |   |   |   Visibility >= 0.9 : Moderately Busy (7/0)
|   |   |   |   |   |   |   |   |   |   Pressure >= 30.14 : Not Busy (1/0)
|   |   |   |   |   |   |   |   |   Quarter Progress >= 0.48 : Not Busy (6/0)
|   |   |   |   |   Quarter Progress >= 0.94
|   |   |   |   |   |   Dew Point < 43.55
|   |   |   |   |   |   |   Visibility < 7.5 : Not Busy (3/0)
|   |   |   |   |   |   |   Visibility >= 7.5 : Empty (8/0)
|   |   |   |   |   |   Dew Point >= 43.55
|   |   |   |   |   |   |   Dew Point < 44.55 : Empty (2/0)
|   |   |   |   |   |   |   Dew Point >= 44.55
|   |   |   |   |   |   |   |   Time < 765 : Empty (3/0)
|   |   |   |   |   |   |   |   Time >= 765 : Moderately Busy (1/0)
|   |   |   |   Wind Speed >= 7.5
|   |   |   |   |   Conditions = Partly Cloudy
|   |   |   |   |   |   Temp < 49
|   |   |   |   |   |   |   Time < 950 : Empty (3/0)
|   |   |   |   |   |   |   Time >= 950 : Busy (7/0)
|   |   |   |   |   |   Temp >= 49
|   |   |   |   |   |   |   Dew Point < 29.45
|   |   |   |   |   |   |   |   Time < 1665 : Moderately Busy (1/0)
|   |   |   |   |   |   |   |   Time >= 1665 : Busy (1/0)
|   |   |   |   |   |   |   Dew Point >= 29.45 : Busy (18/0)
|   |   |   |   |   Conditions = Light Snow
|   |   |   |   |   |   Visibility < 1.9
|   |   |   |   |   |   |   Humidity < 0.85 : Busy (10/0)
|   |   |   |   |   |   |   Humidity >= 0.85
|   |   |   |   |   |   |   |   Wind Speed < 13.8 : Moderately Busy (2/0)
|   |   |   |   |   |   |   |   Wind Speed >= 13.8
|   |   |   |   |   |   |   |   |   Pressure < 29.64
|   |   |   |   |   |   |   |   |   |   Humidity < 0.91 : Busy (1/0)
|   |   |   |   |   |   |   |   |   |   Humidity >= 0.91
|   |   |   |   |   |   |   |   |   |   |   Time < 1565 : Busy (1/0)
|   |   |   |   |   |   |   |   |   |   |   Time >= 1565 : Moderately Busy (2/0)
|   |   |   |   |   |   |   |   |   Pressure >= 29.64 : Busy (4/0)
|   |   |   |   |   |   Visibility >= 1.9
|   |   |   |   |   |   |   Time < 815
|   |   |   |   |   |   |   |   Visibility < 2.25 : Not Busy (3/0)
|   |   |   |   |   |   |   |   Visibility >= 2.25
|   |   |   |   |   |   |   |   |   Time < 15 : Not Busy (1/0)
|   |   |   |   |   |   |   |   |   Time >= 15 : Empty (9/0)
|   |   |   |   |   |   |   Time >= 815
|   |   |   |   |   |   |   |   Temp < 23.55
|   |   |   |   |   |   |   |   |   Time < 2050 : Busy (5/0)
|   |   |   |   |   |   |   |   |   Time >= 2050
|   |   |   |   |   |   |   |   |   |   Pressure < 29.77
|   |   |   |   |   |   |   |   |   |   |   Temp < 22
|   |   |   |   |   |   |   |   |   |   |   |   Time < 2265 : Moderately Busy (1/0)
|   |   |   |   |   |   |   |   |   |   |   |   Time >= 2265 : Not Busy (1/0)
|   |   |   |   |   |   |   |   |   |   |   Temp >= 22 : Moderately Busy (1/0)
|   |   |   |   |   |   |   |   |   |   Pressure >= 29.77 : Not Busy (1/0)
|   |   |   |   |   |   |   |   Temp >= 23.55 : Busy (14/0)
|   |   |   |   |   Conditions = Overcast
|   |   |   |   |   |   Time < 815
|   |   |   |   |   |   |   Pressure < 29.67
|   |   |   |   |   |   |   |   Wind Speed < 17.85
|   |   |   |   |   |   |   |   |   Time < 115 : Not Busy (5/0)
|   |   |   |   |   |   |   |   |   Time >= 115
|   |   |   |   |   |   |   |   |   |   Quarter Progress < 0.71
|   |   |   |   |   |   |   |   |   |   |   Time < 765 : Empty (3/0)
|   |   |   |   |   |   |   |   |   |   |   Time >= 765 : Not Busy (2/0)
|   |   |   |   |   |   |   |   |   |   Quarter Progress >= 0.71 : Empty (2/0)
|   |   |   |   |   |   |   |   Wind Speed >= 17.85 : Empty (4/0)
|   |   |   |   |   |   |   Pressure >= 29.67
|   |   |   |   |   |   |   |   Quarter Progress < 0.86
|   |   |   |   |   |   |   |   |   Dew Point < 48.45
|   |   |   |   |   |   |   |   |   |   Humidity < 0.89
|   |   |   |   |   |   |   |   |   |   |   Time < 15 : Not Busy (3/0)
|   |   |   |   |   |   |   |   |   |   |   Time >= 15
|   |   |   |   |   |   |   |   |   |   |   |   Quarter Progress < 0.81
|   |   |   |   |   |   |   |   |   |   |   |   |   Day < 0.5 : Empty (3/0)
|   |   |   |   |   |   |   |   |   |   |   |   |   Day >= 0.5
|   |   |   |   |   |   |   |   |   |   |   |   |   |   Time < 765 : Empty (8/0)
|   |   |   |   |   |   |   |   |   |   |   |   |   |   Time >= 765 : Not Busy (3/0)
|   |   |   |   |   |   |   |   |   |   |   |   Quarter Progress >= 0.81 : Empty (2/0)
|   |   |   |   |   |   |   |   |   |   Humidity >= 0.89 : Empty (7/0)
|   |   |   |   |   |   |   |   |   Dew Point >= 48.45 : Empty (3/0)
|   |   |   |   |   |   |   |   Quarter Progress >= 0.86
|   |   |   |   |   |   |   |   |   Pressure < 29.87
|   |   |   |   |   |   |   |   |   |   Dew Point < 56.2 : Empty (5/0)
|   |   |   |   |   |   |   |   |   |   Dew Point >= 56.2
|   |   |   |   |   |   |   |   |   |   |   Time < 15 : Not Busy (1/0)
|   |   |   |   |   |   |   |   |   |   |   Time >= 15 : Empty (2/0)
|   |   |   |   |   |   |   |   |   Pressure >= 29.87
|   |   |   |   |   |   |   |   |   |   Time < 765 : Empty (1/0)
|   |   |   |   |   |   |   |   |   |   Time >= 765 : Moderately Busy (1/0)
|   |   |   |   |   |   Time >= 815
|   |   |   |   |   |   |   Visibility < 2.75
|   |   |   |   |   |   |   |   Time < 2215
|   |   |   |   |   |   |   |   |   Temp < 38.9
|   |   |   |   |   |   |   |   |   |   Dew Point < 35.55
|   |   |   |   |   |   |   |   |   |   |   Visibility < 2.25 : Busy (2/0)
|   |   |   |   |   |   |   |   |   |   |   Visibility >= 2.25 : Moderately Busy (1/0)
|   |   |   |   |   |   |   |   |   |   Dew Point >= 35.55 : Busy (3/0)
|   |   |   |   |   |   |   |   |   Temp >= 38.9
|   |   |   |   |   |   |   |   |   |   Day < 0.5 : Moderately Busy (2/0)
|   |   |   |   |   |   |   |   |   |   Day >= 0.5 : Busy (1/0)
|   |   |   |   |   |   |   |   Time >= 2215 : Not Busy (3/0)
|   |   |   |   |   |   |   Visibility >= 2.75
|   |   |   |   |   |   |   |   Quarter Progress < 0.47
|   |   |   |   |   |   |   |   |   Humidity < 0.84
|   |   |   |   |   |   |   |   |   |   Humidity < 0.82
|   |   |   |   |   |   |   |   |   |   |   Time < 2115
|   |   |   |   |   |   |   |   |   |   |   |   Time < 965 : Busy (11/0)
|   |   |   |   |   |   |   |   |   |   |   |   Time >= 965
|   |   |   |   |   |   |   |   |   |   |   |   |   Visibility < 8.5 : Moderately Busy (1/0)
|   |   |   |   |   |   |   |   |   |   |   |   |   Visibility >= 8.5
|   |   |   |   |   |   |   |   |   |   |   |   |   |   Dew Point < 24.55
|   |   |   |   |   |   |   |   |   |   |   |   |   |   |   Temp < 27.5
|   |   |   |   |   |   |   |   |   |   |   |   |   |   |   |   Time < 1615 : Moderately Busy (2/0)
|   |   |   |   |   |   |   |   |   |   |   |   |   |   |   |   Time >= 1615 : Busy (8/0)
|   |   |   |   |   |   |   |   |   |   |   |   |   |   |   Temp >= 27.5
|   |   |   |   |   |   |   |   |   |   |   |   |   |   |   |   Dew Point < 19.45
|   |   |   |   |   |   |   |   |   |   |   |   |   |   |   |   |   Pressure < 30.15
|   |   |   |   |   |   |   |   |   |   |   |   |   |   |   |   |   |   Time < 1665 : Busy (1/0)
|   |   |   |   |   |   |   |   |   |   |   |   |   |   |   |   |   |   Time >= 1665 : Moderately Busy (1/0)
|   |   |   |   |   |   |   |   |   |   |   |   |   |   |   |   |   Pressure >= 30.15 : Busy (4/0)
|   |   |   |   |   |   |   |   |   |   |   |   |   |   |   |   Dew Point >= 19.45 : Busy (32/0)
|   |   |   |   |   |   |   |   |   |   |   |   |   |   Dew Point >= 24.55
|   |   |   |   |   |   |   |   |   |   |   |   |   |   |   Temp < 32.55
|   |   |   |   |   |   |   |   |   |   |   |   |   |   |   |   Wind Speed < 14.4
|   |   |   |   |   |   |   |   |   |   |   |   |   |   |   |   |   Quarter Progress < 0.35
|   |   |   |   |   |   |   |   |   |   |   |   |   |   |   |   |   |   Time < 1065 : Busy (1/0)
|   |   |   |   |   |   |   |   |   |   |   |   |   |   |   |   |   |   Time >= 1065 : Moderately Busy (1/0)
|   |   |   |   |   |   |   |   |   |   |   |   |   |   |   |   |   Quarter Progress >= 0.35 : Busy (2/0)
|   |   |   |   |   |   |   |   |   |   |   |   |   |   |   |   Wind Speed >= 14.4 : Moderately Busy (3/0)
|   |   |   |   |   |   |   |   |   |   |   |   |   |   |   Temp >= 32.55
|   |   |   |   |   |   |   |   |   |   |   |   |   |   |   |   Time < 1565 : Busy (10/0)
|   |   |   |   |   |   |   |   |   |   |   |   |   |   |   |   Time >= 1565
|   |   |   |   |   |   |   |   |   |   |   |   |   |   |   |   |   Time < 1615
|   |   |   |   |   |   |   |   |   |   |   |   |   |   |   |   |   |   Day < 1 : Busy (1/0)
|   |   |   |   |   |   |   |   |   |   |   |   |   |   |   |   |   |   Day >= 1 : Moderately Busy (1/0)
|   |   |   |   |   |   |   |   |   |   |   |   |   |   |   |   |   Time >= 1615 : Busy (4/0)
|   |   |   |   |   |   |   |   |   |   |   Time >= 2115
|   |   |   |   |   |   |   |   |   |   |   |   Humidity < 0.77 : Moderately Busy (4/0)
|   |   |   |   |   |   |   |   |   |   |   |   Humidity >= 0.77 : Not Busy (1/0)
|   |   |   |   |   |   |   |   |   |   Humidity >= 0.82 : Moderately Busy (1/0)
|   |   |   |   |   |   |   |   |   Humidity >= 0.84 : Busy (12/0)
|   |   |   |   |   |   |   |   Quarter Progress >= 0.47
|   |   |   |   |   |   |   |   |   Time < 2215
|   |   |   |   |   |   |   |   |   |   Wind Speed < 8.65
|   |   |   |   |   |   |   |   |   |   |   Quarter Progress < 0.94 : Busy (21/0)
|   |   |   |   |   |   |   |   |   |   |   Quarter Progress >= 0.94
|   |   |   |   |   |   |   |   |   |   |   |   Visibility < 7.5
|   |   |   |   |   |   |   |   |   |   |   |   |   Time < 965 : Moderately Busy (2/0)
|   |   |   |   |   |   |   |   |   |   |   |   |   Time >= 965 : Busy (2/0)
|   |   |   |   |   |   |   |   |   |   |   |   Visibility >= 7.5 : Busy (2/0)
|   |   |   |   |   |   |   |   |   |   Wind Speed >= 8.65
|   |   |   |   |   |   |   |   |   |   |   Temp < 60.55
|   |   |   |   |   |   |   |   |   |   |   |   Quarter Progress < 0.95
|   |   |   |   |   |   |   |   |   |   |   |   |   Temp < 59.55
|   |   |   |   |   |   |   |   |   |   |   |   |   |   Time < 2065
|   |   |   |   |   |   |   |   |   |   |   |   |   |   |   Time < 1715
|   |   |   |   |   |   |   |   |   |   |   |   |   |   |   |   Humidity < 0.9
|   |   |   |   |   |   |   |   |   |   |   |   |   |   |   |   |   Time < 1565
|   |   |   |   |   |   |   |   |   |   |   |   |   |   |   |   |   |   Time < 915
|   |   |   |   |   |   |   |   |   |   |   |   |   |   |   |   |   |   |   Day < 1.5 : Busy (4/0)
|   |   |   |   |   |   |   |   |   |   |   |   |   |   |   |   |   |   |   Day >= 1.5
|   |   |   |   |   |   |   |   |   |   |   |   |   |   |   |   |   |   |   |   Time < 865 : Busy (1/0)
|   |   |   |   |   |   |   |   |   |   |   |   |   |   |   |   |   |   |   |   Time >= 865 : Moderately Busy (1/0)
|   |   |   |   |   |   |   |   |   |   |   |   |   |   |   |   |   |   Time >= 915 : Busy (26/0)
|   |   |   |   |   |   |   |   |   |   |   |   |   |   |   |   |   Time >= 1565
|   |   |   |   |   |   |   |   |   |   |   |   |   |   |   |   |   |   Time < 1665
|   |   |   |   |   |   |   |   |   |   |   |   |   |   |   |   |   |   |   Time < 1615 : Moderately Busy (2/0)
|   |   |   |   |   |   |   |   |   |   |   |   |   |   |   |   |   |   |   Time >= 1615 : Busy (5/0)
|   |   |   |   |   |   |   |   |   |   |   |   |   |   |   |   |   |   Time >= 1665
|   |   |   |   |   |   |   |   |   |   |   |   |   |   |   |   |   |   |   Quarter Progress < 0.75 : Moderately Busy (4/0)
|   |   |   |   |   |   |   |   |   |   |   |   |   |   |   |   |   |   |   Quarter Progress >= 0.75 : Busy (1/0)
|   |   |   |   |   |   |   |   |   |   |   |   |   |   |   |   Humidity >= 0.9 : Moderately Busy (2/0)
|   |   |   |   |   |   |   |   |   |   |   |   |   |   |   Time >= 1715 : Busy (19/0)
|   |   |   |   |   |   |   |   |   |   |   |   |   |   Time >= 2065
|   |   |   |   |   |   |   |   |   |   |   |   |   |   |   Wind Speed < 10.95 : Busy (1/0)
|   |   |   |   |   |   |   |   |   |   |   |   |   |   |   Wind Speed >= 10.95 : Moderately Busy (8/0)
|   |   |   |   |   |   |   |   |   |   |   |   |   Temp >= 59.55 : Moderately Busy (2/0)
|   |   |   |   |   |   |   |   |   |   |   |   Quarter Progress >= 0.95 : Moderately Busy (2/0)
|   |   |   |   |   |   |   |   |   |   |   Temp >= 60.55 : Busy (11/0)
|   |   |   |   |   |   |   |   |   Time >= 2215 : Not Busy (13/0)
|   |   |   |   |   Conditions = Scattered Clouds
|   |   |   |   |   |   Wind Speed < 12.65
|   |   |   |   |   |   |   Time < 1915 : Busy (4/0)
|   |   |   |   |   |   |   Time >= 1915 : Not Busy (1/0)
|   |   |   |   |   |   Wind Speed >= 12.65
|   |   |   |   |   |   |   Pressure < 29.89
|   |   |   |   |   |   |   |   Dew Point < 28.05 : Empty (1/0)
|   |   |   |   |   |   |   |   Dew Point >= 28.05
|   |   |   |   |   |   |   |   |   Temp < 53.55 : Moderately Busy (1/0)
|   |   |   |   |   |   |   |   |   Temp >= 53.55
|   |   |   |   |   |   |   |   |   |   Quarter Progress < 0.91 : Busy (4/0)
|   |   |   |   |   |   |   |   |   |   Quarter Progress >= 0.91
|   |   |   |   |   |   |   |   |   |   |   Time < 1665
|   |   |   |   |   |   |   |   |   |   |   |   Time < 1565 : Busy (1/0)
|   |   |   |   |   |   |   |   |   |   |   |   Time >= 1565 : Moderately Busy (1/0)
|   |   |   |   |   |   |   |   |   |   |   Time >= 1665 : Busy (2/0)
|   |   |   |   |   |   |   Pressure >= 29.89
|   |   |   |   |   |   |   |   Humidity < 0.71
|   |   |   |   |   |   |   |   |   Time < 15 : Not Busy (1/0)
|   |   |   |   |   |   |   |   |   Time >= 15 : Empty (3/0)
|   |   |   |   |   |   |   |   Humidity >= 0.71 : Moderately Busy (1/0)
|   |   |   |   |   Conditions = Clear
|   |   |   |   |   |   Time < 765
|   |   |   |   |   |   |   Time < 15 : Not Busy (1/0)
|   |   |   |   |   |   |   Time >= 15 : Empty (21/0)
|   |   |   |   |   |   Time >= 765
|   |   |   |   |   |   |   Time < 2115
|   |   |   |   |   |   |   |   Temp < 11
|   |   |   |   |   |   |   |   |   Time < 1200 : Not Busy (1/0)
|   |   |   |   |   |   |   |   |   Time >= 1200 : Empty (1/0)
|   |   |   |   |   |   |   |   Temp >= 11
|   |   |   |   |   |   |   |   |   Wind Speed < 10.95
|   |   |   |   |   |   |   |   |   |   Time < 1565
|   |   |   |   |   |   |   |   |   |   |   Humidity < 0.65 : Busy (22/0)
|   |   |   |   |   |   |   |   |   |   |   Humidity >= 0.65
|   |   |   |   |   |   |   |   |   |   |   |   Time < 815 : Not Busy (1/0)
|   |   |   |   |   |   |   |   |   |   |   |   Time >= 815
|   |   |   |   |   |   |   |   |   |   |   |   |   Humidity < 0.77
|   |   |   |   |   |   |   |   |   |   |   |   |   |   Time < 865 : Busy (1/0)
|   |   |   |   |   |   |   |   |   |   |   |   |   |   Time >= 865
|   |   |   |   |   |   |   |   |   |   |   |   |   |   |   Day < 1
|   |   |   |   |   |   |   |   |   |   |   |   |   |   |   |   Time < 965 : Busy (1/0)
|   |   |   |   |   |   |   |   |   |   |   |   |   |   |   |   Time >= 965 : Moderately Busy (1/0)
|   |   |   |   |   |   |   |   |   |   |   |   |   |   |   Day >= 1 : Moderately Busy (1/0)
|   |   |   |   |   |   |   |   |   |   |   |   |   Humidity >= 0.77 : Busy (2/0)
|   |   |   |   |   |   |   |   |   |   Time >= 1565
|   |   |   |   |   |   |   |   |   |   |   Quarter Progress < 0.95
|   |   |   |   |   |   |   |   |   |   |   |   Time < 1615 : Moderately Busy (2/0)
|   |   |   |   |   |   |   |   |   |   |   |   Time >= 1615
|   |   |   |   |   |   |   |   |   |   |   |   |   Humidity < 0.78
|   |   |   |   |   |   |   |   |   |   |   |   |   |   Time < 1665 : Busy (2/0)
|   |   |   |   |   |   |   |   |   |   |   |   |   |   Time >= 1665
|   |   |   |   |   |   |   |   |   |   |   |   |   |   |   Day < 1.5
|   |   |   |   |   |   |   |   |   |   |   |   |   |   |   |   Time < 1765 : Moderately Busy (2/0)
|   |   |   |   |   |   |   |   |   |   |   |   |   |   |   |   Time >= 1765
|   |   |   |   |   |   |   |   |   |   |   |   |   |   |   |   |   Time < 1915 : Busy (3/0)
|   |   |   |   |   |   |   |   |   |   |   |   |   |   |   |   |   Time >= 1915
|   |   |   |   |   |   |   |   |   |   |   |   |   |   |   |   |   |   Time < 1965 : Moderately Busy (1/0)
|   |   |   |   |   |   |   |   |   |   |   |   |   |   |   |   |   |   Time >= 1965 : Busy (1/0)
|   |   |   |   |   |   |   |   |   |   |   |   |   |   |   Day >= 1.5 : Moderately Busy (3/0)
|   |   |   |   |   |   |   |   |   |   |   |   |   Humidity >= 0.78 : Busy (4/0)
|   |   |   |   |   |   |   |   |   |   |   Quarter Progress >= 0.95 : Moderately Busy (2/0)
|   |   |   |   |   |   |   |   |   Wind Speed >= 10.95
|   |   |   |   |   |   |   |   |   |   Wind Speed < 13.25
|   |   |   |   |   |   |   |   |   |   |   Dew Point < 40
|   |   |   |   |   |   |   |   |   |   |   |   Humidity < 0.72
|   |   |   |   |   |   |   |   |   |   |   |   |   Time < 915 : Not Busy (1/0)
|   |   |   |   |   |   |   |   |   |   |   |   |   Time >= 915 : Busy (6/0)
|   |   |   |   |   |   |   |   |   |   |   |   Humidity >= 0.72 : Not Busy (2/0)
|   |   |   |   |   |   |   |   |   |   |   Dew Point >= 40 : Busy (10/0)
|   |   |   |   |   |   |   |   |   |   Wind Speed >= 13.25
|   |   |   |   |   |   |   |   |   |   |   Dew Point < 51.55
|   |   |   |   |   |   |   |   |   |   |   |   Wind Speed < 16.7 : Busy (16/0)
|   |   |   |   |   |   |   |   |   |   |   |   Wind Speed >= 16.7
|   |   |   |   |   |   |   |   |   |   |   |   |   Time < 965
|   |   |   |   |   |   |   |   |   |   |   |   |   |   Time < 865 : Busy (1/0)
|   |   |   |   |   |   |   |   |   |   |   |   |   |   Time >= 865 : Moderately Busy (1/0)
|   |   |   |   |   |   |   |   |   |   |   |   |   Time >= 965 : Busy (6/0)
|   |   |   |   |   |   |   |   |   |   |   Dew Point >= 51.55 : Moderately Busy (1/0)
|   |   |   |   |   |   |   Time >= 2115
|   |   |   |   |   |   |   |   Time < 2265
|   |   |   |   |   |   |   |   |   Pressure < 30.16 : Moderately Busy (13/0)
|   |   |   |   |   |   |   |   |   Pressure >= 30.16
|   |   |   |   |   |   |   |   |   |   Time < 2165 : Moderately Busy (1/0)
|   |   |   |   |   |   |   |   |   |   Time >= 2165 : Not Busy (2/0)
|   |   |   |   |   |   |   |   Time >= 2265 : Not Busy (7/0)
|   |   |   |   |   Conditions = Fog : Empty (0/0)
|   |   |   |   |   Conditions = Mostly Cloudy
|   |   |   |   |   |   Dew Point < 47
|   |   |   |   |   |   |   Time < 2115
|   |   |   |   |   |   |   |   Time < 1015
|   |   |   |   |   |   |   |   |   Time < 580 : Empty (1/0)
|   |   |   |   |   |   |   |   |   Time >= 580
|   |   |   |   |   |   |   |   |   |   Pressure < 29.87 : Moderately Busy (3/0)
|   |   |   |   |   |   |   |   |   |   Pressure >= 29.87 : Busy (4/0)
|   |   |   |   |   |   |   |   Time >= 1015
|   |   |   |   |   |   |   |   |   Pressure < 29.8
|   |   |   |   |   |   |   |   |   |   Time < 1965 : Busy (5/0)
|   |   |   |   |   |   |   |   |   |   Time >= 1965 : Moderately Busy (1/0)
|   |   |   |   |   |   |   |   |   Pressure >= 29.8 : Busy (25/0)
|   |   |   |   |   |   |   Time >= 2115 : Not Busy (2/0)
|   |   |   |   |   |   Dew Point >= 47
|   |   |   |   |   |   |   Humidity < 0.83
|   |   |   |   |   |   |   |   Time < 865 : Empty (2/0)
|   |   |   |   |   |   |   |   Time >= 865
|   |   |   |   |   |   |   |   |   Quarter Progress < 0.9
|   |   |   |   |   |   |   |   |   |   Time < 1615 : Busy (2/0)
|   |   |   |   |   |   |   |   |   |   Time >= 1615 : Moderately Busy (4/0)
|   |   |   |   |   |   |   |   |   Quarter Progress >= 0.9
|   |   |   |   |   |   |   |   |   |   Time < 2065 : Busy (3/0)
|   |   |   |   |   |   |   |   |   |   Time >= 2065 : Moderately Busy (1/0)
|   |   |   |   |   |   |   Humidity >= 0.83
|   |   |   |   |   |   |   |   Time < 330 : Not Busy (1/0)
|   |   |   |   |   |   |   |   Time >= 330 : Empty (2/0)
|   |   |   |   |   Conditions = Light Rain
|   |   |   |   |   |   Time < 765
|   |   |   |   |   |   |   Visibility < 8.5 : Empty (11/0)
|   |   |   |   |   |   |   Visibility >= 8.5
|   |   |   |   |   |   |   |   Time < 565 : Empty (2/0)
|   |   |   |   |   |   |   |   Time >= 565 : Not Busy (1/0)
|   |   |   |   |   |   Time >= 765
|   |   |   |   |   |   |   Temp < 41.95
|   |   |   |   |   |   |   |   Pressure < 29.62
|   |   |   |   |   |   |   |   |   Time < 1615 : Moderately Busy (1/0)
|   |   |   |   |   |   |   |   |   Time >= 1615
|   |   |   |   |   |   |   |   |   |   Time < 1665 : Busy (1/0)
|   |   |   |   |   |   |   |   |   |   Time >= 1665 : Moderately Busy (1/0)
|   |   |   |   |   |   |   |   Pressure >= 29.62 : Busy (9/0)
|   |   |   |   |   |   |   Temp >= 41.95 : Moderately Busy (3/0)
|   |   |   |   |   Conditions = Light Thunderstorms and Rain : Moderately Busy (1/0)
|   |   |   |   |   Conditions = Haze : Busy (1/0)
|   |   |   |   |   Conditions = Rain : Busy (4/0)
|   |   |   |   |   Conditions = Mist : Empty (0/0)
|   |   |   |   |   Conditions = Heavy Rain : Busy (1/0)
|   |   |   |   |   Conditions = Light Freezing Fog : Empty (0/0)
|   |   |   |   |   Conditions = Snow : Busy (3/0)
|   |   |   |   |   Conditions = Light Freezing Rain
|   |   |   |   |   |   Time < 2015 : Busy (2/0)
|   |   |   |   |   |   Time >= 2015 : Moderately Busy (1/0)
|   |   |   |   |   Conditions = Heavy Snow : Empty (0/0)
|   |   |   |   |   Conditions = Thunderstorm : Empty (0/0)
|   |   |   |   |   Conditions = Thunderstorms and Rain
|   |   |   |   |   |   Time < 1815 : Busy (1/0)
|   |   |   |   |   |   Time >= 1815 : Moderately Busy (1/0)
|   |   |   |   |   Conditions = Heavy Thunderstorms and Rain : Empty (0/0)
|   |   |   Quarter = Spring
|   |   |   |   Humidity < 0.51
|   |   |   |   |   Pressure < 29.7
|   |   |   |   |   |   Temp < 64.05
|   |   |   |   |   |   |   Time < 2265 : Moderately Busy (1/0)
|   |   |   |   |   |   |   Time >= 2265 : Not Busy (1/0)
|   |   |   |   |   |   Temp >= 64.05
|   |   |   |   |   |   |   Conditions = Partly Cloudy : Busy (11/0)
|   |   |   |   |   |   |   Conditions = Light Snow : Empty (0/0)
|   |   |   |   |   |   |   Conditions = Overcast : Busy (4/0)
|   |   |   |   |   |   |   Conditions = Scattered Clouds
|   |   |   |   |   |   |   |   Temp < 81.5
|   |   |   |   |   |   |   |   |   Dew Point < 45.95
|   |   |   |   |   |   |   |   |   |   Time < 1765 : Moderately Busy (1/0)
|   |   |   |   |   |   |   |   |   |   Time >= 1765 : Busy (1/0)
|   |   |   |   |   |   |   |   |   Dew Point >= 45.95 : Busy (5/0)
|   |   |   |   |   |   |   |   Temp >= 81.5 : Moderately Busy (2/0)
|   |   |   |   |   |   |   Conditions = Clear
|   |   |   |   |   |   |   |   Dew Point < 51.55 : Busy (4/0)
|   |   |   |   |   |   |   |   Dew Point >= 51.55
|   |   |   |   |   |   |   |   |   Time < 965 : Moderately Busy (1/0)
|   |   |   |   |   |   |   |   |   Time >= 965 : Busy (3/0)
|   |   |   |   |   |   |   Conditions = Fog : Empty (0/0)
|   |   |   |   |   |   |   Conditions = Mostly Cloudy
|   |   |   |   |   |   |   |   Temp < 80.55 : Busy (5/0)
|   |   |   |   |   |   |   |   Temp >= 80.55
|   |   |   |   |   |   |   |   |   Time < 1565 : Busy (1/0)
|   |   |   |   |   |   |   |   |   Time >= 1565 : Moderately Busy (1/0)
|   |   |   |   |   |   |   Conditions = Light Rain : Empty (0/0)
|   |   |   |   |   |   |   Conditions = Light Thunderstorms and Rain : Empty (0/0)
|   |   |   |   |   |   |   Conditions = Haze : Empty (0/0)
|   |   |   |   |   |   |   Conditions = Rain : Empty (0/0)
|   |   |   |   |   |   |   Conditions = Mist : Empty (0/0)
|   |   |   |   |   |   |   Conditions = Heavy Rain : Empty (0/0)
|   |   |   |   |   |   |   Conditions = Light Freezing Fog : Empty (0/0)
|   |   |   |   |   |   |   Conditions = Snow : Empty (0/0)
|   |   |   |   |   |   |   Conditions = Light Freezing Rain : Empty (0/0)
|   |   |   |   |   |   |   Conditions = Heavy Snow : Empty (0/0)
|   |   |   |   |   |   |   Conditions = Thunderstorm : Empty (0/0)
|   |   |   |   |   |   |   Conditions = Thunderstorms and Rain : Empty (0/0)
|   |   |   |   |   |   |   Conditions = Heavy Thunderstorms and Rain : Empty (0/0)
|   |   |   |   |   Pressure >= 29.7
|   |   |   |   |   |   Quarter Progress < 0.56
|   |   |   |   |   |   |   Pressure < 29.76 : Moderately Busy (4/0)
|   |   |   |   |   |   |   Pressure >= 29.76
|   |   |   |   |   |   |   |   Temp < 42
|   |   |   |   |   |   |   |   |   Day < 0.5 : Moderately Busy (2/0)
|   |   |   |   |   |   |   |   |   Day >= 0.5
|   |   |   |   |   |   |   |   |   |   Wind Speed < 7.5 : Moderately Busy (4/0)
|   |   |   |   |   |   |   |   |   |   Wind Speed >= 7.5
|   |   |   |   |   |   |   |   |   |   |   Time < 1865 : Busy (1/0)
|   |   |   |   |   |   |   |   |   |   |   Time >= 1865 : Moderately Busy (1/0)
|   |   |   |   |   |   |   |   Temp >= 42
|   |   |   |   |   |   |   |   |   Humidity < 0.36
|   |   |   |   |   |   |   |   |   |   Dew Point < 21.45 : Busy (2/0)
|   |   |   |   |   |   |   |   |   |   Dew Point >= 21.45
|   |   |   |   |   |   |   |   |   |   |   Quarter Progress < 0.22
|   |   |   |   |   |   |   |   |   |   |   |   Wind Speed < 16.7 : Moderately Busy (4/0)
|   |   |   |   |   |   |   |   |   |   |   |   Wind Speed >= 16.7
|   |   |   |   |   |   |   |   |   |   |   |   |   Time < 1665 : Moderately Busy (1/0)
|   |   |   |   |   |   |   |   |   |   |   |   |   Time >= 1665 : Busy (1/0)
|   |   |   |   |   |   |   |   |   |   |   Quarter Progress >= 0.22
|   |   |   |   |   |   |   |   |   |   |   |   Wind Speed < 10.35
|   |   |   |   |   |   |   |   |   |   |   |   |   Dew Point < 37.45 : Busy (2/0)
|   |   |   |   |   |   |   |   |   |   |   |   |   Dew Point >= 37.45
|   |   |   |   |   |   |   |   |   |   |   |   |   |   Dew Point < 38.45
|   |   |   |   |   |   |   |   |   |   |   |   |   |   |   Temp < 69.95
|   |   |   |   |   |   |   |   |   |   |   |   |   |   |   |   Time < 1565 : Busy (1/0)
|   |   |   |   |   |   |   |   |   |   |   |   |   |   |   |   Time >= 1565 : Moderately Busy (1/0)
|   |   |   |   |   |   |   |   |   |   |   |   |   |   |   Temp >= 69.95 : Moderately Busy (2/0)
|   |   |   |   |   |   |   |   |   |   |   |   |   |   Dew Point >= 38.45
|   |   |   |   |   |   |   |   |   |   |   |   |   |   |   Pressure < 30.29
|   |   |   |   |   |   |   |   |   |   |   |   |   |   |   |   Time < 1265 : Busy (1/0)
|   |   |   |   |   |   |   |   |   |   |   |   |   |   |   |   Time >= 1265
|   |   |   |   |   |   |   |   |   |   |   |   |   |   |   |   |   Humidity < 0.26 : Moderately Busy (1/0)
|   |   |   |   |   |   |   |   |   |   |   |   |   |   |   |   |   Humidity >= 0.26
|   |   |   |   |   |   |   |   |   |   |   |   |   |   |   |   |   |   Time < 1365 : Busy (1/0)
|   |   |   |   |   |   |   |   |   |   |   |   |   |   |   |   |   |   Time >= 1365
|   |   |   |   |   |   |   |   |   |   |   |   |   |   |   |   |   |   |   Humidity < 0.3 : Moderately Busy (1/0)
|   |   |   |   |   |   |   |   |   |   |   |   |   |   |   |   |   |   |   Humidity >= 0.3
|   |   |   |   |   |   |   |   |   |   |   |   |   |   |   |   |   |   |   |   Time < 1865 : Moderately Busy (1/0)
|   |   |   |   |   |   |   |   |   |   |   |   |   |   |   |   |   |   |   |   Time >= 1865 : Busy (1/0)
|   |   |   |   |   |   |   |   |   |   |   |   |   |   |   Pressure >= 30.29
|   |   |   |   |   |   |   |   |   |   |   |   |   |   |   |   Humidity < 0.28 : Busy (2/0)
|   |   |   |   |   |   |   |   |   |   |   |   |   |   |   |   Humidity >= 0.28
|   |   |   |   |   |   |   |   |   |   |   |   |   |   |   |   |   Time < 965 : Busy (1/0)
|   |   |   |   |   |   |   |   |   |   |   |   |   |   |   |   |   Time >= 965
|   |   |   |   |   |   |   |   |   |   |   |   |   |   |   |   |   |   Temp < 75 : Moderately Busy (1/0)
|   |   |   |   |   |   |   |   |   |   |   |   |   |   |   |   |   |   Temp >= 75
|   |   |   |   |   |   |   |   |   |   |   |   |   |   |   |   |   |   |   Time < 1065 : Busy (1/0)
|   |   |   |   |   |   |   |   |   |   |   |   |   |   |   |   |   |   |   Time >= 1065 : Moderately Busy (1/0)
|   |   |   |   |   |   |   |   |   |   |   |   Wind Speed >= 10.35
|   |   |   |   |   |   |   |   |   |   |   |   |   Time < 1765
|   |   |   |   |   |   |   |   |   |   |   |   |   |   Time < 1515
|   |   |   |   |   |   |   |   |   |   |   |   |   |   |   Time < 1465 : Moderately Busy (2/0)
|   |   |   |   |   |   |   |   |   |   |   |   |   |   |   Time >= 1465 : Busy (2/0)
|   |   |   |   |   |   |   |   |   |   |   |   |   |   Time >= 1515 : Moderately Busy (7/0)
|   |   |   |   |   |   |   |   |   |   |   |   |   Time >= 1765 : Busy (1/0)
|   |   |   |   |   |   |   |   |   Humidity >= 0.36
|   |   |   |   |   |   |   |   |   |   Conditions = Partly Cloudy
|   |   |   |   |   |   |   |   |   |   |   Time < 1165 : Moderately Busy (2/0)
|   |   |   |   |   |   |   |   |   |   |   Time >= 1165
|   |   |   |   |   |   |   |   |   |   |   |   Day < 1.5
|   |   |   |   |   |   |   |   |   |   |   |   |   Quarter Progress < 0.32
|   |   |   |   |   |   |   |   |   |   |   |   |   |   Dew Point < 23
|   |   |   |   |   |   |   |   |   |   |   |   |   |   |   Time < 1965 : Busy (1/0)
|   |   |   |   |   |   |   |   |   |   |   |   |   |   |   Time >= 1965 : Moderately Busy (1/0)
|   |   |   |   |   |   |   |   |   |   |   |   |   |   Dew Point >= 23 : Busy (2/0)
|   |   |   |   |   |   |   |   |   |   |   |   |   Quarter Progress >= 0.32
|   |   |   |   |   |   |   |   |   |   |   |   |   |   Time < 1965 : Moderately Busy (1/0)
|   |   |   |   |   |   |   |   |   |   |   |   |   |   Time >= 1965 : Busy (1/0)
|   |   |   |   |   |   |   |   |   |   |   |   Day >= 1.5 : Busy (2/0)
|   |   |   |   |   |   |   |   |   |   Conditions = Light Snow : Empty (0/0)
|   |   |   |   |   |   |   |   |   |   Conditions = Overcast
|   |   |   |   |   |   |   |   |   |   |   Time < 1565 : Busy (8/0)
|   |   |   |   |   |   |   |   |   |   |   Time >= 1565 : Moderately Busy (2/0)
|   |   |   |   |   |   |   |   |   |   Conditions = Scattered Clouds
|   |   |   |   |   |   |   |   |   |   |   Time < 1115
|   |   |   |   |   |   |   |   |   |   |   |   Time < 1065 : Busy (1/0)
|   |   |   |   |   |   |   |   |   |   |   |   Time >= 1065 : Moderately Busy (1/0)
|   |   |   |   |   |   |   |   |   |   |   Time >= 1115 : Busy (4/0)
|   |   |   |   |   |   |   |   |   |   Conditions = Clear
|   |   |   |   |   |   |   |   |   |   |   Time < 2065
|   |   |   |   |   |   |   |   |   |   |   |   Humidity < 0.43 : Busy (6/0)
|   |   |   |   |   |   |   |   |   |   |   |   Humidity >= 0.43
|   |   |   |   |   |   |   |   |   |   |   |   |   Quarter Progress < 0.38
|   |   |   |   |   |   |   |   |   |   |   |   |   |   Humidity < 0.48
|   |   |   |   |   |   |   |   |   |   |   |   |   |   |   Time < 865 : Busy (1/0)
|   |   |   |   |   |   |   |   |   |   |   |   |   |   |   Time >= 865
|   |   |   |   |   |   |   |   |   |   |   |   |   |   |   |   Time < 915 : Moderately Busy (1/0)
|   |   |   |   |   |   |   |   |   |   |   |   |   |   |   |   Time >= 915
|   |   |   |   |   |   |   |   |   |   |   |   |   |   |   |   |   Time < 965 : Busy (1/0)
|   |   |   |   |   |   |   |   |   |   |   |   |   |   |   |   |   Time >= 965
|   |   |   |   |   |   |   |   |   |   |   |   |   |   |   |   |   |   Quarter Progress < 0.24
|   |   |   |   |   |   |   |   |   |   |   |   |   |   |   |   |   |   |   Time < 1165 : Moderately Busy (1/0)
|   |   |   |   |   |   |   |   |   |   |   |   |   |   |   |   |   |   |   Time >= 1165
|   |   |   |   |   |   |   |   |   |   |   |   |   |   |   |   |   |   |   |   Time < 1265 : Busy (2/0)
|   |   |   |   |   |   |   |   |   |   |   |   |   |   |   |   |   |   |   |   Time >= 1265
|   |   |   |   |   |   |   |   |   |   |   |   |   |   |   |   |   |   |   |   |   Temp < 47 : Moderately Busy (1/0)
|   |   |   |   |   |   |   |   |   |   |   |   |   |   |   |   |   |   |   |   |   Temp >= 47
|   |   |   |   |   |   |   |   |   |   |   |   |   |   |   |   |   |   |   |   |   |   Time < 1365 : Busy (1/0)
|   |   |   |   |   |   |   |   |   |   |   |   |   |   |   |   |   |   |   |   |   |   Time >= 1365 : Moderately Busy (1/0)
|   |   |   |   |   |   |   |   |   |   |   |   |   |   |   |   |   |   Quarter Progress >= 0.24
|   |   |   |   |   |   |   |   |   |   |   |   |   |   |   |   |   |   |   Dew Point < 39.45 : Moderately Busy (1/0)
|   |   |   |   |   |   |   |   |   |   |   |   |   |   |   |   |   |   |   Dew Point >= 39.45
|   |   |   |   |   |   |   |   |   |   |   |   |   |   |   |   |   |   |   |   Time < 1065 : Busy (1/0)
|   |   |   |   |   |   |   |   |   |   |   |   |   |   |   |   |   |   |   |   Time >= 1065 : Moderately Busy (1/0)
|   |   |   |   |   |   |   |   |   |   |   |   |   |   Humidity >= 0.48 : Busy (4/0)
|   |   |   |   |   |   |   |   |   |   |   |   |   Quarter Progress >= 0.38
|   |   |   |   |   |   |   |   |   |   |   |   |   |   Pressure < 30.06
|   |   |   |   |   |   |   |   |   |   |   |   |   |   |   Quarter Progress < 0.47
|   |   |   |   |   |   |   |   |   |   |   |   |   |   |   |   Temp < 51.55
|   |   |   |   |   |   |   |   |   |   |   |   |   |   |   |   |   Time < 1965 : Busy (1/0)
|   |   |   |   |   |   |   |   |   |   |   |   |   |   |   |   |   Time >= 1965 : Moderately Busy (1/0)
|   |   |   |   |   |   |   |   |   |   |   |   |   |   |   |   Temp >= 51.55
|   |   |   |   |   |   |   |   |   |   |   |   |   |   |   |   |   Dew Point < 33.55 : Busy (2/0)
|   |   |   |   |   |   |   |   |   |   |   |   |   |   |   |   |   Dew Point >= 33.55
|   |   |   |   |   |   |   |   |   |   |   |   |   |   |   |   |   |   Time < 1565 : Busy (1/0)
|   |   |   |   |   |   |   |   |   |   |   |   |   |   |   |   |   |   Time >= 1565 : Moderately Busy (1/0)
|   |   |   |   |   |   |   |   |   |   |   |   |   |   |   Quarter Progress >= 0.47 : Busy (2/0)
|   |   |   |   |   |   |   |   |   |   |   |   |   |   Pressure >= 30.06 : Busy (6/0)
|   |   |   |   |   |   |   |   |   |   |   Time >= 2065 : Moderately Busy (4/0)
|   |   |   |   |   |   |   |   |   |   Conditions = Fog : Empty (0/0)
|   |   |   |   |   |   |   |   |   |   Conditions = Mostly Cloudy
|   |   |   |   |   |   |   |   |   |   |   Quarter Progress < 0.47
|   |   |   |   |   |   |   |   |   |   |   |   Day < 1 : Moderately Busy (2/0)
|   |   |   |   |   |   |   |   |   |   |   |   Day >= 1
|   |   |   |   |   |   |   |   |   |   |   |   |   Time < 1415 : Busy (2/0)
|   |   |   |   |   |   |   |   |   |   |   |   |   Time >= 1415
|   |   |   |   |   |   |   |   |   |   |   |   |   |   Humidity < 0.45 : Moderately Busy (2/0)
|   |   |   |   |   |   |   |   |   |   |   |   |   |   Humidity >= 0.45
|   |   |   |   |   |   |   |   |   |   |   |   |   |   |   Time < 1665 : Busy (1/0)
|   |   |   |   |   |   |   |   |   |   |   |   |   |   |   Time >= 1665
|   |   |   |   |   |   |   |   |   |   |   |   |   |   |   |   Dew Point < 45.5 : Moderately Busy (1/0)
|   |   |   |   |   |   |   |   |   |   |   |   |   |   |   |   Dew Point >= 45.5
|   |   |   |   |   |   |   |   |   |   |   |   |   |   |   |   |   Time < 1765 : Moderately Busy (1/0)
|   |   |   |   |   |   |   |   |   |   |   |   |   |   |   |   |   Time >= 1765 : Busy (1/0)
|   |   |   |   |   |   |   |   |   |   |   Quarter Progress >= 0.47 : Busy (2/0)
|   |   |   |   |   |   |   |   |   |   Conditions = Light Rain : Empty (0/0)
|   |   |   |   |   |   |   |   |   |   Conditions = Light Thunderstorms and Rain : Empty (0/0)
|   |   |   |   |   |   |   |   |   |   Conditions = Haze : Empty (0/0)
|   |   |   |   |   |   |   |   |   |   Conditions = Rain : Empty (0/0)
|   |   |   |   |   |   |   |   |   |   Conditions = Mist : Empty (0/0)
|   |   |   |   |   |   |   |   |   |   Conditions = Heavy Rain : Empty (0/0)
|   |   |   |   |   |   |   |   |   |   Conditions = Light Freezing Fog : Empty (0/0)
|   |   |   |   |   |   |   |   |   |   Conditions = Snow : Empty (0/0)
|   |   |   |   |   |   |   |   |   |   Conditions = Light Freezing Rain : Empty (0/0)
|   |   |   |   |   |   |   |   |   |   Conditions = Heavy Snow : Empty (0/0)
|   |   |   |   |   |   |   |   |   |   Conditions = Thunderstorm : Empty (0/0)
|   |   |   |   |   |   |   |   |   |   Conditions = Thunderstorms and Rain : Empty (0/0)
|   |   |   |   |   |   |   |   |   |   Conditions = Heavy Thunderstorms and Rain : Empty (0/0)
|   |   |   |   |   |   Quarter Progress >= 0.56
|   |   |   |   |   |   |   Time < 2115
|   |   |   |   |   |   |   |   Time < 1115
|   |   |   |   |   |   |   |   |   Humidity < 0.49
|   |   |   |   |   |   |   |   |   |   Quarter Progress < 0.75
|   |   |   |   |   |   |   |   |   |   |   Humidity < 0.4
|   |   |   |   |   |   |   |   |   |   |   |   Temp < 73.5 : Busy (2/0)
|   |   |   |   |   |   |   |   |   |   |   |   Temp >= 73.5
|   |   |   |   |   |   |   |   |   |   |   |   |   Time < 1065 : Busy (1/0)
|   |   |   |   |   |   |   |   |   |   |   |   |   Time >= 1065 : Moderately Busy (1/0)
|   |   |   |   |   |   |   |   |   |   |   Humidity >= 0.4
|   |   |   |   |   |   |   |   |   |   |   |   Time < 865 : Busy (2/0)
|   |   |   |   |   |   |   |   |   |   |   |   Time >= 865
|   |   |   |   |   |   |   |   |   |   |   |   |   Quarter Progress < 0.7
|   |   |   |   |   |   |   |   |   |   |   |   |   |   Pressure < 30.12
|   |   |   |   |   |   |   |   |   |   |   |   |   |   |   Time < 965 : Busy (1/0)
|   |   |   |   |   |   |   |   |   |   |   |   |   |   |   Time >= 965
|   |   |   |   |   |   |   |   |   |   |   |   |   |   |   |   Time < 1015 : Moderately Busy (1/0)
|   |   |   |   |   |   |   |   |   |   |   |   |   |   |   |   Time >= 1015
|   |   |   |   |   |   |   |   |   |   |   |   |   |   |   |   |   Time < 1065 : Busy (1/0)
|   |   |   |   |   |   |   |   |   |   |   |   |   |   |   |   |   Time >= 1065 : Moderately Busy (1/0)
|   |   |   |   |   |   |   |   |   |   |   |   |   |   Pressure >= 30.12 : Moderately Busy (1/0)
|   |   |   |   |   |   |   |   |   |   |   |   |   Quarter Progress >= 0.7 : Moderately Busy (1/0)
|   |   |   |   |   |   |   |   |   |   Quarter Progress >= 0.75
|   |   |   |   |   |   |   |   |   |   |   Wind Speed < 5.75
|   |   |   |   |   |   |   |   |   |   |   |   Time < 965 : Not Busy (1/0)
|   |   |   |   |   |   |   |   |   |   |   |   Time >= 965 : Moderately Busy (1/0)
|   |   |   |   |   |   |   |   |   |   |   Wind Speed >= 5.75
|   |   |   |   |   |   |   |   |   |   |   |   Wind Speed < 7.5
